<?xml version="1.0"?>
<opencv_storage>
<stage16>
  <maxWeakCount>100</maxWeakCount>
  <stageThreshold>-1.5702445507049561e+00</stageThreshold>
  <weakClassifiers>
    <_>
      <internalNodes>
        0 -1 6 2.4265833199024200e-02</internalNodes>
      <leafValues>
        -3.6774194240570068e-01 1.3533355295658112e-01</leafValues></_>
    <_>
      <internalNodes>
        0 -1 226 4.4489771127700806e-02</internalNodes>
      <leafValues>
        -1.5988714993000031e-01 2.8264331817626953e-01</leafValues></_>
    <_>
      <internalNodes>
        0 -1 108 1.5068868175148964e-02</internalNodes>
      <leafValues>
        1.7001301050186157e-01 -2.1875633299350739e-01</leafValues></_>
    <_>
      <internalNodes>
        0 -1 219 2.8066687285900116e-02</internalNodes>
      <leafValues>
        -1.0965277999639511e-01 1.9735392928123474e-01</leafValues></_>
    <_>
      <internalNodes>
        0 -1 251 2.3644234985113144e-02</internalNodes>
      <leafValues>
        -2.0783726871013641e-01 8.5707485675811768e-02</leafValues></_>
    <_>
      <internalNodes>
        0 -1 40 1.6613245010375977e-02</internalNodes>
      <leafValues>
        1.0647854208946228e-01 -1.4687569439411163e-01</leafValues></_>
    <_>
      <internalNodes>
        0 -1 123 2.5755692273378372e-02</internalNodes>
      <leafValues>
        1.1440436542034149e-01 -1.8291066586971283e-01</leafValues></_>
    <_>
      <internalNodes>
        0 -1 319 2.6917427778244019e-02</internalNodes>
      <leafValues>
        3.8239080458879471e-02 -2.1418984234333038e-01</leafValues></_>
    <_>
      <internalNodes>
        0 -1 203 3.5007052123546600e-02</internalNodes>
      <leafValues>
        -8.2480676472187042e-02 1.5634618699550629e-01</leafValues></_>
    <_>
      <internalNodes>
        0 -1 44 7.9409889876842499e-03</internalNodes>
      <leafValues>
        -3.0996513366699219e-01 5.2741035819053650e-02</leafValues></_>
    <_>
      <internalNodes>
        0 -1 161 4.7677557915449142e-02</internalNodes>
      <leafValues>
        9.4886049628257751e-03 -4.2434465885162354e-01</leafValues></_>
    <_>
      <internalNodes>
        0 -1 109 1.8483240157365799e-02</internalNodes>
      <leafValues>
        8.1860184669494629e-02 -1.4801564812660217e-01</leafValues></_>
    <_>
      <internalNodes>
        0 -1 264 2.8739398345351219e-02</internalNodes>
      <leafValues>
        7.0664495229721069e-02 -1.6606840491294861e-01</leafValues></_>
    <_>
      <internalNodes>
        0 -1 220 3.8781985640525818e-02</internalNodes>
      <leafValues>
        -9.0122006833553314e-02 1.1177459359169006e-01</leafValues></_>
    <_>
      <internalNodes>
        0 -1 94 2.6705807074904442e-02</internalNodes>
      <leafValues>
        9.9740594625473022e-02 -1.2689246237277985e-01</leafValues></_>
    <_>
      <internalNodes>
        0 -1 215 5.2104547619819641e-02</internalNodes>
      <leafValues>
        1.2855756096541882e-02 -3.9440670609474182e-01</leafValues></_>
    <_>
      <internalNodes>
        0 -1 321 3.4908920526504517e-02</internalNodes>
      <leafValues>
        4.4666852802038193e-02 -2.2520226240158081e-01</leafValues></_>
    <_>
      <internalNodes>
        0 -1 249 1.4387248083949089e-02</internalNodes>
      <leafValues>
        -1.6721603274345398e-01 5.5583756417036057e-02</leafValues></_>
    <_>
      <internalNodes>
        0 -1 36 1.5401346608996391e-02</internalNodes>
      <leafValues>
        -1.3415323197841644e-01 6.8753428757190704e-02</leafValues></_>
    <_>
      <internalNodes>
        0 -1 152 2.4574777111411095e-02</internalNodes>
      <leafValues>
        6.6669143736362457e-02 -1.4337776601314545e-01</leafValues></_>
    <_>
      <internalNodes>
        0 -1 44 3.1018082052469254e-02</internalNodes>
      <leafValues>
        -6.9435417652130127e-02 1.1967635899782181e-01</leafValues></_>
    <_>
      <internalNodes>
        0 -1 63 2.1566793322563171e-02</internalNodes>
      <leafValues>
        -1.1684564501047134e-01 7.5879827141761780e-02</leafValues></_>
    <_>
      <internalNodes>
        0 -1 261 6.1312764883041382e-03</internalNodes>
      <leafValues>
        -2.5223436951637268e-01 2.8488472104072571e-02</leafValues></_>
    <_>
      <internalNodes>
        0 -1 140 3.1076323240995407e-02</internalNodes>
      <leafValues>
        -7.6953560113906860e-02 1.0068798810243607e-01</leafValues></_>
    <_>
      <internalNodes>
        0 -1 227 3.5651504993438721e-02</internalNodes>
      <leafValues>
        -5.9975802898406982e-02 1.2485694140195847e-01</leafValues></_>
    <_>
      <internalNodes>
        0 -1 92 2.8824985027313232e-02</internalNodes>
      <leafValues>
        4.0497139096260071e-02 -1.8137562274932861e-01</leafValues></_>
    <_>
      <internalNodes>
        0 -1 229 1.7334453761577606e-02</internalNodes>
      <leafValues>
        9.8600059747695923e-02 -8.1259779632091522e-02</leafValues></_>
    <_>
      <internalNodes>
        0 -1 309 1.1349595151841640e-02</internalNodes>
      <leafValues>
        -2.2592671215534210e-01 3.7949245423078537e-02</leafValues></_>
    <_>
      <internalNodes>
        0 -1 226 4.3727036565542221e-02</internalNodes>
      <leafValues>
        5.1851496100425720e-02 -1.3154119253158569e-01</leafValues></_>
    <_>
      <internalNodes>
        0 -1 318 2.2725440561771393e-02</internalNodes>
      <leafValues>
        7.3053054511547089e-02 -9.9226921796798706e-02</leafValues></_>
    <_>
      <internalNodes>
        0 -1 223 1.0610220953822136e-02</internalNodes>
      <leafValues>
        1.0141887515783310e-01 -7.6596394181251526e-02</leafValues></_>
    <_>
      <internalNodes>
        0 -1 17 7.7655568718910217e-02</internalNodes>
      <leafValues>
        -2.0484827458858490e-02 4.1508525609970093e-01</leafValues></_>
    <_>
      <internalNodes>
        0 -1 39 1.9856402650475502e-03</internalNodes>
      <leafValues>
        -4.1769090294837952e-01 1.9993895664811134e-02</leafValues></_>
    <_>
      <internalNodes>
        0 -1 114 6.8281747400760651e-02</internalNodes>
      <leafValues>
        -3.2062724232673645e-02 2.4332745373249054e-01</leafValues></_>
    <_>
      <internalNodes>
        0 -1 240 1.0881052911281586e-01</internalNodes>
      <leafValues>
        1.0084242559969425e-02 -6.9275289773941040e-01</leafValues></_>
    <_>
      <internalNodes>
        0 -1 6 2.4151811376214027e-02</internalNodes>
      <leafValues>
        8.7863385677337646e-02 -7.7491328120231628e-02</leafValues></_>
    <_>
      <internalNodes>
        0 -1 5 2.9963541775941849e-02</internalNodes>
      <leafValues>
        -7.3182657361030579e-02 1.1451680958271027e-01</leafValues></_>
    <_>
      <internalNodes>
        0 -1 276 6.7371064797043800e-03</internalNodes>
      <leafValues>
        -2.9825249314308167e-01 1.8405688926577568e-02</leafValues></_>
    <_>
      <internalNodes>
        0 -1 226 1.7069892957806587e-02</internalNodes>
      <leafValues>
        -1.1478137969970703e-01 5.9134293347597122e-02</leafValues></_>
    <_>
      <internalNodes>
        0 -1 161 1.7587155103683472e-02</internalNodes>
      <leafValues>
        7.9689964652061462e-02 -8.2952640950679779e-02</leafValues></_>
    <_>
      <internalNodes>
        0 -1 96 2.3646490648388863e-02</internalNodes>
      <leafValues>
        -8.5695989429950714e-02 6.7223288118839264e-02</leafValues></_>
    <_>
      <internalNodes>
        0 -1 138 1.7684254795312881e-02</internalNodes>
      <leafValues>
        -1.2571798264980316e-01 5.2905827760696411e-02</leafValues></_>
    <_>
      <internalNodes>
        0 -1 304 3.4891191869974136e-02</internalNodes>
      <leafValues>
        -5.5940605700016022e-02 1.0932191461324692e-01</leafValues></_>
    <_>
      <internalNodes>
        0 -1 322 1.1291205883026123e-02</internalNodes>
      <leafValues>
        1.1504314094781876e-01 -5.7743962854146957e-02</leafValues></_>
    <_>
      <internalNodes>
        0 -1 164 1.6816604882478714e-02</internalNodes>
      <leafValues>
        -1.1195547133684158e-01 5.5637832731008530e-02</leafValues></_>
    <_>
      <internalNodes>
        0 -1 50 6.8353484384715557e-03</internalNodes>
      <leafValues>
        -2.4953317642211914e-01 2.4043150246143341e-02</leafValues></_>
    <_>
      <internalNodes>
        0 -1 3 1.5000727027654648e-02</internalNodes>
      <leafValues>
        8.3410896360874176e-02 -6.9629967212677002e-02</leafValues></_>
    <_>
      <internalNodes>
        0 -1 299 3.2536089420318604e-02</internalNodes>
      <leafValues>
        4.1733108460903168e-02 -1.3770963251590729e-01</leafValues></_>
    <_>
      <internalNodes>
        0 -1 206 2.1768398582935333e-02</internalNodes>
      <leafValues>
        7.5015999376773834e-02 -7.6107352972030640e-02</leafValues></_>
    <_>
      <internalNodes>
        0 -1 62 3.1734693795442581e-02</internalNodes>
      <leafValues>
        -6.7557483911514282e-02 1.0386131703853607e-01</leafValues></_>
    <_>
      <internalNodes>
        0 -1 71 9.5940697938203812e-03</internalNodes>
      <leafValues>
        -2.2864358127117157e-01 2.5980861857533455e-02</leafValues></_>
    <_>
      <internalNodes>
        0 -1 98 1.8125122413039207e-02</internalNodes>
      <leafValues>
        9.1087862849235535e-02 -6.7333526909351349e-02</leafValues></_>
    <_>
      <internalNodes>
        0 -1 61 2.1005477756261826e-02</internalNodes>
      <leafValues>
        -9.6654653549194336e-02 6.0965351760387421e-02</leafValues></_>
    <_>
      <internalNodes>
        0 -1 315 5.3921509534120560e-03</internalNodes>
      <leafValues>
        -2.6237934827804565e-01 2.0586403086781502e-02</leafValues></_>
    <_>
      <internalNodes>
        0 -1 215 1.7485458403825760e-02</internalNodes>
      <leafValues>
        8.9686430990695953e-02 -6.2766864895820618e-02</leafValues></_>
    <_>
      <internalNodes>
        0 -1 247 3.6047220230102539e-02</internalNodes>
      <leafValues>
        4.4166073203086853e-02 -1.2272062152624130e-01</leafValues></_>
    <_>
      <internalNodes>
        0 -1 117 4.1245552711188793e-04</internalNodes>
      <leafValues>
        3.9812529087066650e-01 -1.5294954180717468e-02</leafValues></_>
    <_>
      <internalNodes>
        0 -1 159 7.2135240770876408e-04</internalNodes>
      <leafValues>
        -6.0207426548004150e-01 8.9344112202525139e-03</leafValues></_>
    <_>
      <internalNodes>
        0 -1 222 2.4609237909317017e-02</internalNodes>
      <leafValues>
        5.0534490495920181e-02 -1.1174684762954712e-01</leafValues></_>
    <_>
      <internalNodes>
        0 -1 104 3.1437876168638468e-03</internalNodes>
      <leafValues>
        -4.3010357022285461e-01 1.2634729035198689e-02</leafValues></_>
    <_>
      <internalNodes>
        0 -1 150 5.5051031522452831e-03</internalNodes>
      <leafValues>
        -2.3077310621738434e-01 2.1386824548244476e-02</leafValues></_>
    <_>
      <internalNodes>
        0 -1 132 8.9255049824714661e-02</internalNodes>
      <leafValues>
        8.9438725262880325e-03 -5.2605295181274414e-01</leafValues></_>
    <_>
      <internalNodes>
        0 -1 93 1.5934027731418610e-02</internalNodes>
      <leafValues>
        6.8506330251693726e-02 -7.3210872709751129e-02</leafValues></_>
    <_>
      <internalNodes>
        0 -1 183 1.5328092500567436e-02</internalNodes>
      <leafValues>
        -1.2379598617553711e-01 4.4038757681846619e-02</leafValues></_>
    <_>
      <internalNodes>
        0 -1 217 3.4155305474996567e-02</internalNodes>
      <leafValues>
        3.2465320080518723e-02 -1.5660847723484039e-01</leafValues></_>
    <_>
      <internalNodes>
        0 -1 118 5.1368921995162964e-02</internalNodes>
      <leafValues>
        -3.5800106823444366e-02 1.6195343434810638e-01</leafValues></_>
    <_>
      <internalNodes>
        0 -1 154 6.3795119524002075e-02</internalNodes>
      <leafValues>
        2.0086159929633141e-02 -3.0528941750526428e-01</leafValues></_>
    <_>
      <internalNodes>
        0 -1 64 2.3075485602021217e-02</internalNodes>
      <leafValues>
        -8.3423338830471039e-02 5.9409663081169128e-02</leafValues></_>
    <_>
      <internalNodes>
        0 -1 88 4.8524655401706696e-02</internalNodes>
      <leafValues>
        -2.3967154324054718e-02 2.0446577668190002e-01</leafValues></_>
    <_>
      <internalNodes>
        0 -1 142 3.3269066363573074e-02</internalNodes>
      <leafValues>
        5.2532438188791275e-02 -1.1211687326431274e-01</leafValues></_>
    <_>
      <internalNodes>
        0 -1 177 5.4028123617172241e-02</internalNodes>
      <leafValues>
        -2.5004297494888306e-02 1.8969599902629852e-01</leafValues></_>
    <_>
      <internalNodes>
        0 -1 73 4.4047683477401733e-02</internalNodes>
      <leafValues>
        -3.6053452640771866e-02 1.3332721590995789e-01</leafValues></_>
    <_>
      <internalNodes>
        0 -1 319 6.7707039415836334e-03</internalNodes>
      <leafValues>
        1.5946209430694580e-01 -2.9584299772977829e-02</leafValues></_>
    <_>
      <internalNodes>
        0 -1 166 2.1573387086391449e-02</internalNodes>
      <leafValues>
        -9.1374523937702179e-02 5.2405022084712982e-02</leafValues></_>
    <_>
      <internalNodes>
        0 -1 292 4.8315778374671936e-02</internalNodes>
      <leafValues>
        3.6496512591838837e-02 -1.5995730459690094e-01</leafValues></_>
    <_>
      <internalNodes>
        0 -1 58 1.6521014273166656e-02</internalNodes>
      <leafValues>
        9.8359100520610809e-02 -5.4378062486648560e-02</leafValues></_>
    <_>
      <internalNodes>
        0 -1 139 2.0138779655098915e-02</internalNodes>
      <leafValues>
        -1.1920703202486038e-01 4.8887614160776138e-02</leafValues></_>
    <_>
      <internalNodes>
        0 -1 57 8.7283988250419497e-05</internalNodes>
      <leafValues>
        -4.9917909502983093e-01 1.0075458325445652e-02</leafValues></_>
    <_>
      <internalNodes>
        0 -1 118 8.9543178677558899e-02</internalNodes>
      <leafValues>
        -1.6248706728219986e-02 3.1426885724067688e-01</leafValues></_>
    <_>
      <internalNodes>
        0 -1 323 1.1225257813930511e-01</internalNodes>
      <leafValues>
        7.1734921075403690e-03 -5.6671839952468872e-01</leafValues></_>
    <_>
      <internalNodes>
        0 -1 220 8.8163629174232483e-02</internalNodes>
      <leafValues>
        -2.1366510540246964e-02 2.3114895820617676e-01</leafValues></_>
    <_>
      <internalNodes>
        0 -1 233 5.3023219108581543e-02</internalNodes>
      <leafValues>
        -2.8478847816586494e-02 1.7759473621845245e-01</leafValues></_>
    <_>
      <internalNodes>
        0 -1 88 2.0867103710770607e-02</internalNodes>
      <leafValues>
        -8.2432851195335388e-02 6.1385471373796463e-02</leafValues></_>
    <_>
      <internalNodes>
        0 -1 313 8.4469556808471680e-02</internalNodes>
      <leafValues>
        5.9736971743404865e-03 -6.8821823596954346e-01</leafValues></_>
    <_>
      <internalNodes>
        0 -1 114 4.0916532278060913e-02</internalNodes>
      <leafValues>
        -4.2539883404970169e-02 1.0855553299188614e-01</leafValues></_>
    <_>
      <internalNodes>
        0 -1 145 2.1661678329110146e-03</internalNodes>
      <leafValues>
        -3.7589982151985168e-01 1.1031194590032101e-02</leafValues></_>
    <_>
      <internalNodes>
        0 -1 152 5.1413059234619141e-02</internalNodes>
      <leafValues>
        1.5759753063321114e-02 -2.7457693219184875e-01</leafValues></_>
    <_>
      <internalNodes>
        0 -1 71 4.3590314686298370e-02</internalNodes>
      <leafValues>
        -3.5397604107856750e-02 1.3008697330951691e-01</leafValues></_>
    <_>
      <internalNodes>
        0 -1 309 3.0259348452091217e-02</internalNodes>
      <leafValues>
        -5.6200001388788223e-02 8.2146137952804565e-02</leafValues></_>
    <_>
      <internalNodes>
        0 -1 119 4.5004580169916153e-02</internalNodes>
      <leafValues>
        -3.6236107349395752e-02 1.2818177044391632e-01</leafValues></_>
    <_>
      <internalNodes>
        0 -1 154 3.3135153353214264e-02</internalNodes>
      <leafValues>
        4.2500503361225128e-02 -1.0616745799779892e-01</leafValues></_>
    <_>
      <internalNodes>
        0 -1 243 4.0691636502742767e-02</internalNodes>
      <leafValues>
        -3.9026863873004913e-02 1.2270029634237289e-01</leafValues></_>
    <_>
      <internalNodes>
        0 -1 300 6.0974294319748878e-04</internalNodes>
      <leafValues>
        -5.2741646766662598e-01 8.3328764885663986e-03</leafValues></_>
    <_>
      <internalNodes>
        0 -1 282 3.6977522075176239e-02</internalNodes>
      <leafValues>
        2.8093278408050537e-02 -1.4681521058082581e-01</leafValues></_>
    <_>
      <internalNodes>
        0 -1 321 1.7282005399465561e-02</internalNodes>
      <leafValues>
        5.9822991490364075e-02 -7.3588937520980835e-02</leafValues></_>
    <_>
      <internalNodes>
        0 -1 43 6.9162496365606785e-03</internalNodes>
      <leafValues>
        -1.8751148879528046e-01 2.3686002939939499e-02</leafValues></_>
    <_>
      <internalNodes>
        0 -1 109 1.7850417643785477e-03</internalNodes>
      <leafValues>
        2.2861851751804352e-01 -2.1282255649566650e-02</leafValues></_>
    <_>
      <internalNodes>
        0 -1 153 3.8841478526592255e-02</internalNodes>
      <leafValues>
        2.6743145659565926e-02 -1.7418640851974487e-01</leafValues></_>
    <_>
      <internalNodes>
        0 -1 108 1.5187374316155910e-02</internalNodes>
      <leafValues>
        -5.9637393802404404e-02 6.7917220294475555e-02</leafValues></_>
    <_>
      <internalNodes>
        0 -1 108 2.9035834595561028e-02</internalNodes>
      <leafValues>
        3.3089268952608109e-02 -1.4928530156612396e-01</leafValues></_></weakClassifiers></stage16>
</opencv_storage>
