<?xml version="1.0"?>
<opencv_storage>
<stage8>
  <maxWeakCount>100</maxWeakCount>
  <stageThreshold>-1.4938577413558960e+00</stageThreshold>
  <weakClassifiers>
    <_>
      <internalNodes>
        0 -1 6 5.6718535721302032e-02</internalNodes>
      <leafValues>
        -2.1088264882564545e-01 4.0040403604507446e-01</leafValues></_>
    <_>
      <internalNodes>
        0 -1 226 5.8105312287807465e-02</internalNodes>
      <leafValues>
        -1.0613594949245453e-01 4.3344846367835999e-01</leafValues></_>
    <_>
      <internalNodes>
        0 -1 216 1.4322152361273766e-02</internalNodes>
      <leafValues>
        1.4467312395572662e-01 -2.3135477304458618e-01</leafValues></_>
    <_>
      <internalNodes>
        0 -1 219 4.4144377112388611e-02</internalNodes>
      <leafValues>
        -1.0684189945459366e-01 2.4694935977458954e-01</leafValues></_>
    <_>
      <internalNodes>
        0 -1 319 1.7926741391420364e-02</internalNodes>
      <leafValues>
        1.6566269099712372e-01 -1.6734047234058380e-01</leafValues></_>
    <_>
      <internalNodes>
        0 -1 123 2.0889744162559509e-02</internalNodes>
      <leafValues>
        1.2159431725740433e-01 -1.7203065752983093e-01</leafValues></_>
    <_>
      <internalNodes>
        0 -1 250 1.9645541906356812e-02</internalNodes>
      <leafValues>
        -1.8722900748252869e-01 1.3291768729686737e-01</leafValues></_>
    <_>
      <internalNodes>
        0 -1 40 3.1725861132144928e-02</internalNodes>
      <leafValues>
        7.2609946131706238e-02 -2.2887268662452698e-01</leafValues></_>
    <_>
      <internalNodes>
        0 -1 92 1.9942572340369225e-02</internalNodes>
      <leafValues>
        1.0064670443534851e-01 -1.8027596175670624e-01</leafValues></_>
    <_>
      <internalNodes>
        0 -1 269 1.3524480164051056e-02</internalNodes>
      <leafValues>
        -1.8775464594364166e-01 9.5644257962703705e-02</leafValues></_>
    <_>
      <internalNodes>
        0 -1 109 2.9724242165684700e-02</internalNodes>
      <leafValues>
        3.5281758755445480e-02 -2.5256946682929993e-01</leafValues></_>
    <_>
      <internalNodes>
        0 -1 26 2.0255655050277710e-02</internalNodes>
      <leafValues>
        -1.4758390188217163e-01 8.9878380298614502e-02</leafValues></_>
    <_>
      <internalNodes>
        0 -1 150 6.1354763805866241e-02</internalNodes>
      <leafValues>
        3.1800363212823868e-02 -3.7594956159591675e-01</leafValues></_>
    <_>
      <internalNodes>
        0 -1 102 1.0979264974594116e-02</internalNodes>
      <leafValues>
        -2.6542523503303528e-01 4.6189423650503159e-02</leafValues></_>
    <_>
      <internalNodes>
        0 -1 58 3.5014960914850235e-02</internalNodes>
      <leafValues>
        5.6738119572401047e-02 -1.9322122633457184e-01</leafValues></_>
    <_>
      <internalNodes>
        0 -1 161 2.1564505994319916e-02</internalNodes>
      <leafValues>
        8.8129565119743347e-02 -1.3513334095478058e-01</leafValues></_>
    <_>
      <internalNodes>
        0 -1 229 1.3342143036425114e-02</internalNodes>
      <leafValues>
        1.5694563090801239e-01 -6.8078346550464630e-02</leafValues></_>
    <_>
      <internalNodes>
        0 -1 129 5.3334468975663185e-03</internalNodes>
      <leafValues>
        -4.5119529962539673e-01 2.6565337553620338e-02</leafValues></_>
    <_>
      <internalNodes>
        0 -1 220 4.1273236274719238e-02</internalNodes>
      <leafValues>
        -8.0047540366649628e-02 1.3673931360244751e-01</leafValues></_>
    <_>
      <internalNodes>
        0 -1 70 1.0780399665236473e-02</internalNodes>
      <leafValues>
        -2.4789758026599884e-01 4.5193858444690704e-02</leafValues></_>
    <_>
      <internalNodes>
        0 -1 203 2.8074849396944046e-02</internalNodes>
      <leafValues>
        -9.2773295938968658e-02 1.0039294511079788e-01</leafValues></_>
    <_>
      <internalNodes>
        0 -1 192 8.5199624300003052e-03</internalNodes>
      <leafValues>
        -3.0933058261871338e-01 2.6649691164493561e-02</leafValues></_>
    <_>
      <internalNodes>
        0 -1 264 2.1155739203095436e-02</internalNodes>
      <leafValues>
        8.4830187261104584e-02 -1.0609263926744461e-01</leafValues></_>
    <_>
      <internalNodes>
        0 -1 227 3.6938048899173737e-02</internalNodes>
      <leafValues>
        -6.9483712315559387e-02 1.6516670584678650e-01</leafValues></_>
    <_>
      <internalNodes>
        0 -1 19 1.9380815327167511e-02</internalNodes>
      <leafValues>
        -1.3205291330814362e-01 7.0664361119270325e-02</leafValues></_>
    <_>
      <internalNodes>
        0 -1 90 1.8239406868815422e-02</internalNodes>
      <leafValues>
        9.2233009636402130e-02 -9.7895018756389618e-02</leafValues></_>
    <_>
      <internalNodes>
        0 -1 64 1.3244686648249626e-02</internalNodes>
      <leafValues>
        -1.9088001549243927e-01 4.9778964370489120e-02</leafValues></_>
    <_>
      <internalNodes>
        0 -1 93 2.2791299968957901e-02</internalNodes>
      <leafValues>
        6.3988290727138519e-02 -1.2794783711433411e-01</leafValues></_>
    <_>
      <internalNodes>
        0 -1 215 2.4893587455153465e-02</internalNodes>
      <leafValues>
        7.5427658855915070e-02 -1.1562506854534149e-01</leafValues></_>
    <_>
      <internalNodes>
        0 -1 297 7.7808881178498268e-03</internalNodes>
      <leafValues>
        -2.6712605357170105e-01 3.1597040593624115e-02</leafValues></_>
    <_>
      <internalNodes>
        0 -1 2 1.9920472055673599e-02</internalNodes>
      <leafValues>
        6.9026939570903778e-02 -1.0846549272537231e-01</leafValues></_>
    <_>
      <internalNodes>
        0 -1 152 4.6942569315433502e-02</internalNodes>
      <leafValues>
        2.4342566728591919e-02 -3.2200595736503601e-01</leafValues></_>
    <_>
      <internalNodes>
        0 -1 224 6.7493945360183716e-02</internalNodes>
      <leafValues>
        -2.3080492392182350e-02 3.7678113579750061e-01</leafValues></_>
    <_>
      <internalNodes>
        0 -1 316 3.9655037224292755e-02</internalNodes>
      <leafValues>
        -5.6688409298658371e-02 1.4131601154804230e-01</leafValues></_>
    <_>
      <internalNodes>
        0 -1 294 1.9357405602931976e-02</internalNodes>
      <leafValues>
        -1.1502007395029068e-01 7.0092752575874329e-02</leafValues></_>
    <_>
      <internalNodes>
        0 -1 223 1.3330571353435516e-02</internalNodes>
      <leafValues>
        9.8768636584281921e-02 -8.7610736489295959e-02</leafValues></_>
    <_>
      <internalNodes>
        0 -1 202 1.9704613368958235e-03</internalNodes>
      <leafValues>
        -7.7295726537704468e-01 6.9326520897448063e-03</leafValues></_>
    <_>
      <internalNodes>
        0 -1 6 1.9915550947189331e-02</internalNodes>
      <leafValues>
        -1.0354744642972946e-01 6.8787761032581329e-02</leafValues></_>
    <_>
      <internalNodes>
        0 -1 270 3.0439989641308784e-02</internalNodes>
      <leafValues>
        -7.3145888745784760e-02 1.0997037589550018e-01</leafValues></_>
    <_>
      <internalNodes>
        0 -1 306 2.8396736830472946e-02</internalNodes>
      <leafValues>
        6.4641460776329041e-02 -1.2371046096086502e-01</leafValues></_>
    <_>
      <internalNodes>
        0 -1 72 3.0873164534568787e-02</internalNodes>
      <leafValues>
        -6.4443647861480713e-02 1.0405618697404861e-01</leafValues></_>
    <_>
      <internalNodes>
        0 -1 249 1.7985012382268906e-02</internalNodes>
      <leafValues>
        -1.1520970612764359e-01 5.4723452776670456e-02</leafValues></_>
    <_>
      <internalNodes>
        0 -1 282 2.4432629346847534e-02</internalNodes>
      <leafValues>
        6.2663495540618896e-02 -1.0050055384635925e-01</leafValues></_>
    <_>
      <internalNodes>
        0 -1 174 2.2171081975102425e-02</internalNodes>
      <leafValues>
        -1.0537382960319519e-01 8.2544408738613129e-02</leafValues></_>
    <_>
      <internalNodes>
        0 -1 278 4.1317813098430634e-02</internalNodes>
      <leafValues>
        -4.1206236928701401e-02 1.4697897434234619e-01</leafValues></_>
    <_>
      <internalNodes>
        0 -1 107 5.3040672093629837e-02</internalNodes>
      <leafValues>
        2.4878181517124176e-02 -3.3623376488685608e-01</leafValues></_>
    <_>
      <internalNodes>
        0 -1 209 2.3777443915605545e-02</internalNodes>
      <leafValues>
        -9.4112455844879150e-02 7.0752792060375214e-02</leafValues></_>
    <_>
      <internalNodes>
        0 -1 282 1.7872976139187813e-02</internalNodes>
      <leafValues>
        7.9571552574634552e-02 -6.8528510630130768e-02</leafValues></_>
    <_>
      <internalNodes>
        0 -1 165 3.9560408331453800e-03</internalNodes>
      <leafValues>
        -3.8041710853576660e-01 1.5561257489025593e-02</leafValues></_>
    <_>
      <internalNodes>
        0 -1 321 8.6421892046928406e-03</internalNodes>
      <leafValues>
        1.1997251957654953e-01 -4.8689950257539749e-02</leafValues></_>
    <_>
      <internalNodes>
        0 -1 176 9.2400927096605301e-03</internalNodes>
      <leafValues>
        -1.7771679162979126e-01 3.0611354857683182e-02</leafValues></_>
    <_>
      <internalNodes>
        0 -1 79 4.9316868185997009e-02</internalNodes>
      <leafValues>
        -2.9652336612343788e-02 1.9583640992641449e-01</leafValues></_>
    <_>
      <internalNodes>
        0 -1 132 4.7833830118179321e-02</internalNodes>
      <leafValues>
        3.1089756637811661e-02 -1.8548023700714111e-01</leafValues></_>
    <_>
      <internalNodes>
        0 -1 277 3.1477153301239014e-02</internalNodes>
      <leafValues>
        -5.7201452553272247e-02 9.8652161657810211e-02</leafValues></_>
    <_>
      <internalNodes>
        0 -1 142 2.2703517228364944e-02</internalNodes>
      <leafValues>
        8.1440255045890808e-02 -6.9691702723503113e-02</leafValues></_>
    <_>
      <internalNodes>
        0 -1 304 3.9657287299633026e-02</internalNodes>
      <leafValues>
        -5.3830318152904510e-02 1.4957492053508759e-01</leafValues></_>
    <_>
      <internalNodes>
        0 -1 27 2.2916384041309357e-03</internalNodes>
      <leafValues>
        -5.2290093898773193e-01 1.3570285402238369e-02</leafValues></_>
    <_>
      <internalNodes>
        0 -1 11 1.0051872814074159e-03</internalNodes>
      <leafValues>
        4.1479343175888062e-01 -1.7143469303846359e-02</leafValues></_>
    <_>
      <internalNodes>
        0 -1 47 4.2071668431162834e-03</internalNodes>
      <leafValues>
        -3.7384763360023499e-01 2.0455755293369293e-02</leafValues></_>
    <_>
      <internalNodes>
        0 -1 60 1.2068467214703560e-02</internalNodes>
      <leafValues>
        -1.5729908645153046e-01 3.5243730992078781e-02</leafValues></_>
    <_>
      <internalNodes>
        0 -1 164 3.7216313183307648e-02</internalNodes>
      <leafValues>
        -4.6810980886220932e-02 1.3092434406280518e-01</leafValues></_>
    <_>
      <internalNodes>
        0 -1 113 5.3243219852447510e-02</internalNodes>
      <leafValues>
        -3.0715355649590492e-02 1.8582066893577576e-01</leafValues></_>
    <_>
      <internalNodes>
        0 -1 40 1.3194348663091660e-02</internalNodes>
      <leafValues>
        1.3297675549983978e-01 -4.4931903481483459e-02</leafValues></_>
    <_>
      <internalNodes>
        0 -1 194 3.8476131856441498e-02</internalNodes>
      <leafValues>
        -4.8057716339826584e-02 1.2736533582210541e-01</leafValues></_>
    <_>
      <internalNodes>
        0 -1 71 2.0403137430548668e-02</internalNodes>
      <leafValues>
        -1.0450924932956696e-01 6.6319555044174194e-02</leafValues></_>
    <_>
      <internalNodes>
        0 -1 206 2.1623332053422928e-02</internalNodes>
      <leafValues>
        7.7999524772167206e-02 -7.8023716807365417e-02</leafValues></_>
    <_>
      <internalNodes>
        0 -1 94 1.4861101284623146e-02</internalNodes>
      <leafValues>
        1.1177987605333328e-01 -5.3225103765726089e-02</leafValues></_>
    <_>
      <internalNodes>
        0 -1 32 1.1551912128925323e-01</internalNodes>
      <leafValues>
        7.0089646615087986e-03 -9.2136967182159424e-01</leafValues></_>
    <_>
      <internalNodes>
        0 -1 152 2.5208700448274612e-02</internalNodes>
      <leafValues>
        4.9052622169256210e-02 -1.0443548113107681e-01</leafValues></_>
    <_>
      <internalNodes>
        0 -1 228 9.8619878292083740e-02</internalNodes>
      <leafValues>
        1.0182561352849007e-02 -5.2018135786056519e-01</leafValues></_>
    <_>
      <internalNodes>
        0 -1 264 2.6408123085275292e-04</internalNodes>
      <leafValues>
        -5.0522589683532715e-01 8.7767848744988441e-03</leafValues></_>
    <_>
      <internalNodes>
        0 -1 37 1.2162363156676292e-02</internalNodes>
      <leafValues>
        -1.2199844419956207e-01 3.9422079920768738e-02</leafValues></_>
    <_>
      <internalNodes>
        0 -1 243 3.4442126750946045e-02</internalNodes>
      <leafValues>
        -4.5677319169044495e-02 1.0317733883857727e-01</leafValues></_>
    <_>
      <internalNodes>
        0 -1 154 3.6266081035137177e-02</internalNodes>
      <leafValues>
        3.9412826299667358e-02 -1.2465233355760574e-01</leafValues></_>
    <_>
      <internalNodes>
        0 -1 118 2.9297141358256340e-02</internalNodes>
      <leafValues>
        -6.1339605599641800e-02 9.5200076699256897e-02</leafValues></_>
    <_>
      <internalNodes>
        0 -1 186 6.6542364656925201e-03</internalNodes>
      <leafValues>
        -2.2481270134449005e-01 1.9884539768099785e-02</leafValues></_>
    <_>
      <internalNodes>
        0 -1 124 1.0884935967624187e-02</internalNodes>
      <leafValues>
        9.3653485178947449e-02 -5.5021245032548904e-02</leafValues></_>
    <_>
      <internalNodes>
        0 -1 203 4.9374230206012726e-02</internalNodes>
      <leafValues>
        -3.4165620803833008e-02 1.4974848926067352e-01</leafValues></_>
    <_>
      <internalNodes>
        0 -1 59 4.2087770998477936e-02</internalNodes>
      <leafValues>
        3.0594486743211746e-02 -1.5661051869392395e-01</leafValues></_>
    <_>
      <internalNodes>
        0 -1 122 5.5531106889247894e-02</internalNodes>
      <leafValues>
        -2.0245801657438278e-02 2.1984422206878662e-01</leafValues></_>
    <_>
      <internalNodes>
        0 -1 229 1.2959171831607819e-01</internalNodes>
      <leafValues>
        7.8887818381190300e-03 -6.5384453535079956e-01</leafValues></_>
    <_>
      <internalNodes>
        0 -1 224 5.3682878613471985e-02</internalNodes>
      <leafValues>
        -2.2615542635321617e-02 2.1183304488658905e-01</leafValues></_>
    <_>
      <internalNodes>
        0 -1 219 8.2198992371559143e-02</internalNodes>
      <leafValues>
        -1.9229665398597717e-02 2.5274467468261719e-01</leafValues></_>
    <_>
      <internalNodes>
        0 -1 3 1.0844966769218445e-01</internalNodes>
      <leafValues>
        5.7739284820854664e-03 -7.0193779468536377e-01</leafValues></_>
    <_>
      <internalNodes>
        0 -1 21 4.4251006329432130e-04</internalNodes>
      <leafValues>
        -5.7966995239257812e-01 6.6208634525537491e-03</leafValues></_>
    <_>
      <internalNodes>
        0 -1 24 7.0216655731201172e-02</internalNodes>
      <leafValues>
        -1.6929503530263901e-02 2.6692742109298706e-01</leafValues></_>
    <_>
      <internalNodes>
        0 -1 185 7.9635351896286011e-02</internalNodes>
      <leafValues>
        9.2966472730040550e-03 -5.6941586732864380e-01</leafValues></_>
    <_>
      <internalNodes>
        0 -1 313 3.0171725898981094e-02</internalNodes>
      <leafValues>
        4.4816173613071442e-02 -1.0355340689420700e-01</leafValues></_>
    <_>
      <internalNodes>
        0 -1 277 4.9441173672676086e-02</internalNodes>
      <leafValues>
        -2.9444644227623940e-02 1.9589868187904358e-01</leafValues></_>
    <_>
      <internalNodes>
        0 -1 319 4.7030054032802582e-02</internalNodes>
      <leafValues>
        2.2901417687535286e-02 -2.0007780194282532e-01</leafValues></_>
    <_>
      <internalNodes>
        0 -1 184 1.6222840175032616e-02</internalNodes>
      <leafValues>
        -1.2208302319049835e-01 3.4876044839620590e-02</leafValues></_>
    <_>
      <internalNodes>
        0 -1 58 9.3081414699554443e-02</internalNodes>
      <leafValues>
        6.3504441641271114e-03 -6.4972150325775146e-01</leafValues></_>
    <_>
      <internalNodes>
        0 -1 102 3.8365539163351059e-02</internalNodes>
      <leafValues>
        -4.0057931095361710e-02 1.1174279451370239e-01</leafValues></_>
    <_>
      <internalNodes>
        0 -1 97 3.5556253045797348e-02</internalNodes>
      <leafValues>
        -4.3451029807329178e-02 1.0807494819164276e-01</leafValues></_>
    <_>
      <internalNodes>
        0 -1 93 2.0569753542076796e-04</internalNodes>
      <leafValues>
        -4.2937013506889343e-01 1.1223913170397282e-02</leafValues></_>
    <_>
      <internalNodes>
        0 -1 105 2.9353030025959015e-02</internalNodes>
      <leafValues>
        -5.8763872832059860e-02 8.5674367845058441e-02</leafValues></_>
    <_>
      <internalNodes>
        0 -1 322 1.7004784196615219e-02</internalNodes>
      <leafValues>
        7.0727758109569550e-02 -6.8946480751037598e-02</leafValues></_>
    <_>
      <internalNodes>
        0 -1 63 5.2947923541069031e-02</internalNodes>
      <leafValues>
        -2.2270468994975090e-02 1.9420731067657471e-01</leafValues></_>
    <_>
      <internalNodes>
        0 -1 206 5.6743033230304718e-02</internalNodes>
      <leafValues>
        1.6143700107932091e-02 -2.6313403248786926e-01</leafValues></_>
    <_>
      <internalNodes>
        0 -1 172 6.8020991981029510e-02</internalNodes>
      <leafValues>
        1.7539124935865402e-02 -2.3819211125373840e-01</leafValues></_></weakClassifiers></stage8>
</opencv_storage>
