<?xml version="1.0"?>
<opencv_storage>
<stage9>
  <maxWeakCount>100</maxWeakCount>
  <stageThreshold>-1.4954465627670288e+00</stageThreshold>
  <weakClassifiers>
    <_>
      <internalNodes>
        0 -1 6 4.4964484870433807e-02</internalNodes>
      <leafValues>
        -2.5924867391586304e-01 3.2579711079597473e-01</leafValues></_>
    <_>
      <internalNodes>
        0 -1 226 3.5424977540969849e-02</internalNodes>
      <leafValues>
        -1.8274168670177460e-01 2.5154167413711548e-01</leafValues></_>
    <_>
      <internalNodes>
        0 -1 9 1.4671055600047112e-02</internalNodes>
      <leafValues>
        1.7855951189994812e-01 -2.1567575633525848e-01</leafValues></_>
    <_>
      <internalNodes>
        0 -1 222 1.4636476524174213e-02</internalNodes>
      <leafValues>
        1.7284114658832550e-01 -1.5010355412960052e-01</leafValues></_>
    <_>
      <internalNodes>
        0 -1 93 1.6511110588908195e-02</internalNodes>
      <leafValues>
        1.2040082365274429e-01 -1.9088651239871979e-01</leafValues></_>
    <_>
      <internalNodes>
        0 -1 305 3.3132858574390411e-02</internalNodes>
      <leafValues>
        -7.5715847313404083e-02 2.0955666899681091e-01</leafValues></_>
    <_>
      <internalNodes>
        0 -1 203 3.4872669726610184e-02</internalNodes>
      <leafValues>
        -1.2685328722000122e-01 1.4451166987419128e-01</leafValues></_>
    <_>
      <internalNodes>
        0 -1 320 1.7431661486625671e-02</internalNodes>
      <leafValues>
        1.4517569541931152e-01 -1.0589034855365753e-01</leafValues></_>
    <_>
      <internalNodes>
        0 -1 18 8.5150692611932755e-03</internalNodes>
      <leafValues>
        -3.6828339099884033e-01 1.9424337893724442e-02</leafValues></_>
    <_>
      <internalNodes>
        0 -1 109 2.6199199259281158e-02</internalNodes>
      <leafValues>
        7.1868315339088440e-02 -2.0895648002624512e-01</leafValues></_>
    <_>
      <internalNodes>
        0 -1 219 1.5832740813493729e-02</internalNodes>
      <leafValues>
        -1.9431775808334351e-01 7.0010595023632050e-02</leafValues></_>
    <_>
      <internalNodes>
        0 -1 264 3.2013516873121262e-02</internalNodes>
      <leafValues>
        6.7489139735698700e-02 -2.0469236373901367e-01</leafValues></_>
    <_>
      <internalNodes>
        0 -1 161 2.9604315757751465e-02</internalNodes>
      <leafValues>
        7.2560392320156097e-02 -1.9397574663162231e-01</leafValues></_>
    <_>
      <internalNodes>
        0 -1 282 2.9442315921187401e-02</internalNodes>
      <leafValues>
        6.0524355620145798e-02 -1.9091771543025970e-01</leafValues></_>
    <_>
      <internalNodes>
        0 -1 3 2.6468956843018532e-02</internalNodes>
      <leafValues>
        7.1112565696239471e-02 -1.5749059617519379e-01</leafValues></_>
    <_>
      <internalNodes>
        0 -1 6 4.5162968337535858e-02</internalNodes>
      <leafValues>
        6.9117374718189240e-02 -1.6775472462177277e-01</leafValues></_>
    <_>
      <internalNodes>
        0 -1 58 4.5950099825859070e-02</internalNodes>
      <leafValues>
        4.8537269234657288e-02 -2.8287908434867859e-01</leafValues></_>
    <_>
      <internalNodes>
        0 -1 152 4.0473144501447678e-02</internalNodes>
      <leafValues>
        2.7586316689848900e-02 -2.9818987846374512e-01</leafValues></_>
    <_>
      <internalNodes>
        0 -1 44 1.5144841745495796e-02</internalNodes>
      <leafValues>
        -1.5964891016483307e-01 6.2447004020214081e-02</leafValues></_>
    <_>
      <internalNodes>
        0 -1 102 2.3218134418129921e-02</internalNodes>
      <leafValues>
        -1.1842901259660721e-01 8.6976915597915649e-02</leafValues></_>
    <_>
      <internalNodes>
        0 -1 92 2.7480784803628922e-02</internalNodes>
      <leafValues>
        5.6402944028377533e-02 -1.7035177350044250e-01</leafValues></_>
    <_>
      <internalNodes>
        0 -1 229 2.7425656095147133e-02</internalNodes>
      <leafValues>
        6.8331517279148102e-02 -1.3637501001358032e-01</leafValues></_>
    <_>
      <internalNodes>
        0 -1 220 5.2352156490087509e-02</internalNodes>
      <leafValues>
        -5.8051958680152893e-02 1.7706340551376343e-01</leafValues></_>
    <_>
      <internalNodes>
        0 -1 177 5.5686053819954395e-03</internalNodes>
      <leafValues>
        -3.3059445023536682e-01 2.6955867186188698e-02</leafValues></_>
    <_>
      <internalNodes>
        0 -1 192 3.1772457063198090e-02</internalNodes>
      <leafValues>
        -6.8927176296710968e-02 1.3007648289203644e-01</leafValues></_>
    <_>
      <internalNodes>
        0 -1 209 2.8620403259992599e-02</internalNodes>
      <leafValues>
        -8.7593898177146912e-02 1.1024819314479828e-01</leafValues></_>
    <_>
      <internalNodes>
        0 -1 277 2.2827807813882828e-02</internalNodes>
      <leafValues>
        -1.1049682646989822e-01 8.4430880844593048e-02</leafValues></_>
    <_>
      <internalNodes>
        0 -1 304 5.1823228597640991e-02</internalNodes>
      <leafValues>
        -3.9979685097932816e-02 2.6317337155342102e-01</leafValues></_>
    <_>
      <internalNodes>
        0 -1 40 2.4870621040463448e-02</internalNodes>
      <leafValues>
        8.2660168409347534e-02 -1.1510763317346573e-01</leafValues></_>
    <_>
      <internalNodes>
        0 -1 124 2.0054990425705910e-02</internalNodes>
      <leafValues>
        7.2401016950607300e-02 -1.3269750773906708e-01</leafValues></_>
    <_>
      <internalNodes>
        0 -1 5 2.5717351585626602e-02</internalNodes>
      <leafValues>
        -8.5898771882057190e-02 9.9506072700023651e-02</leafValues></_>
    <_>
      <internalNodes>
        0 -1 297 1.0346282273530960e-02</internalNodes>
      <leafValues>
        -2.1490874886512756e-01 3.5973425954580307e-02</leafValues></_>
    <_>
      <internalNodes>
        0 -1 154 4.2263671755790710e-02</internalNodes>
      <leafValues>
        4.5224908739328384e-02 -2.0112213492393494e-01</leafValues></_>
    <_>
      <internalNodes>
        0 -1 215 2.2252343595027924e-02</internalNodes>
      <leafValues>
        8.7643198668956757e-02 -9.8686248064041138e-02</leafValues></_>
    <_>
      <internalNodes>
        0 -1 278 1.2093719094991684e-02</internalNodes>
      <leafValues>
        -2.0446892082691193e-01 4.3728031218051910e-02</leafValues></_>
    <_>
      <internalNodes>
        0 -1 319 1.1163981631398201e-02</internalNodes>
      <leafValues>
        1.4331626892089844e-01 -5.5829871445894241e-02</leafValues></_>
    <_>
      <internalNodes>
        0 -1 17 9.8893314599990845e-02</internalNodes>
      <leafValues>
        -1.4491520822048187e-02 5.5329686403274536e-01</leafValues></_>
    <_>
      <internalNodes>
        0 -1 206 4.0063366293907166e-02</internalNodes>
      <leafValues>
        4.0216244757175446e-02 -1.9220618903636932e-01</leafValues></_>
    <_>
      <internalNodes>
        0 -1 61 4.2360506951808929e-02</internalNodes>
      <leafValues>
        -4.6564590185880661e-02 1.5753629803657532e-01</leafValues></_>
    <_>
      <internalNodes>
        0 -1 186 6.8859398365020752e-02</internalNodes>
      <leafValues>
        1.5490110963582993e-02 -4.7767990827560425e-01</leafValues></_>
    <_>
      <internalNodes>
        0 -1 176 2.9424170032143593e-02</internalNodes>
      <leafValues>
        -6.8783015012741089e-02 1.0476515442132950e-01</leafValues></_>
    <_>
      <internalNodes>
        0 -1 119 4.0286011993885040e-02</internalNodes>
      <leafValues>
        -5.1765885204076767e-02 1.5229433774948120e-01</leafValues></_>
    <_>
      <internalNodes>
        0 -1 271 2.4922236800193787e-02</internalNodes>
      <leafValues>
        -9.6389882266521454e-02 8.0329053103923798e-02</leafValues></_>
    <_>
      <internalNodes>
        0 -1 114 6.0624327510595322e-02</internalNodes>
      <leafValues>
        -3.3580910414457321e-02 2.2082129120826721e-01</leafValues></_>
    <_>
      <internalNodes>
        0 -1 266 3.7722908891737461e-03</internalNodes>
      <leafValues>
        -3.1476935744285583e-01 2.4152001366019249e-02</leafValues></_>
    <_>
      <internalNodes>
        0 -1 322 3.0764307826757431e-02</internalNodes>
      <leafValues>
        4.3618883937597275e-02 -1.5333357453346252e-01</leafValues></_>
    <_>
      <internalNodes>
        0 -1 100 8.5716113448143005e-02</internalNodes>
      <leafValues>
        1.3175745494663715e-02 -4.9786743521690369e-01</leafValues></_>
    <_>
      <internalNodes>
        0 -1 229 8.9001953601837158e-03</internalNodes>
      <leafValues>
        1.7126832902431488e-01 -4.1411276906728745e-02</leafValues></_>
    <_>
      <internalNodes>
        0 -1 12 4.7135040163993835e-02</internalNodes>
      <leafValues>
        -4.6495985239744186e-02 1.4040422439575195e-01</leafValues></_>
    <_>
      <internalNodes>
        0 -1 319 4.3483242392539978e-02</internalNodes>
      <leafValues>
        2.9191967099905014e-02 -2.2719933092594147e-01</leafValues></_>
    <_>
      <internalNodes>
        0 -1 138 5.8483825996518135e-03</internalNodes>
      <leafValues>
        -3.6799278855323792e-01 1.6832090914249420e-02</leafValues></_>
    <_>
      <internalNodes>
        0 -1 90 1.2660425156354904e-02</internalNodes>
      <leafValues>
        1.1009589582681656e-01 -6.0152836143970490e-02</leafValues></_>
    <_>
      <internalNodes>
        0 -1 41 3.4020181745290756e-02</internalNodes>
      <leafValues>
        4.6910580247640610e-02 -1.3586604595184326e-01</leafValues></_>
    <_>
      <internalNodes>
        0 -1 268 3.0126044526696205e-02</internalNodes>
      <leafValues>
        -5.7168073952198029e-02 1.2035775929689407e-01</leafValues></_>
    <_>
      <internalNodes>
        0 -1 130 8.8161397725343704e-03</internalNodes>
      <leafValues>
        -2.6099735498428345e-01 2.3363817483186722e-02</leafValues></_>
    <_>
      <internalNodes>
        0 -1 270 4.2259469628334045e-02</internalNodes>
      <leafValues>
        -4.1395112872123718e-02 1.5286384522914886e-01</leafValues></_>
    <_>
      <internalNodes>
        0 -1 276 2.3709159344434738e-02</internalNodes>
      <leafValues>
        -8.5135668516159058e-02 6.6899128258228302e-02</leafValues></_>
    <_>
      <internalNodes>
        0 -1 118 8.9424692094326019e-02</internalNodes>
      <leafValues>
        -1.5220073983073235e-02 3.5648974776268005e-01</leafValues></_>
    <_>
      <internalNodes>
        0 -1 164 3.8652922958135605e-02</internalNodes>
      <leafValues>
        -4.4444985687732697e-02 1.3577006757259369e-01</leafValues></_>
    <_>
      <internalNodes>
        0 -1 114 1.8072918057441711e-02</internalNodes>
      <leafValues>
        -9.6148557960987091e-02 6.6063940525054932e-02</leafValues></_>
    <_>
      <internalNodes>
        0 -1 303 3.1926739960908890e-02</internalNodes>
      <leafValues>
        -6.4456075429916382e-02 9.8090231418609619e-02</leafValues></_>
    <_>
      <internalNodes>
        0 -1 243 3.8274288177490234e-02</internalNodes>
      <leafValues>
        -4.9440614879131317e-02 1.4723981916904449e-01</leafValues></_>
    <_>
      <internalNodes>
        0 -1 135 5.0300709903240204e-02</internalNodes>
      <leafValues>
        2.4257153272628784e-02 -2.2535479068756104e-01</leafValues></_>
    <_>
      <internalNodes>
        0 -1 71 4.3587647378444672e-02</internalNodes>
      <leafValues>
        -3.6851231008768082e-02 1.5114259719848633e-01</leafValues></_>
    <_>
      <internalNodes>
        0 -1 215 4.6872340142726898e-02</internalNodes>
      <leafValues>
        2.4644607678055763e-02 -2.4794916808605194e-01</leafValues></_>
    <_>
      <internalNodes>
        0 -1 280 1.3713626191020012e-02</internalNodes>
      <leafValues>
        -1.3987591862678528e-01 4.2618084698915482e-02</leafValues></_>
    <_>
      <internalNodes>
        0 -1 96 3.2969541847705841e-02</internalNodes>
      <leafValues>
        -5.9502609074115753e-02 1.0077879577875137e-01</leafValues></_>
    <_>
      <internalNodes>
        0 -1 72 3.0833855271339417e-02</internalNodes>
      <leafValues>
        -6.3640318810939789e-02 9.7569338977336884e-02</leafValues></_>
    <_>
      <internalNodes>
        0 -1 109 8.6364876478910446e-03</internalNodes>
      <leafValues>
        1.2075115740299225e-01 -5.5879436433315277e-02</leafValues></_>
    <_>
      <internalNodes>
        0 -1 187 8.3450980484485626e-02</internalNodes>
      <leafValues>
        6.8086623214185238e-03 -6.9226986169815063e-01</leafValues></_>
    <_>
      <internalNodes>
        0 -1 159 6.9135986268520355e-02</internalNodes>
      <leafValues>
        1.5139827504754066e-02 -3.0081266164779663e-01</leafValues></_>
    <_>
      <internalNodes>
        0 -1 91 1.6588956117630005e-02</internalNodes>
      <leafValues>
        6.8853199481964111e-02 -7.0722527801990509e-02</leafValues></_>
    <_>
      <internalNodes>
        0 -1 59 2.4689607322216034e-02</internalNodes>
      <leafValues>
        6.8485230207443237e-02 -9.1778844594955444e-02</leafValues></_>
    <_>
      <internalNodes>
        0 -1 310 1.0678878054022789e-02</internalNodes>
      <leafValues>
        -2.2656702995300293e-01 2.2357957437634468e-02</leafValues></_>
    <_>
      <internalNodes>
        0 -1 9 1.5735093504190445e-02</internalNodes>
      <leafValues>
        -6.7139863967895508e-02 7.7838137745857239e-02</leafValues></_>
    <_>
      <internalNodes>
        0 -1 108 2.5495681911706924e-02</internalNodes>
      <leafValues>
        4.6922564506530762e-02 -1.3165518641471863e-01</leafValues></_>
    <_>
      <internalNodes>
        0 -1 37 1.7843991518020630e-02</internalNodes>
      <leafValues>
        -9.6370786428451538e-02 5.7766538113355637e-02</leafValues></_>
    <_>
      <internalNodes>
        0 -1 185 2.3696210235357285e-02</internalNodes>
      <leafValues>
        -6.8181253969669342e-02 7.3028825223445892e-02</leafValues></_>
    <_>
      <internalNodes>
        0 -1 163 2.9441574588418007e-02</internalNodes>
      <leafValues>
        -5.8675274252891541e-02 8.2376129925251007e-02</leafValues></_>
    <_>
      <internalNodes>
        0 -1 118 4.9907993525266647e-04</internalNodes>
      <leafValues>
        4.3528926372528076e-01 -1.1858130805194378e-02</leafValues></_>
    <_>
      <internalNodes>
        0 -1 154 2.0989787299185991e-03</internalNodes>
      <leafValues>
        -3.3169883489608765e-01 1.5516485087573528e-02</leafValues></_>
    <_>
      <internalNodes>
        0 -1 193 5.0380835309624672e-03</internalNodes>
      <leafValues>
        -4.5420381426811218e-01 8.8036954402923584e-03</leafValues></_>
    <_>
      <internalNodes>
        0 -1 70 4.9538176506757736e-02</internalNodes>
      <leafValues>
        -2.6465300470590591e-02 1.8471802771091461e-01</leafValues></_>
    <_>
      <internalNodes>
        0 -1 313 2.4867706000804901e-02</internalNodes>
      <leafValues>
        6.1708368360996246e-02 -8.7679840624332428e-02</leafValues></_>
    <_>
      <internalNodes>
        0 -1 5 5.0977975130081177e-02</internalNodes>
      <leafValues>
        -2.9549846425652504e-02 1.6055408120155334e-01</leafValues></_>
    <_>
      <internalNodes>
        0 -1 17 5.5373165756464005e-02</internalNodes>
      <leafValues>
        -2.3088287562131882e-02 2.1637634932994843e-01</leafValues></_>
    <_>
      <internalNodes>
        0 -1 104 1.6915157437324524e-02</internalNodes>
      <leafValues>
        -1.0898136347532272e-01 4.3955475091934204e-02</leafValues></_>
    <_>
      <internalNodes>
        0 -1 62 2.9377795755863190e-02</internalNodes>
      <leafValues>
        -6.2048800289630890e-02 8.7893672287464142e-02</leafValues></_>
    <_>
      <internalNodes>
        0 -1 98 1.8232719972729683e-02</internalNodes>
      <leafValues>
        8.7369114160537720e-02 -6.1213422566652298e-02</leafValues></_>
    <_>
      <internalNodes>
        0 -1 300 2.2620003670454025e-02</internalNodes>
      <leafValues>
        6.0597330331802368e-02 -7.8818462789058685e-02</leafValues></_>
    <_>
      <internalNodes>
        0 -1 137 2.4391945451498032e-02</internalNodes>
      <leafValues>
        -7.5053766369819641e-02 7.4874378740787506e-02</leafValues></_>
    <_>
      <internalNodes>
        0 -1 122 5.1043979823589325e-02</internalNodes>
      <leafValues>
        -2.6086114346981049e-02 2.2484286129474640e-01</leafValues></_>
    <_>
      <internalNodes>
        0 -1 230 2.2775722667574883e-02</internalNodes>
      <leafValues>
        5.3716868162155151e-02 -9.4417490065097809e-02</leafValues></_>
    <_>
      <internalNodes>
        0 -1 154 1.0760897397994995e-01</internalNodes>
      <leafValues>
        4.8246728256344795e-03 -8.6439526081085205e-01</leafValues></_>
    <_>
      <internalNodes>
        0 -1 161 6.0558870434761047e-02</internalNodes>
      <leafValues>
        1.2728825211524963e-02 -3.3427602052688599e-01</leafValues></_>
    <_>
      <internalNodes>
        0 -1 40 7.7455751597881317e-02</internalNodes>
      <leafValues>
        9.9198697134852409e-03 -4.0418264269828796e-01</leafValues></_>
    <_>
      <internalNodes>
        0 -1 245 2.7680041268467903e-02</internalNodes>
      <leafValues>
        4.8118077218532562e-02 -9.4482935965061188e-02</leafValues></_>
    <_>
      <internalNodes>
        0 -1 316 3.8439851254224777e-02</internalNodes>
      <leafValues>
        -4.7230452299118042e-02 1.0545281320810318e-01</leafValues></_>
    <_>
      <internalNodes>
        0 -1 152 2.1314956247806549e-02</internalNodes>
      <leafValues>
        6.1961583793163300e-02 -7.7078565955162048e-02</leafValues></_>
    <_>
      <internalNodes>
        0 -1 272 9.4376236200332642e-02</internalNodes>
      <leafValues>
        7.3007275350391865e-03 -6.0152417421340942e-01</leafValues></_></weakClassifiers></stage9>
</opencv_storage>
