<?xml version="1.0"?>
<opencv_storage>
<stage9>
  <maxWeakCount>7</maxWeakCount>
  <stageThreshold>3.4360891580581665e-01</stageThreshold>
  <weakClassifiers>
    <_>
      <internalNodes>
        0 -1 3292 585113632 535871436 536494065 429155426 2004750559
        2113273855 1845274616 2105344</internalNodes>
      <leafValues>
        -2.3333333432674408e-01 8.1065088510513306e-01</leafValues></_>
    <_>
      <internalNodes>
        0 -1 7443 -1070140218 287377452 2080276104 1361686276 142482574
        1080588220 1089906408 1745604895</internalNodes>
      <leafValues>
        -2.3891827464103699e-01 7.6236218214035034e-01</leafValues></_>
    <_>
      <internalNodes>
        0 -1 592 -605641143 1088794234 -1883378622 183365246 914228593
        385152829 939373664 -176912913</internalNodes>
      <leafValues>
        -3.9814454317092896e-01 6.8536239862442017e-01</leafValues></_>
    <_>
      <internalNodes>
        0 -1 5889 2139830162 -2080339712 -335840717 -788288903
        1735360539 -1449962167 1215641665 1654195871</internalNodes>
      <leafValues>
        -4.1981047391891479e-01 6.7618864774703979e-01</leafValues></_>
    <_>
      <internalNodes>
        0 -1 7998 263569855 792620136 788447102 1643396602 -600681051
        773840759 -685099532 -100939620</internalNodes>
      <leafValues>
        -4.2187654972076416e-01 7.5072646141052246e-01</leafValues></_>
    <_>
      <internalNodes>
        0 -1 6188 943338007 40681460 2147401325 -2030142484 -1124277585
        -1746946073 -559 -1013121920</internalNodes>
      <leafValues>
        -4.7548151016235352e-01 6.4356052875518799e-01</leafValues></_>
    <_>
      <internalNodes>
        0 -1 1020 1225873480 -721251533 -2130704060 1086455812 151028402
        574640 -1996388721 8761353</internalNodes>
      <leafValues>
        -5.9759795665740967e-01 5.3380239009857178e-01</leafValues></_></weakClassifiers></stage9>
</opencv_storage>
