<?xml version="1.0"?>
<opencv_storage>
<stage10>
  <maxWeakCount>7</maxWeakCount>
  <stageThreshold>1.9094154238700867e-01</stageThreshold>
  <weakClassifiers>
    <_>
      <internalNodes>
        0 -1 933 876535884 922156670 683601986 1990377058 1199529444
        897056615 -168394892 3431008</internalNodes>
      <leafValues>
        -2.4285714328289032e-01 8.2732731103897095e-01</leafValues></_>
    <_>
      <internalNodes>
        0 -1 1618 -890601361 1877968810 -768144880 1630703109 1082761346
        -1367398644 -252342765 1076221255</internalNodes>
      <leafValues>
        -2.6952108740806580e-01 7.3461520671844482e-01</leafValues></_>
    <_>
      <internalNodes>
        0 -1 7965 1212519556 131336 -1056628463 -1476390655 -989757295
        4210827 1109569562 235438091</internalNodes>
      <leafValues>
        -4.8223373293876648e-01 5.8021223545074463e-01</leafValues></_>
    <_>
      <internalNodes>
        0 -1 1406 1346392518 271712514 -1878994167 -939522938
        -1061026559 8192 -1333755701 -1302142774</internalNodes>
      <leafValues>
        -4.9900969862937927e-01 6.1479300260543823e-01</leafValues></_>
    <_>
      <internalNodes>
        0 -1 5694 -734101724 459340863 -272756784 423259299 -762313168
        -1905476099 342756569 -1635304272</internalNodes>
      <leafValues>
        -4.5261737704277039e-01 6.7300474643707275e-01</leafValues></_>
    <_>
      <internalNodes>
        0 -1 6704 -536467677 -1762546007 216693817 917953190 -1551908881
        -1874493834 259147634 -491202637</internalNodes>
      <leafValues>
        -4.2966794967651367e-01 7.4237251281738281e-01</leafValues></_>
    <_>
      <internalNodes>
        0 -1 3927 1111806624 1133641728 1342242837 134352978 -939455830
        -1744666464 -939425536 1043994624</internalNodes>
      <leafValues>
        -6.2127488851547241e-01 5.3386336565017700e-01</leafValues></_></weakClassifiers></stage10>
</opencv_storage>
