<?xml version="1.0"?>
<opencv_storage>
<stage17>
  <maxWeakCount>7</maxWeakCount>
  <stageThreshold>2.5418594479560852e-01</stageThreshold>
  <weakClassifiers>
    <_>
      <internalNodes>
        0 -1 619 1189519904 774352762 -286625984 -1560609210 1601651986
        375750484 376898628 578122870</internalNodes>
      <leafValues>
        -2.3478260636329651e-01 8.0692702531814575e-01</leafValues></_>
    <_>
      <internalNodes>
        0 -1 3214 1892548691 118544998 1023294917 -1071079560 -587897772
        -1227604367 -1611570056 -21868266</internalNodes>
      <leafValues>
        -2.5043162703514099e-01 7.1917110681533813e-01</leafValues></_>
    <_>
      <internalNodes>
        0 -1 1037 -1590630582 -1758850816 -1365364909 1426239313
        1610962112 915750749 1652588554 2144596435</internalNodes>
      <leafValues>
        -4.2265781760215759e-01 6.4785188436508179e-01</leafValues></_>
    <_>
      <internalNodes>
        0 -1 2703 1349554548 1524071915 -69901 2008628863 2004301409 -65
        218052346 -365319958</internalNodes>
      <leafValues>
        -3.7031289935112000e-01 7.7118009328842163e-01</leafValues></_>
    <_>
      <internalNodes>
        0 -1 7221 1514036382 975584527 2079235587 313571864 954668230
        -2081427660 1954412409 -825623802</internalNodes>
      <leafValues>
        -4.3406346440315247e-01 6.6882622241973877e-01</leafValues></_>
    <_>
      <internalNodes>
        0 -1 96 8392098 -1861222135 1084227843 1967251905 553779354
        -2147319808 -2147317592 1365852194</internalNodes>
      <leafValues>
        -5.7427269220352173e-01 5.1103776693344116e-01</leafValues></_>
    <_>
      <internalNodes>
        0 -1 1107 1208143991 287375625 -1996144624 277300226 163968
        33587715 -754785782 1384140896</internalNodes>
      <leafValues>
        -5.5591571331024170e-01 5.9010571241378784e-01</leafValues></_></weakClassifiers></stage17>
</opencv_storage>
