<?xml version="1.0"?>
<opencv_storage>
<stage11>
  <maxWeakCount>7</maxWeakCount>
  <stageThreshold>-4.1274380683898926e-01</stageThreshold>
  <weakClassifiers>
    <_>
      <internalNodes>
        0 -1 4131 -1073446400 -1058477553 -436460736 1361863130
        1061446721 100697634 1190090002 29687828</internalNodes>
      <leafValues>
        8.5470087826251984e-02 8.4652668237686157e-01</leafValues></_>
    <_>
      <internalNodes>
        0 -1 8395 1084538880 1089083252 1744672356 -655622868
        -1787004160 16646141 -1644342204 -1052249069</internalNodes>
      <leafValues>
        -2.8581717610359192e-01 7.0449048280715942e-01</leafValues></_>
    <_>
      <internalNodes>
        0 -1 591 1943184458 -1798312146 792594219 -361775321 1249343215
        1148286788 -142782948 1005936499</internalNodes>
      <leafValues>
        -4.6597871184349060e-01 6.0295003652572632e-01</leafValues></_>
    <_>
      <internalNodes>
        0 -1 6624 1182708282 1123202049 733900577 321403392 15484608
        808992760 1826015178 -371352349</internalNodes>
      <leafValues>
        -4.4075706601142883e-01 6.5447181463241577e-01</leafValues></_>
    <_>
      <internalNodes>
        0 -1 6314 -126632258 394533984 -1090687195 1320773156 1056249053
        520027068 225720302 1458015982</internalNodes>
      <leafValues>
        -4.7039502859115601e-01 6.6325598955154419e-01</leafValues></_>
    <_>
      <internalNodes>
        0 -1 2468 1430475392 -1218548176 -404509127 -1724028189
        -693158480 1177059222 -401474789 173681701</internalNodes>
      <leafValues>
        -5.1750427484512329e-01 6.1384463310241699e-01</leafValues></_>
    <_>
      <internalNodes>
        0 -1 342 -1440483513 -572295221 175565344 1420652481 1971185628
        1717007345 -1876858808 -119053953</internalNodes>
      <leafValues>
        -3.7699803709983826e-01 8.1543308496475220e-01</leafValues></_></weakClassifiers></stage11>
</opencv_storage>
