<?xml version="1.0"?>
<opencv_storage>
<stage11>
  <maxWeakCount>29</maxWeakCount>
  <stageThreshold>-1.1782795190811157e+00</stageThreshold>
  <weakClassifiers>
    <_>
      <internalNodes>
        0 -1 2800 -570532321 1610578799 -1064052001 711686591 -212231584
        -46150379 -1540366675 -116196737</internalNodes>
      <leafValues>
        -4.5305705070495605e-01 1.1147069744765759e-02</leafValues></_>
    <_>
      <internalNodes>
        0 -1 8210 -1558019432 -1968194604 -113475759 -808520714
        -1431378027 -1362973733 -1164977310 -838872755</internalNodes>
      <leafValues>
        -2.7003720402717590e-01 2.0203255116939545e-01</leafValues></_>
    <_>
      <internalNodes>
        0 -1 6819 218601461 -208259672 -1869745685 -204740018 2081421305
        -81691766 1760255355 -1997583252</internalNodes>
      <leafValues>
        -2.4892085790634155e-01 2.0313556492328644e-01</leafValues></_>
    <_>
      <internalNodes>
        0 -1 972 -662659424 1605211122 -2069873903 -2073030125 210734103
        179213075 -327344346 1155733811</internalNodes>
      <leafValues>
        -3.6768150329589844e-01 1.3723960518836975e-01</leafValues></_>
    <_>
      <internalNodes>
        0 -1 4071 -800738865 2110598622 600056331 -49028464 -3639555
        -574228753 -163039649 -204891969</internalNodes>
      <leafValues>
        -1.0960794985294342e-01 3.8386121392250061e-01</leafValues></_>
    <_>
      <internalNodes>
        0 -1 3045 1109443110 -1727913478 -1080101131 -79738751
        1795992301 -666197777 -1329346360 894717000</internalNodes>
      <leafValues>
        -2.7682831883430481e-01 1.8541234731674194e-01</leafValues></_>
    <_>
      <internalNodes>
        0 -1 3562 -2138922202 -1473488615 226735408 -146814508
        -1838963243 -1376943474 -1575120376 -1042296540</internalNodes>
      <leafValues>
        -2.8263548016548157e-01 1.7185026407241821e-01</leafValues></_>
    <_>
      <internalNodes>
        0 -1 417 -728512845 -303900256 -1265461017 -1398609048 942542117
        1600611662 1978108260 -395875945</internalNodes>
      <leafValues>
        -2.2108338773250580e-01 2.3120421171188354e-01</leafValues></_>
    <_>
      <internalNodes>
        0 -1 7818 162238130 -1961581594 767288661 670645072 686607368
        465150960 1675183480 -1916849016</internalNodes>
      <leafValues>
        -2.8669795393943787e-01 1.8154112994670868e-01</leafValues></_>
    <_>
      <internalNodes>
        0 -1 2634 512912983 511054484 1321519357 623016763 1398477728
        -1147074032 -1099822406 -31444432</internalNodes>
      <leafValues>
        -3.3427798748016357e-01 1.4411816000938416e-01</leafValues></_>
    <_>
      <internalNodes>
        0 -1 1009 -1968489430 35090464 -782494094 1519404305 69206786
        -1881523303 1859827286 10770018</internalNodes>
      <leafValues>
        -4.5915949344635010e-01 1.2281694263219833e-01</leafValues></_>
    <_>
      <internalNodes>
        0 -1 3667 -665401906 1542125829 -950674159 969471490 1922482377
        2003356716 -295222134 1884016655</internalNodes>
      <leafValues>
        -2.3621903359889984e-01 2.3758336901664734e-01</leafValues></_>
    <_>
      <internalNodes>
        0 -1 1071 -349973613 1896888226 -823165066 1971183728 1869217247
        -50528267 1524957614 -369126897</internalNodes>
      <leafValues>
        -1.8474341928958893e-01 3.3138453960418701e-01</leafValues></_>
    <_>
      <internalNodes>
        0 -1 8424 -134289661 552427918 558321206 1790417994 -1696750076
        1279094921 1459352128 1351051815</internalNodes>
      <leafValues>
        -3.2566633820533752e-01 1.8250252306461334e-01</leafValues></_>
    <_>
      <internalNodes>
        0 -1 2024 913578079 1470084147 -294388257 760199133 682617588
        -1763302856 -225722342 976903134</internalNodes>
      <leafValues>
        -2.6602891087532043e-01 2.2081294655799866e-01</leafValues></_>
    <_>
      <internalNodes>
        0 -1 5244 349176453 787939292 -1244939348 -459325518 -416794347
        1467187287 -116035986 293395793</internalNodes>
      <leafValues>
        -3.9014250040054321e-01 1.3318374752998352e-01</leafValues></_>
    <_>
      <internalNodes>
        0 -1 5994 -255465293 -145834274 1353742801 -1617043963
        -307388538 -845271055 -1430671365 1483979114</internalNodes>
      <leafValues>
        -1.8178054690361023e-01 3.0544012784957886e-01</leafValues></_>
    <_>
      <internalNodes>
        0 -1 3474 -469263257 -2129856672 1342046001 230257952 268157123
        -12905 769152494 -391662002</internalNodes>
      <leafValues>
        -1.9057650864124298e-01 2.9175978899002075e-01</leafValues></_>
    <_>
      <internalNodes>
        0 -1 4319 -92875695 970894938 -1293522951 -1189679879 -53212452
        -640918560 -539164930 -633250201</internalNodes>
      <leafValues>
        -1.8898749351501465e-01 3.1978529691696167e-01</leafValues></_>
    <_>
      <internalNodes>
        0 -1 168 650773538 1322962400 1683700545 1084232519 149201994
        204225951 -17417964 74720260</internalNodes>
      <leafValues>
        -6.0296684503555298e-01 9.6757270395755768e-02</leafValues></_>
    <_>
      <internalNodes>
        0 -1 2848 -1797725973 -543649298 1360025988 820048178 1964245860
        158466656 -1229862232 1876425588</internalNodes>
      <leafValues>
        -2.9216071963310242e-01 1.8843530118465424e-01</leafValues></_>
    <_>
      <internalNodes>
        0 -1 2486 -1300085232 1048601990 -1125375338 -1717545256
        816591024 -153605644 1402355194 -928822972</internalNodes>
      <leafValues>
        -2.9996678233146667e-01 1.9195324182510376e-01</leafValues></_>
    <_>
      <internalNodes>
        0 -1 6832 366614309 -274066713 1698785255 1322981854 1326988916
        1944908749 -1339415884 353639780</internalNodes>
      <leafValues>
        -3.9706265926361084e-01 1.4973154664039612e-01</leafValues></_>
    <_>
      <internalNodes>
        0 -1 3088 -502078304 474745762 -321127467 795386720 -1308455577
        -957358641 1937495774 -67408350</internalNodes>
      <leafValues>
        -2.3826760053634644e-01 2.5245004892349243e-01</leafValues></_>
    <_>
      <internalNodes>
        0 -1 5469 -1159662651 1067310938 -43030953 -1121558594
        2128889062 -539648074 -502191 -475546888</internalNodes>
      <leafValues>
        -1.9954070448875427e-01 2.9406598210334778e-01</leafValues></_>
    <_>
      <internalNodes>
        0 -1 71 1458558467 -311286878 -938438641 1695008858 -2135190843
        2083348517 -1039631647 842528131</internalNodes>
      <leafValues>
        -2.8388392925262451e-01 2.1500800549983978e-01</leafValues></_>
    <_>
      <internalNodes>
        0 -1 5173 -749559558 -804609529 77235505 1393938793 -2129622631
        -2007058428 -1928827430 933970595</internalNodes>
      <leafValues>
        -2.4832738935947418e-01 2.4208562076091766e-01</leafValues></_>
    <_>
      <internalNodes>
        0 -1 6817 554197248 -1412676205 -376667326 999162332 535020022
        657113696 29958005 1101651552</internalNodes>
      <leafValues>
        -4.0487211942672729e-01 1.5008759498596191e-01</leafValues></_>
    <_>
      <internalNodes>
        0 -1 7318 -1718172976 866456232 -314634731 2001698512 -537441108
        373387208 1637631978 -2124152933</internalNodes>
      <leafValues>
        -2.2513893246650696e-01 2.7031368017196655e-01</leafValues></_></weakClassifiers></stage11>
</opencv_storage>
