<?xml version="1.0"?>
<opencv_storage>
<stage4>
  <maxWeakCount>20</maxWeakCount>
  <stageThreshold>-1.3783581256866455e+00</stageThreshold>
  <weakClassifiers>
    <_>
      <internalNodes>
        0 -1 8013 -578047197 -102764067 -15510667 -82316291 -1415738901
        -1886393941 -1883517205 -907034231</internalNodes>
      <leafValues>
        -4.4247233867645264e-01 1.9936875998973846e-01</leafValues></_>
    <_>
      <internalNodes>
        0 -1 870 1444214783 -67701129 -290291715 -1466763394 -311079306
        -67115010 -17395713 -42766478</internalNodes>
      <leafValues>
        -2.7303111553192139e-01 3.2263967394828796e-01</leafValues></_>
    <_>
      <internalNodes>
        0 -1 7491 -88548136 992096088 -1073979464 2064195344 -54096744
        -543208420 -152502370 -4197941</internalNodes>
      <leafValues>
        -2.1945478022098541e-01 3.5657313466072083e-01</leafValues></_>
    <_>
      <internalNodes>
        0 -1 19 1248840398 495161333 -1392740356 -8389033 -424163329
        -809557164 1874591739 1932738663</internalNodes>
      <leafValues>
        -2.7142593264579773e-01 2.8637069463729858e-01</leafValues></_>
    <_>
      <internalNodes>
        0 -1 539 1735379539 -194091517 -1999222305 -1193301385
        1012953172 2112648817 -12231109 2147313531</internalNodes>
      <leafValues>
        -2.8239992260932922e-01 2.7185833454132080e-01</leafValues></_>
    <_>
      <internalNodes>
        0 -1 3050 1887623840 -1149095240 923129105 1773105746
        -1073617008 -1980046824 370356504 107819595</internalNodes>
      <leafValues>
        -3.6750563979148865e-01 2.1678459644317627e-01</leafValues></_>
    <_>
      <internalNodes>
        0 -1 7357 725363824 898629744 536680437 -38215504 244134800
        -1357002711 -2146142740 -1936981528</internalNodes>
      <leafValues>
        -3.8708487153053284e-01 2.0119050145149231e-01</leafValues></_>
    <_>
      <internalNodes>
        0 -1 1436 -797832701 -821624793 1800402621 2067560319 -617410178
        -76279749 -1554585611 -83197953</internalNodes>
      <leafValues>
        -2.7962893247604370e-01 2.6218861341476440e-01</leafValues></_>
    <_>
      <internalNodes>
        0 -1 4202 -247422318 2072740052 -2007789549 -138477494
        1372326800 1213203302 775097098 38743822</internalNodes>
      <leafValues>
        -3.6001747846603394e-01 2.0965003967285156e-01</leafValues></_>
    <_>
      <internalNodes>
        0 -1 8002 -1422941383 -1366638860 -1400963497 -303959007
        -1400117836 -342823488 -831124028 -1883245419</internalNodes>
      <leafValues>
        -2.5897276401519775e-01 2.8950405120849609e-01</leafValues></_>
    <_>
      <internalNodes>
        0 -1 2927 -21112033 973110066 1072688741 -2068584158 1182676511
        -1232456652 -851447812 -322189558</internalNodes>
      <leafValues>
        -2.4242626130580902e-01 3.0823746323585510e-01</leafValues></_>
    <_>
      <internalNodes>
        0 -1 8141 -184299776 47367688 1476627344 1084122392 1123101472
        16551120 15423520 14928623</internalNodes>
      <leafValues>
        -4.9651199579238892e-01 1.5876005589962006e-01</leafValues></_>
    <_>
      <internalNodes>
        0 -1 5239 874908788 445800520 2102773657 422320980 -1700244272
        -619050672 -1859641256 -1423414212</internalNodes>
      <leafValues>
        -4.0062782168388367e-01 1.7843762040138245e-01</leafValues></_>
    <_>
      <internalNodes>
        0 -1 233 -358628753 -1162608791 -1360121994 -2078081846
        -445369753 -185136057 1738745599 -210516525</internalNodes>
      <leafValues>
        -2.3359924554824829e-01 3.3871349692344666e-01</leafValues></_>
    <_>
      <internalNodes>
        0 -1 3383 1195764480 362260791 -1865064234 2106493120
        -1964418562 739205947 1873287848 1120501786</internalNodes>
      <leafValues>
        -3.8910341262817383e-01 1.9610829651355743e-01</leafValues></_>
    <_>
      <internalNodes>
        0 -1 6467 67978528 1481668150 1561770995 -142505929 1012634873
        -1361402335 1365330975 1076171036</internalNodes>
      <leafValues>
        -4.4995376467704773e-01 1.8043780326843262e-01</leafValues></_>
    <_>
      <internalNodes>
        0 -1 597 775704142 238445425 -935796686 -497646834 2018599440
        2072527136 1950832720 -916993211</internalNodes>
      <leafValues>
        -4.2562207579612732e-01 1.9131901860237122e-01</leafValues></_>
    <_>
      <internalNodes>
        0 -1 7003 -1064580480 289980674 -494185035 996656225 1503417501
        1572465347 -856799009 648245705</internalNodes>
      <leafValues>
        -3.5299402475357056e-01 2.1976116299629211e-01</leafValues></_>
    <_>
      <internalNodes>
        0 -1 8086 -1541794287 -1904199644 -121123233 -1182471670
        -1165919278 -1496362145 -1628375572 -291471308</internalNodes>
      <leafValues>
        -3.1221407651901245e-01 2.5453579425811768e-01</leafValues></_>
    <_>
      <internalNodes>
        0 -1 1721 2124872880 186274776 -279789067 -62822846 76777671
        796914093 449314925 -550690542</internalNodes>
      <leafValues>
        -3.1131324172019958e-01 2.5041899085044861e-01</leafValues></_></weakClassifiers></stage4>
</opencv_storage>
