<?xml version="1.0"?>
<opencv_storage>
<stage3>
  <maxWeakCount>32</maxWeakCount>
  <stageThreshold>-1.1973525285720825e+00</stageThreshold>
  <weakClassifiers>
    <_>
      <internalNodes>
        0 -1 141 2130169711 -8650753 -16842753 -252510214 2111784799
        -528385 -1 -143130753</internalNodes>
      <leafValues>
        -2.7744668722152710e-01 3.3845245838165283e-01</leafValues></_>
    <_>
      <internalNodes>
        0 -1 7878 -1493237761 -1427177496 -268566533 -270489476
        -1358956547 -1997537289 -805700097 -855646860</internalNodes>
      <leafValues>
        -2.2463589906692505e-01 3.3807972073554993e-01</leafValues></_>
    <_>
      <internalNodes>
        0 -1 280 -419459409 -286326869 -1360019478 -1561402449
        -177769115 1969684343 -524441 -135794921</internalNodes>
      <leafValues>
        -2.5206542015075684e-01 2.8632801771163940e-01</leafValues></_>
    <_>
      <internalNodes>
        0 -1 8446 -276836561 14680031 -856448222 -1460076894 -71471867
        217804277 -354683104 -419954705</internalNodes>
      <leafValues>
        -3.1190690398216248e-01 1.9862177968025208e-01</leafValues></_>
    <_>
      <internalNodes>
        0 -1 7377 581412128 1537039319 -1612791877 -33557519 1320122763
        -595609617 -916466219 1171518656</internalNodes>
      <leafValues>
        -2.6514407992362976e-01 2.2581909596920013e-01</leafValues></_>
    <_>
      <internalNodes>
        0 -1 7634 759147939 211464034 532624276 -1375930538 1257234336
        -861168427 225716688 -859970319</internalNodes>
      <leafValues>
        -2.5762206315994263e-01 2.2096620500087738e-01</leafValues></_>
    <_>
      <internalNodes>
        0 -1 4318 1523975989 1583878973 -1426298753 -1680859936
        -269066540 -4966894 -835187974 -98011534</internalNodes>
      <leafValues>
        -2.3450048267841339e-01 2.4140281975269318e-01</leafValues></_>
    <_>
      <internalNodes>
        0 -1 2152 1177221023 1610284927 2113727999 -1146945997
        1148137407 -4235265 -176694373 -44007662</internalNodes>
      <leafValues>
        -2.1537248790264130e-01 2.5880745053291321e-01</leafValues></_>
    <_>
      <internalNodes>
        0 -1 2227 -584628463 770586908 -338661714 2127982126 2129291028
        -4230348 -305466700 -281350274</internalNodes>
      <leafValues>
        -2.4124599993228912e-01 2.1957880258560181e-01</leafValues></_>
    <_>
      <internalNodes>
        0 -1 7914 -1943403244 944393038 1914616959 706759194 249457632
        736948735 -1400997688 -1365084392</internalNodes>
      <leafValues>
        -3.0258944630622864e-01 1.7883445322513580e-01</leafValues></_>
    <_>
      <internalNodes>
        0 -1 3562 -1601789439 782670080 -1850765259 -1111491627 47654389
        -1369015307 620582100 -268722011</internalNodes>
      <leafValues>
        -2.3818385601043701e-01 2.2295895218849182e-01</leafValues></_>
    <_>
      <internalNodes>
        0 -1 7626 -403710685 178978807 -1270909151 1876819898 49507281
        210553696 651391056 -864038921</internalNodes>
      <leafValues>
        -2.2866661846637726e-01 2.2845835983753204e-01</leafValues></_>
    <_>
      <internalNodes>
        0 -1 6330 -653525762 -237824431 -83105575 1465737343 -1496501092
        -75560905 -1269032770 1869866779</internalNodes>
      <leafValues>
        -1.9364942610263824e-01 2.7394533157348633e-01</leafValues></_>
    <_>
      <internalNodes>
        0 -1 463 -901528058 -367516158 -962443738 235545122 1579166725
        1657816149 1984365398 1650943347</internalNodes>
      <leafValues>
        -3.7755843997001648e-01 1.3567322492599487e-01</leafValues></_>
    <_>
      <internalNodes>
        0 -1 2024 507052119 415234877 -1565319393 -1737529634
        -1099171107 -1095844017 -103294210 -98370178</internalNodes>
      <leafValues>
        -1.8243406713008881e-01 2.7922490239143372e-01</leafValues></_>
    <_>
      <internalNodes>
        0 -1 6867 1993854883 -1953252085 -1243089102 -504103434
        -1610637577 622830231 -1246383244 -135529221</internalNodes>
      <leafValues>
        -2.3055602610111237e-01 2.2664022445678711e-01</leafValues></_>
    <_>
      <internalNodes>
        0 -1 5239 7478356 439619856 1533823444 1065781036 -605286924
        -1350668989 -1349620376 -1409254240</internalNodes>
      <leafValues>
        -3.5173425078392029e-01 1.5660704672336578e-01</leafValues></_>
    <_>
      <internalNodes>
        0 -1 376 -301275605 -290019146 -1897403932 -454118154 -488114395
        1950870901 -1476397276 -517670665</internalNodes>
      <leafValues>
        -2.7748045325279236e-01 1.8279786407947540e-01</leafValues></_>
    <_>
      <internalNodes>
        0 -1 175 -1570864606 -1981386753 1077216337 1186066079
        -1083241141 241773592 -1334363328 1075149430</internalNodes>
      <leafValues>
        -4.1042634844779968e-01 1.3026982545852661e-01</leafValues></_>
    <_>
      <internalNodes>
        0 -1 3119 -804851200 -2143147512 1413685264 -1074781152
        1450187994 1277297224 -804095509 744708651</internalNodes>
      <leafValues>
        -3.2661855220794678e-01 1.5169428288936615e-01</leafValues></_>
    <_>
      <internalNodes>
        0 -1 2928 1441783805 967323920 -1613363311 -1625181054 13586645
        -1080128199 -929140018 -820553973</internalNodes>
      <leafValues>
        -1.6911469399929047e-01 2.9545596241950989e-01</leafValues></_>
    <_>
      <internalNodes>
        0 -1 26 38798854 354080502 -1362997993 529755852 657872349
        -2753372 2084190616 543182675</internalNodes>
      <leafValues>
        -3.5885018110275269e-01 1.3836839795112610e-01</leafValues></_>
    <_>
      <internalNodes>
        0 -1 7357 1069428049 -2046246536 799848381 -1108588880
        -1969128519 -1095455771 170923261 -1998048180</internalNodes>
      <leafValues>
        -2.8444018959999084e-01 1.8322499096393585e-01</leafValues></_>
    <_>
      <internalNodes>
        0 -1 5438 1952700533 604598845 -677891720 1061908822 -352533268
        -1373373978 1424230664 537226074</internalNodes>
      <leafValues>
        -2.6957648992538452e-01 1.9002340734004974e-01</leafValues></_>
    <_>
      <internalNodes>
        0 -1 8407 1130344195 -1966688817 -77622735 1724554694
        -1360015084 214858743 -1208361920 -425197649</internalNodes>
      <leafValues>
        -2.4114605784416199e-01 2.0748475193977356e-01</leafValues></_>
    <_>
      <internalNodes>
        0 -1 6188 471404289 -555468116 -120081547 -1228997892 389557709
        -580176035 -555674476 -488577788</internalNodes>
      <leafValues>
        -2.8587093949317932e-01 1.8283084034919739e-01</leafValues></_>
    <_>
      <internalNodes>
        0 -1 5636 -655892260 -1633736934 543163016 1972881357
        -1597725432 489893410 -468444632 724288014</internalNodes>
      <leafValues>
        -2.4317464232444763e-01 2.1412110328674316e-01</leafValues></_>
    <_>
      <internalNodes>
        0 -1 1374 -1095815641 -285532656 -88420738 580976530 295645504
        -181647017 -467648146 -277446797</internalNodes>
      <leafValues>
        -2.9603675007820129e-01 1.7046812176704407e-01</leafValues></_>
    <_>
      <internalNodes>
        0 -1 4154 2034682786 -1853644662 1100849411 -1218536320
        1510881161 -660806009 803551675 1450152579</internalNodes>
      <leafValues>
        -2.4314968287944794e-01 2.2287771105766296e-01</leafValues></_>
    <_>
      <internalNodes>
        0 -1 6627 2128564019 1496459832 264186643 -1108533501 -867727442
        -133654852 564571968 -898373985</internalNodes>
      <leafValues>
        -1.8066771328449249e-01 2.8477379679679871e-01</leafValues></_>
    <_>
      <internalNodes>
        0 -1 8278 -1936212927 -2036669298 -693528712 -1901139280
        -1346788463 -1996556832 -650629803 -1665735216</internalNodes>
      <leafValues>
        -2.7380684018135071e-01 1.9477704167366028e-01</leafValues></_>
    <_>
      <internalNodes>
        0 -1 4084 -1551125631 -1196519632 -1174432395 -638098283
        40592551 -378081993 -675294584 -135463886</internalNodes>
      <leafValues>
        -1.8697026371955872e-01 2.7626645565032959e-01</leafValues></_></weakClassifiers></stage3>
</opencv_storage>
