<?xml version="1.0"?>
<opencv_storage>
<stage19>
  <maxWeakCount>65</maxWeakCount>
  <stageThreshold>-8.8084125518798828e-01</stageThreshold>
  <weakClassifiers>
    <_>
      <internalNodes>
        0 -1 1607 -251723777 -67682317 -99329 -538530050 1735611579
        -8431660 -532497 -561741</internalNodes>
      <leafValues>
        -1.2335456162691116e-01 2.8368794918060303e-01</leafValues></_>
    <_>
      <internalNodes>
        0 -1 281 -150999925 -34869377 182971470 -1528498574 1467967300
        -194769043 -341968135 -143130913</internalNodes>
      <leafValues>
        -1.3022120296955109e-01 2.2360575199127197e-01</leafValues></_>
    <_>
      <internalNodes>
        0 -1 2939 1273719599 2145381210 -502779848 1737982354 435543551
        199068137 -189064593 1742177003</internalNodes>
      <leafValues>
        -1.7563077807426453e-01 1.4901874959468842e-01</leafValues></_>
    <_>
      <internalNodes>
        0 -1 8181 -277896397 -1931305515 1692261312 -330778679
        -312653552 -1467289340 1568100437 -1931706641</internalNodes>
      <leafValues>
        -2.2334218025207520e-01 9.5520168542861938e-02</leafValues></_>
    <_>
      <internalNodes>
        0 -1 0 -1431902547 459337387 428293421 1976561655 -10489857
        802757111 2067526867 963995491</internalNodes>
      <leafValues>
        -1.3806481659412384e-01 1.7202024161815643e-01</leafValues></_>
    <_>
      <internalNodes>
        0 -1 7750 1275199673 1354171102 931084095 843769803 -644342984
        -4636939 -40468758 -276147958</internalNodes>
      <leafValues>
        -1.3872456550598145e-01 1.7560616135597229e-01</leafValues></_>
    <_>
      <internalNodes>
        0 -1 3061 1902735040 1586452989 462974649 -1679319117 -54134288
        -854460729 1845080595 984192051</internalNodes>
      <leafValues>
        -1.7685320973396301e-01 1.3557071983814240e-01</leafValues></_>
    <_>
      <internalNodes>
        0 -1 6805 1159421936 -1433389920 -1135025791 -1914143367
        1701744048 -1461922668 473966681 -2002194181</internalNodes>
      <leafValues>
        -1.4144626259803772e-01 1.7745493352413177e-01</leafValues></_>
    <_>
      <internalNodes>
        0 -1 1436 -2139746766 223315975 1753739774 1142778701 -301069750
        955779173 172024439 -1692776325</internalNodes>
      <leafValues>
        -2.3148213326931000e-01 9.6042491495609283e-02</leafValues></_>
    <_>
      <internalNodes>
        0 -1 6648 -780148734 2136976335 -495614322 2063579330 -227469256
        1432543013 -1262405944 -192613598</internalNodes>
      <leafValues>
        -1.5187825262546539e-01 1.7038066685199738e-01</leafValues></_>
    <_>
      <internalNodes>
        0 -1 1989 1221198459 548595925 -1601506209 527436627 -739048868
        -79388548 2058416846 -9216442</internalNodes>
      <leafValues>
        -1.6542556881904602e-01 1.5127834677696228e-01</leafValues></_>
    <_>
      <internalNodes>
        0 -1 7960 -1064982336 346079544 -514642355 -721323807 -174551916
        345720321 -2051605541 89361430</internalNodes>
      <leafValues>
        -1.6893079876899719e-01 1.5001402795314789e-01</leafValues></_>
    <_>
      <internalNodes>
        0 -1 7878 -302080285 -327223568 -1242170663 -312197032
        -354043955 -830996657 -749601793 -571748885</internalNodes>
      <leafValues>
        -1.0336876660585403e-01 2.3061488568782806e-01</leafValues></_>
    <_>
      <internalNodes>
        0 -1 7376 221075237 -1079145252 1993821758 -329379149 699102527
        -76865237 -1449674409 2009985108</internalNodes>
      <leafValues>
        -2.0633563399314880e-01 1.1534912139177322e-01</leafValues></_>
    <_>
      <internalNodes>
        0 -1 378 -966285245 699770411 -1997087370 -1645820322 -667845099
        -766018315 -1452501596 -840568169</internalNodes>
      <leafValues>
        -1.2399746477603912e-01 1.9718027114868164e-01</leafValues></_>
    <_>
      <internalNodes>
        0 -1 5599 1556140032 528123776 -1231032654 -1440030032 536888516
        -305327420 -728822677 301097986</internalNodes>
      <leafValues>
        -2.4567502737045288e-01 1.0370527952909470e-01</leafValues></_>
    <_>
      <internalNodes>
        0 -1 7456 -464726571 723495645 887806811 -1157382873 -1192354596
        -1426494237 -1976658255 -341223061</internalNodes>
      <leafValues>
        -1.1881066858768463e-01 2.1394950151443481e-01</leafValues></_>
    <_>
      <internalNodes>
        0 -1 2678 70516820 829198261 -1646966074 -1520477448 1285143752
        -599519323 1773426070 470840912</internalNodes>
      <leafValues>
        -3.4088966250419617e-01 6.8462692201137543e-02</leafValues></_>
    <_>
      <internalNodes>
        0 -1 4674 -602046330 501528796 1105434636 -1214042145 -55797831
        -658725122 1850544111 -288494546</internalNodes>
      <leafValues>
        -1.1682891100645065e-01 2.1434247493743896e-01</leafValues></_>
    <_>
      <internalNodes>
        0 -1 3760 1517684828 5768248 -1732337584 1127233741 1944345600
        -1204923536 -1506648280 -1710219690</internalNodes>
      <leafValues>
        -2.6279959082603455e-01 9.4800412654876709e-02</leafValues></_>
    <_>
      <internalNodes>
        0 -1 3708 -2046423426 -2070771806 547364149 -823140398
        1524371120 1746022920 -1711776166 1290843794</internalNodes>
      <leafValues>
        -2.4670685827732086e-01 1.0039082169532776e-01</leafValues></_>
    <_>
      <internalNodes>
        0 -1 8383 1511951376 1084009399 -784254636 -1525369242
        -1247385511 71028101 1498243384 229735715</internalNodes>
      <leafValues>
        -2.2067658603191376e-01 1.2083029001951218e-01</leafValues></_>
    <_>
      <internalNodes>
        0 -1 6104 345300925 -1569869916 -876296405 539827535 -50733807
        1201103430 899903863 1699510200</internalNodes>
      <leafValues>
        -1.9932216405868530e-01 1.3430140912532806e-01</leafValues></_>
    <_>
      <internalNodes>
        0 -1 6676 -887237989 1599956895 -310995823 111068924 -1569055236
        -1084364208 1689837243 2059919090</internalNodes>
      <leafValues>
        -1.4761948585510254e-01 1.8766625225543976e-01</leafValues></_>
    <_>
      <internalNodes>
        0 -1 8002 -1223035499 -1432699187 2010078423 -1914209139
        738431130 -1147545620 492580841 -1883514104</internalNodes>
      <leafValues>
        -1.2272218614816666e-01 2.0419150590896606e-01</leafValues></_>
    <_>
      <internalNodes>
        0 -1 1611 1232962977 -1701852736 -1190904845 939266870
        -1576069326 -97193755 -1057500334 1021145919</internalNodes>
      <leafValues>
        -1.8793524801731110e-01 1.4373943209648132e-01</leafValues></_>
    <_>
      <internalNodes>
        0 -1 1076 2137685951 322336722 -43734860 1299125879 977653243
        1551220656 1147003978 -35651617</internalNodes>
      <leafValues>
        -1.0073581337928772e-01 2.5168201327323914e-01</leafValues></_>
    <_>
      <internalNodes>
        0 -1 8081 -1531366744 1119206076 -192666720 281783782 -885254121
        1211157113 -569568430 1078591458</internalNodes>
      <leafValues>
        -2.7196517586708069e-01 9.5210865139961243e-02</leafValues></_>
    <_>
      <internalNodes>
        0 -1 2716 10931225 -2038493649 -2134129098 1077262038 -632350448
        1511555964 -590380988 1511008268</internalNodes>
      <leafValues>
        -2.5142252445220947e-01 1.0282323509454727e-01</leafValues></_>
    <_>
      <internalNodes>
        0 -1 6945 376475796 -600600782 -2016530792 -1398555880
        -120782720 1486845759 -354901836 -1591659103</internalNodes>
      <leafValues>
        -1.9536714255809784e-01 1.3333125412464142e-01</leafValues></_>
    <_>
      <internalNodes>
        0 -1 7529 -707291149 1941236916 -1690706155 496952849 -873080628
        -623859397 -1697656549 -627596649</internalNodes>
      <leafValues>
        -1.0430020093917847e-01 2.5439414381980896e-01</leafValues></_>
    <_>
      <internalNodes>
        0 -1 2429 -1062581515 447118694 1340661109 1594609709
        -1574004003 467412847 -1583995812 -187829217</internalNodes>
      <leafValues>
        -1.3123098015785217e-01 1.9984425604343414e-01</leafValues></_>
    <_>
      <internalNodes>
        0 -1 5283 195298816 898174773 390472645 864034210 1214589676
        1341699638 -999038785 2104368</internalNodes>
      <leafValues>
        -4.0188595652580261e-01 5.3854648023843765e-02</leafValues></_>
    <_>
      <internalNodes>
        0 -1 6873 1578228725 -1895061127 -1150018145 -1619345477
        -729960741 -1074472229 -863663706 -42329</internalNodes>
      <leafValues>
        -9.1262489557266235e-02 2.9214331507682800e-01</leafValues></_>
    <_>
      <internalNodes>
        0 -1 6816 691670021 1280265423 -2083917460 -1373570709 697987421
        379413591 1652508519 810603350</internalNodes>
      <leafValues>
        -2.7365988492965698e-01 9.9856413900852203e-02</leafValues></_>
    <_>
      <internalNodes>
        0 -1 3989 -961348349 995818771 -531275679 666423088 1934305142
        741042645 -1121859104 -1733433732</internalNodes>
      <leafValues>
        -1.6427576541900635e-01 1.6320180892944336e-01</leafValues></_>
    <_>
      <internalNodes>
        0 -1 6052 1215963904 1107436602 -2008402954 840053508 670084629
        145028806 480657852 155345018</internalNodes>
      <leafValues>
        -2.8129997849464417e-01 9.6747338771820068e-02</leafValues></_>
    <_>
      <internalNodes>
        0 -1 3646 173053142 -1458023416 -946841071 -1257420860
        1077949618 798172762 231766152 974213803</internalNodes>
      <leafValues>
        -2.3677875101566315e-01 1.1260527372360229e-01</leafValues></_>
    <_>
      <internalNodes>
        0 -1 3820 854825669 1034139071 -1601320022 571960989 1016439759
        1823929858 1853213628 526715229</internalNodes>
      <leafValues>
        -1.6254091262817383e-01 1.6587346792221069e-01</leafValues></_>
    <_>
      <internalNodes>
        0 -1 6320 -575936633 1937110036 2129436788 -1226114174
        -1292001373 5661379 -405017712 -405407294</internalNodes>
      <leafValues>
        -1.2618930637836456e-01 2.1323084831237793e-01</leafValues></_>
    <_>
      <internalNodes>
        0 -1 7806 245835538 -1507126992 795700564 1939212712 489261360
        -566821911 1487973452 -1932824868</internalNodes>
      <leafValues>
        -2.0661473274230957e-01 1.2691652774810791e-01</leafValues></_>
    <_>
      <internalNodes>
        0 -1 1874 -837276096 916383394 -1005662210 1873592399 119612960
        1399076937 880830794 330794759</internalNodes>
      <leafValues>
        -2.4061740934848785e-01 1.1585049331188202e-01</leafValues></_>
    <_>
      <internalNodes>
        0 -1 1188 1324660002 -1535401578 -2021908864 111305797
        -266337072 -1150783078 -891792012 1086605348</internalNodes>
      <leafValues>
        -2.7452033758163452e-01 1.0055661201477051e-01</leafValues></_>
    <_>
      <internalNodes>
        0 -1 4306 -25449365 2119728757 -84483780 1563885564 2110864800
        -1162948629 -290405923 -346895180</internalNodes>
      <leafValues>
        -1.4500625431537628e-01 1.9083747267723083e-01</leafValues></_>
    <_>
      <internalNodes>
        0 -1 1300 -1035260321 1902257102 239862474 -1970803902 379282661
        242703897 2052356294 -1724529902</internalNodes>
      <leafValues>
        -1.6595223546028137e-01 1.6569133102893829e-01</leafValues></_>
    <_>
      <internalNodes>
        0 -1 6147 -271629360 -1668551270 845250105 -673152414
        -1128798515 -127486163 1318538701 -1515201238</internalNodes>
      <leafValues>
        -1.5119045972824097e-01 1.8718138337135315e-01</leafValues></_>
    <_>
      <internalNodes>
        0 -1 761 -798604246 1944629726 -1090136712 575329093 1667918422
        417871070 -2127487787 335715048</internalNodes>
      <leafValues>
        -2.7324217557907104e-01 1.0738182812929153e-01</leafValues></_>
    <_>
      <internalNodes>
        0 -1 3144 1182949744 758267826 -390240203 -461047073 532862794
        -1433922926 -758629577 569637654</internalNodes>
      <leafValues>
        -2.2338637709617615e-01 1.2749463319778442e-01</leafValues></_>
    <_>
      <internalNodes>
        0 -1 8020 -575422471 -1040227382 2078827047 -622620045
        -1437491866 -288494033 534034367 -549727746</internalNodes>
      <leafValues>
        -9.8681688308715820e-02 2.8785425424575806e-01</leafValues></_>
    <_>
      <internalNodes>
        0 -1 8434 -371209727 1448950217 -1440759552 2056571134
        1895087424 1798989841 -555040337 284946278</internalNodes>
      <leafValues>
        -1.8810681998729706e-01 1.5030986070632935e-01</leafValues></_>
    <_>
      <internalNodes>
        0 -1 6025 1850779688 -3012882 2073559288 1516464752 -1913458191
        -328132534 -1730832000 175309800</internalNodes>
      <leafValues>
        -2.2339910268783569e-01 1.2875609099864960e-01</leafValues></_>
    <_>
      <internalNodes>
        0 -1 1687 -1318211 -267394736 -563403152 -956482639 -1887037221
        775261207 -303923248 -1412595634</internalNodes>
      <leafValues>
        -1.2714797258377075e-01 2.2384400665760040e-01</leafValues></_>
    <_>
      <internalNodes>
        0 -1 6764 1688409944 440441358 1782883936 369627916 -863959596
        965059341 -1037053424 615486074</internalNodes>
      <leafValues>
        -2.4475270509719849e-01 1.1610027402639389e-01</leafValues></_>
    <_>
      <internalNodes>
        0 -1 1255 772665227 -456597345 -338689529 1113254739 2043170326
        2123868362 169185148 -778767282</internalNodes>
      <leafValues>
        -1.6407121717929840e-01 1.7741391062736511e-01</leafValues></_>
    <_>
      <internalNodes>
        0 -1 435 -32002343 -559076307 -449106109 -140809459 530950556
        -369166414 708007527 -14689037</internalNodes>
      <leafValues>
        -1.1589124798774719e-01 2.4868872761726379e-01</leafValues></_>
    <_>
      <internalNodes>
        0 -1 2545 -253073398 -736065520 -1995878204 1015073283
        -1216265904 1136284160 953853215 36036102</internalNodes>
      <leafValues>
        -2.6872116327285767e-01 1.0679567605257034e-01</leafValues></_>
    <_>
      <internalNodes>
        0 -1 8027 1257000864 1935925655 -1376708560 -1537336605
        -1897054844 232889190 -1848429979 1475509858</internalNodes>
      <leafValues>
        -2.3774939775466919e-01 1.2332481145858765e-01</leafValues></_>
    <_>
      <internalNodes>
        0 -1 5743 985406053 -352578953 -800122145 -1353786748 -61173987
        -4500021 -47057285 257953196</internalNodes>
      <leafValues>
        -1.8933515250682831e-01 1.5178127586841583e-01</leafValues></_>
    <_>
      <internalNodes>
        0 -1 4764 147531322 38913520 1700679440 1186994736 424978032
        471605668 -27125160 1850865265</internalNodes>
      <leafValues>
        -2.8340160846710205e-01 1.0570284724235535e-01</leafValues></_>
    <_>
      <internalNodes>
        0 -1 6432 -775961611 -35641550 1849125248 -1113940817
        -1548413704 -2043087107 -1344660056 -1163166033</internalNodes>
      <leafValues>
        -1.2079551815986633e-01 2.4718540906906128e-01</leafValues></_>
    <_>
      <internalNodes>
        0 -1 7615 -365225420 1958447362 -657540196 60319554 1702563092
        640830269 1566383224 -402500326</internalNodes>
      <leafValues>
        -2.0319327712059021e-01 1.4090071618556976e-01</leafValues></_>
    <_>
      <internalNodes>
        0 -1 4698 1414397075 1392987350 -168239086 -2147374589
        1476631498 -1201875131 181519551 1375083518</internalNodes>
      <leafValues>
        -1.5651436150074005e-01 1.8389567732810974e-01</leafValues></_>
    <_>
      <internalNodes>
        0 -1 5619 -708214056 44722864 1816451075 1156604592 478948864
        1073492075 68698513 2005341148</internalNodes>
      <leafValues>
        -2.5342488288879395e-01 1.2001045793294907e-01</leafValues></_>
    <_>
      <internalNodes>
        0 -1 1792 -1605538350 -1417306560 -338756420 1021684260
        404270225 -1385121082 880598079 1208232049</internalNodes>
      <leafValues>
        -2.3626691102981567e-01 1.2547916173934937e-01</leafValues></_>
    <_>
      <internalNodes>
        0 -1 5869 1217037843 -1705064361 -1656530662 1913574291
        1444479277 1721733169 -330962988 -531842104</internalNodes>
      <leafValues>
        -1.9254592061042786e-01 1.5980738401412964e-01</leafValues></_></weakClassifiers></stage19>
</opencv_storage>
