<?xml version="1.0"?>
<opencv_storage>
<stage18>
  <maxWeakCount>32</maxWeakCount>
  <stageThreshold>-9.7163242101669312e-01</stageThreshold>
  <weakClassifiers>
    <_>
      <internalNodes>
        0 -1 7377 133430499 -762651937 -1277037477 -537837672 1274639271
        1248040383 -2006199819 1106974016</internalNodes>
      <leafValues>
        -4.8852676153182983e-01 -7.3581323027610779e-02</leafValues></_>
    <_>
      <internalNodes>
        0 -1 2185 -755859219 -1066740645 2034785484 -1595783681
        2030190596 2068794880 1519625163 1884527454</internalNodes>
      <leafValues>
        -3.4401926398277283e-01 1.1897733062505722e-01</leafValues></_>
    <_>
      <internalNodes>
        0 -1 4988 -275830209 791227190 -953472815 -1412045294 1256215767
        -552227934 1150676680 1312675671</internalNodes>
      <leafValues>
        -2.3656405508518219e-01 1.7483405768871307e-01</leafValues></_>
    <_>
      <internalNodes>
        0 -1 6436 420616441 -1196626318 -276910147 -1212496784
        -1888461315 -572653843 -332121604 -1145331516</internalNodes>
      <leafValues>
        -1.9592908024787903e-01 2.1816208958625793e-01</leafValues></_>
    <_>
      <internalNodes>
        0 -1 4674 -800750554 2142616237 1491444245 -519700791 -565346383
        1314416508 -51429443 -353419090</internalNodes>
      <leafValues>
        -1.5121316909790039e-01 2.8758797049522400e-01</leafValues></_>
    <_>
      <internalNodes>
        0 -1 5858 841120805 461974775 419596583 -1910588154 168680685
        -44711015 -1402993536 661639826</internalNodes>
      <leafValues>
        -2.6676353812217712e-01 1.7766156792640686e-01</leafValues></_>
    <_>
      <internalNodes>
        0 -1 3640 -164986280 -640679602 -1048331815 -404818603 878051838
        175418620 436234282 -250929127</internalNodes>
      <leafValues>
        -2.2083547711372375e-01 2.0924277603626251e-01</leafValues></_>
    <_>
      <internalNodes>
        0 -1 382 -1241087325 -1632074110 637186774 -2067396606 256212343
        1799874214 1963684180 1079312454</internalNodes>
      <leafValues>
        -3.5044276714324951e-01 1.4063429832458496e-01</leafValues></_>
    <_>
      <internalNodes>
        0 -1 4779 -119506116 -587706160 16382131 419971729 -1718990768
        -1128640221 -1150287656 -1372581346</internalNodes>
      <leafValues>
        -2.7400782704353333e-01 1.7186579108238220e-01</leafValues></_>
    <_>
      <internalNodes>
        0 -1 8295 -1457805039 478599082 -1019142891 -580152532
        -1413043677 -1441406853 -168893151 -572814167</internalNodes>
      <leafValues>
        -2.1214717626571655e-01 2.2677215933799744e-01</leafValues></_>
    <_>
      <internalNodes>
        0 -1 5025 683937673 -2034962983 -380775711 -1517911548
        1029298461 -575186806 1775679300 -1565481148</internalNodes>
      <leafValues>
        -3.1829577684402466e-01 1.4797247946262360e-01</leafValues></_>
    <_>
      <internalNodes>
        0 -1 2991 887805084 807457718 -2145435591 -1387454989 -371260411
        -2087800231 -806207396 -1847199763</internalNodes>
      <leafValues>
        -2.4940507113933563e-01 2.0500923693180084e-01</leafValues></_>
    <_>
      <internalNodes>
        0 -1 5154 -30412030 530890520 -1560302348 -1310330958 1853108393
        995481078 -991076952 -522731217</internalNodes>
      <leafValues>
        -2.0618623495101929e-01 2.3635621368885040e-01</leafValues></_>
    <_>
      <internalNodes>
        0 -1 1366 -1966143421 1790337295 -266273959 205805110 -607492348
        -1382911012 -617662688 -1099753377</internalNodes>
      <leafValues>
        -2.7415215969085693e-01 1.7725265026092529e-01</leafValues></_>
    <_>
      <internalNodes>
        0 -1 4266 1761598464 580950229 -1529821809 -1940392960
        -268553680 1034459802 -147856012 1825602708</internalNodes>
      <leafValues>
        -3.4245899319648743e-01 1.4323693513870239e-01</leafValues></_>
    <_>
      <internalNodes>
        0 -1 2685 541459620 -1548593671 -643717066 -1336774180 324684548
        1274608267 -1750267739 1614417088</internalNodes>
      <leafValues>
        -4.2350655794143677e-01 1.1678455770015717e-01</leafValues></_>
    <_>
      <internalNodes>
        0 -1 5044 -71306621 -473055367 -285741702 -749207714 927307441
        -1099696977 -950713762 -503588986</internalNodes>
      <leafValues>
        -1.6461420059204102e-01 3.2323491573333740e-01</leafValues></_>
    <_>
      <internalNodes>
        0 -1 3046 2066257428 270938816 -510812839 -205410700 -531493968
        -770961202 277593576 226260314</internalNodes>
      <leafValues>
        -2.9745376110076904e-01 1.6651798784732819e-01</leafValues></_>
    <_>
      <internalNodes>
        0 -1 7860 1026514137 -659900662 -1725941679 -1157081277
        -994679652 1049336750 2104283515 1273684527</internalNodes>
      <leafValues>
        -2.2407244145870209e-01 2.2524537146091461e-01</leafValues></_>
    <_>
      <internalNodes>
        0 -1 7600 -763833296 -718671568 -290668996 -650244504
        -2139960155 413589300 129626680 -1890897253</internalNodes>
      <leafValues>
        -2.0166307687759399e-01 2.5824299454689026e-01</leafValues></_>
    <_>
      <internalNodes>
        0 -1 8456 798043187 647298023 -1014832798 -521863782 1537952610
        220905102 513884608 -864462624</internalNodes>
      <leafValues>
        -3.2057181000709534e-01 1.6242201626300812e-01</leafValues></_>
    <_>
      <internalNodes>
        0 -1 2394 -1685913863 -727389018 -377718893 -1384268683
        825003941 -366184521 -639646567 -308415189</internalNodes>
      <leafValues>
        -1.6587056219577789e-01 3.1833270192146301e-01</leafValues></_>
    <_>
      <internalNodes>
        0 -1 255 617246698 -1308871113 46213799 878908209 1048845189
        1361080644 715368590 1409313377</internalNodes>
      <leafValues>
        -3.6572816967964172e-01 1.4488768577575684e-01</leafValues></_>
    <_>
      <internalNodes>
        0 -1 2914 772878945 987695144 -24712357 -583826904 177938865
        -1171732336 223819860 -1154299185</internalNodes>
      <leafValues>
        -2.4310085177421570e-01 2.2295922040939331e-01</leafValues></_>
    <_>
      <internalNodes>
        0 -1 6892 1013374193 1921138802 285821869 1569102104 -1456633412
        131746335 -1067394937 1636524161</internalNodes>
      <leafValues>
        -2.6805540919303894e-01 2.1277743577957153e-01</leafValues></_>
    <_>
      <internalNodes>
        0 -1 7315 -225987656 1936698536 242825182 -1287143826 1585431704
        -1367693212 1845310094 -706762798</internalNodes>
      <leafValues>
        -1.6828610002994537e-01 3.2621660828590393e-01</leafValues></_>
    <_>
      <internalNodes>
        0 -1 7034 1380671981 515535971 878174756 1275756968 -2060988710
        -1679421433 -1066422357 142782123</internalNodes>
      <leafValues>
        -2.5136110186576843e-01 2.1633026003837585e-01</leafValues></_>
    <_>
      <internalNodes>
        0 -1 7740 -931890051 -263847287 729558680 992144987 -1753280661
        -318836907 -1120559379 -124880150</internalNodes>
      <leafValues>
        -2.1760670840740204e-01 2.6229339838027954e-01</leafValues></_>
    <_>
      <internalNodes>
        0 -1 507 1304407670 -1372588511 1140419819 989752883 1813913836
        -314716290 2121675546 -73296785</internalNodes>
      <leafValues>
        -2.2902876138687134e-01 2.3439046740531921e-01</leafValues></_>
    <_>
      <internalNodes>
        0 -1 6420 -191981445 1957056052 -34278672 -168666148 1174255853
        1331015679 -1938497800 -1961961446</internalNodes>
      <leafValues>
        -1.8371391296386719e-01 3.0020412802696228e-01</leafValues></_>
    <_>
      <internalNodes>
        0 -1 8177 2079061425 -1913461329 1072588449 -839340133
        1325391140 14040895 -1107413176 -593101577</internalNodes>
      <leafValues>
        -2.1933104097843170e-01 2.4689455330371857e-01</leafValues></_>
    <_>
      <internalNodes>
        0 -1 5952 1401652906 416719215 -1304623739 -73214744 350583217
        1151199509 -202343519 -253661540</internalNodes>
      <leafValues>
        -2.3985083401203156e-01 2.2946293652057648e-01</leafValues></_></weakClassifiers></stage18>
</opencv_storage>
