<?xml version="1.0"?>
<opencv_storage>
<stage4>
  <maxWeakCount>40</maxWeakCount>
  <stageThreshold>-1.1636366844177246e+00</stageThreshold>
  <weakClassifiers>
    <_>
      <internalNodes>
        0 -1 7829 -1415319647 -313389 -134783011 -2370561 -806375425
        -1427972685 -834020129 -842019363</internalNodes>
      <leafValues>
        -2.2833512723445892e-01 3.6539345979690552e-01</leafValues></_>
    <_>
      <internalNodes>
        0 -1 72 -16792370 -604410109 787119999 -10269065 -33566729
        -539265482 -673972481 -77342357</internalNodes>
      <leafValues>
        -1.8328879773616791e-01 3.8253921270370483e-01</leafValues></_>
    <_>
      <internalNodes>
        0 -1 2103 1547370495 -136577153 -537460737 1067119359 -60928577
        -69239041 -1879052289 -34448526</internalNodes>
      <leafValues>
        -1.6646228730678558e-01 3.4783023595809937e-01</leafValues></_>
    <_>
      <internalNodes>
        0 -1 276 -168184606 -577046531 -2147483456 -773328165
        -1912087873 256840519 -126955026 1393010227</internalNodes>
      <leafValues>
        -2.8644219040870667e-01 1.6757176816463470e-01</leafValues></_>
    <_>
      <internalNodes>
        0 -1 8030 1555007488 1425974939 -186935280 -91450470 1077826580
        677149049 1377644035 15593487</internalNodes>
      <leafValues>
        -3.1194347143173218e-01 1.5502007305622101e-01</leafValues></_>
    <_>
      <internalNodes>
        0 -1 249 -667441037 -12876782 150340831 743923511 -799685194
        1547044145 69676799 1600617075</internalNodes>
      <leafValues>
        -2.0342291891574860e-01 2.3425455391407013e-01</leafValues></_>
    <_>
      <internalNodes>
        0 -1 7081 740335056 -1324335180 802941309 -1617271396 161520605
        -1377112836 1033660648 -1380250472</internalNodes>
      <leafValues>
        -2.6574301719665527e-01 1.5487782657146454e-01</leafValues></_>
    <_>
      <internalNodes>
        0 -1 281 -902846805 -50594181 248167583 -1527714122 1996980020
        -60528793 -875038823 -411573305</internalNodes>
      <leafValues>
        -1.3765534758567810e-01 3.0020970106124878e-01</leafValues></_>
    <_>
      <internalNodes>
        0 -1 7498 -589306750 1346288657 -1197580783 291315203 -117470072
        -1999939952 1181435402 146795403</internalNodes>
      <leafValues>
        -2.3669433593750000e-01 1.9024801254272461e-01</leafValues></_>
    <_>
      <internalNodes>
        0 -1 2950 195690800 398203684 -1711677955 -1490062980 571097489
        -1079069616 134628600 -1346413352</internalNodes>
      <leafValues>
        -2.3939312994480133e-01 1.8053129315376282e-01</leafValues></_>
    <_>
      <internalNodes>
        0 -1 3668 -110100858 889658376 -1036157296 -541998514 1291338970
        251932463 -875469654 2069582491</internalNodes>
      <leafValues>
        -1.8543817102909088e-01 2.3463694751262665e-01</leafValues></_>
    <_>
      <internalNodes>
        0 -1 3760 -84473761 1043471608 -690063665 -1053804426 1804994568
        -77973135 1915901982 -1169130374</internalNodes>
      <leafValues>
        -2.5581961870193481e-01 1.6689278185367584e-01</leafValues></_>
    <_>
      <internalNodes>
        0 -1 7924 -2132147180 281151490 1860152191 444752714 1291653304
        -1413942153 -893908290 -294975941</internalNodes>
      <leafValues>
        -2.1683806180953979e-01 2.0112000405788422e-01</leafValues></_>
    <_>
      <internalNodes>
        0 -1 4215 -2073624544 207680549 625330957 -1407897787 -195136736
        1046536406 -1424475328 743696978</internalNodes>
      <leafValues>
        -3.9032021164894104e-01 1.0858832299709320e-01</leafValues></_>
    <_>
      <internalNodes>
        0 -1 8435 -153114619 1087493663 -2036859902 1089252612
        1962882560 681289659 -1933102848 -1057489673</internalNodes>
      <leafValues>
        -2.2201764583587646e-01 2.0083631575107574e-01</leafValues></_>
    <_>
      <internalNodes>
        0 -1 7816 -1978927311 209748118 -2055473691 -1247012256
        135626948 -1429538392 1504007672 -2004103984</internalNodes>
      <leafValues>
        -2.5823062658309937e-01 1.7725647985935211e-01</leafValues></_>
    <_>
      <internalNodes>
        0 -1 6640 1931985834 329290130 -1750384901 -1761464508
        1877295300 -34716287 -94197554 -339752389</internalNodes>
      <leafValues>
        -1.6254618763923645e-01 2.6184716820716858e-01</leafValues></_>
    <_>
      <internalNodes>
        0 -1 3247 1394484616 -1117788705 1863580671 -1288661 -83610152
        -33631507 -62409015 -1079334262</internalNodes>
      <leafValues>
        -2.0604334771633148e-01 2.1816016733646393e-01</leafValues></_>
    <_>
      <internalNodes>
        0 -1 6017 -10487110 1394078924 673476209 867404788 -1933304904
        -1141043726 614478739 2037900211</internalNodes>
      <leafValues>
        -1.8628591299057007e-01 2.4288465082645416e-01</leafValues></_>
    <_>
      <internalNodes>
        0 -1 1010 -1937789917 -1940891604 -850955471 -964657392
        216277007 -1885722996 -965775055 1283285281</internalNodes>
      <leafValues>
        -2.9988348484039307e-01 1.5121823549270630e-01</leafValues></_>
    <_>
      <internalNodes>
        0 -1 4687 1685450482 1456529909 -2070534087 -1080865105
        806419332 -2048355033 1134880824 1562356390</internalNodes>
      <leafValues>
        -2.1748143434524536e-01 1.9932129979133606e-01</leafValues></_>
    <_>
      <internalNodes>
        0 -1 6300 -491281885 -1205420281 -1910707188 -1013291306
        -1535154265 2020908539 -419973144 -456917510</internalNodes>
      <leafValues>
        -1.7040996253490448e-01 2.6130697131156921e-01</leafValues></_>
    <_>
      <internalNodes>
        0 -1 16 1757038093 489636819 -595992841 -1530142415 479882591
        -1472595783 -86331794 1381386070</internalNodes>
      <leafValues>
        -2.5347733497619629e-01 1.7107120156288147e-01</leafValues></_>
    <_>
      <internalNodes>
        0 -1 3569 -987437888 2015402625 301052665 -5179883 -994974592
        -1661425453 356903375 1541342622</internalNodes>
      <leafValues>
        -2.0944499969482422e-01 2.0886634290218353e-01</leafValues></_>
    <_>
      <internalNodes>
        0 -1 567 243198675 -86832569 -331322790 -1515009310 1179405940
        -1974771609 -866881928 -10204393</internalNodes>
      <leafValues>
        -2.2450438141822815e-01 1.9183035194873810e-01</leafValues></_>
    <_>
      <internalNodes>
        0 -1 4779 -622064552 1567757744 1206998394 1501572248
        -1682237160 -564247891 -1266644296 -1419097030</internalNodes>
      <leafValues>
        -2.2787120938301086e-01 1.9369898736476898e-01</leafValues></_>
    <_>
      <internalNodes>
        0 -1 6467 40386848 2013290522 502318455 -672600813 777987320
        -1730549839 530868383 1084236111</internalNodes>
      <leafValues>
        -3.2310459017753601e-01 1.3453216850757599e-01</leafValues></_>
    <_>
      <internalNodes>
        0 -1 8002 -1962678479 -1567965540 -236200073 -822626251
        1008250324 -287981088 188441957 -1969629988</internalNodes>
      <leafValues>
        -2.2857618331909180e-01 1.9128866493701935e-01</leafValues></_>
    <_>
      <internalNodes>
        0 -1 7666 1103097123 -1598622357 -538369821 -417071750
        1482597767 -901798171 1076852208 -637799356</internalNodes>
      <leafValues>
        -2.0307950675487518e-01 2.1635374426841736e-01</leafValues></_>
    <_>
      <internalNodes>
        0 -1 3088 -417938182 -1154866640 -305520779 -38946494 1090275500
        -1667695109 -1973621026 -270309813</internalNodes>
      <leafValues>
        -1.4327754080295563e-01 2.9970857501029968e-01</leafValues></_>
    <_>
      <internalNodes>
        0 -1 8074 -1909313675 -871862435 -1357530435 -1666939002
        -1557783052 -1934561992 -382388868 -759520140</internalNodes>
      <leafValues>
        -2.3607575893402100e-01 1.8556076288223267e-01</leafValues></_>
    <_>
      <internalNodes>
        0 -1 36 404882450 -1084985849 -342806919 -314967070 -548250465
        -655772738 -1251500611 83906624</internalNodes>
      <leafValues>
        -3.2285583019256592e-01 1.3467174768447876e-01</leafValues></_>
    <_>
      <internalNodes>
        0 -1 7625 -503345630 49438493 -136472542 577033761 1279067936
        71826294 -217903104 1081473426</internalNodes>
      <leafValues>
        -5.5545896291732788e-01 7.8363120555877686e-02</leafValues></_>
    <_>
      <internalNodes>
        0 -1 7248 -699391812 -780120044 -682296721 1661179018 1022692495
        -440997403 583050392 50594447</internalNodes>
      <leafValues>
        -2.9065123200416565e-01 1.4456345140933990e-01</leafValues></_>
    <_>
      <internalNodes>
        0 -1 1534 -301316505 -26452502 -288189985 -899277957 -1703233002
        -1382077084 -426311684 -205882545</internalNodes>
      <leafValues>
        -1.8604041635990143e-01 2.3942339420318604e-01</leafValues></_>
    <_>
      <internalNodes>
        0 -1 5984 -424681310 -1298395586 268337324 -307443942
        -2076886623 -1475546003 1101863960 -493095050</internalNodes>
      <leafValues>
        -1.9967830181121826e-01 2.2128072381019592e-01</leafValues></_>
    <_>
      <internalNodes>
        0 -1 104 -895176798 33563947 -827404504 -1663004879 268380513
        -890399919 1526160337 1087653651</internalNodes>
      <leafValues>
        -3.5520556569099426e-01 1.2166143208742142e-01</leafValues></_>
    <_>
      <internalNodes>
        0 -1 3670 -1034966010 -737689841 -252730615 -1175814496
        1626044361 147758453 821319882 -117477654</internalNodes>
      <leafValues>
        -1.8446961045265198e-01 2.3714247345924377e-01</leafValues></_>
    <_>
      <internalNodes>
        0 -1 5105 -606606694 -182999034 632330410 -638983493 -849997135
        1140457632 627490798 1875884079</internalNodes>
      <leafValues>
        -1.8666106462478638e-01 2.3757003247737885e-01</leafValues></_>
    <_>
      <internalNodes>
        0 -1 2124 1182690886 26476366 1243246240 1797806526 1907716502
        373238159 -1078015936 1078067130</internalNodes>
      <leafValues>
        -3.6035034060478210e-01 1.2833331525325775e-01</leafValues></_></weakClassifiers></stage4>
</opencv_storage>
