<?xml version="1.0"?>
<opencv_storage>
<stage15>
  <maxWeakCount>55</maxWeakCount>
  <stageThreshold>-9.3181425333023071e-01</stageThreshold>
  <weakClassifiers>
    <_>
      <internalNodes>
        0 -1 233 -83886161 -209461585 -1358496041 -257503605 1165456213
        -8924571 -270274613 -143130673</internalNodes>
      <leafValues>
        -9.5508389174938202e-02 3.4566473960876465e-01</leafValues></_>
    <_>
      <internalNodes>
        0 -1 3958 335824851 -537481353 -235131553 -1078558730 2073448183
        -23435396 -541381889 -1159736</internalNodes>
      <leafValues>
        -1.2941680848598480e-01 2.6871225237846375e-01</leafValues></_>
    <_>
      <internalNodes>
        0 -1 2080 -623164769 -1761644753 -386335105 842638453
        -1166900982 -285263293 -8454689 -80546194</internalNodes>
      <leafValues>
        -1.5175096690654755e-01 2.1933773159980774e-01</leafValues></_>
    <_>
      <internalNodes>
        0 -1 8004 755745841 -645152432 -1111759257 -572018352 706720253
        1785299875 -671252609 1308546261</internalNodes>
      <leafValues>
        -1.9379095733165741e-01 1.5514418482780457e-01</leafValues></_>
    <_>
      <internalNodes>
        0 -1 4985 1512043223 705371935 -160044165 -1349013833
        -1367362388 -542675270 -51304977 -1610639426</internalNodes>
      <leafValues>
        -1.3835403323173523e-01 2.3022407293319702e-01</leafValues></_>
    <_>
      <internalNodes>
        0 -1 8321 -140511454 -536089626 -1762574864 -587698208 829336484
        -1932726037 -723528636 -996676341</internalNodes>
      <leafValues>
        -1.8145149946212769e-01 1.6874505579471588e-01</leafValues></_>
    <_>
      <internalNodes>
        0 -1 2986 207792544 447262386 -18881116 -46780016 197854372
        -1200670283 1082854413 1820788824</internalNodes>
      <leafValues>
        -2.3227986693382263e-01 1.3889665901660919e-01</leafValues></_>
    <_>
      <internalNodes>
        0 -1 8450 2147462179 162723099 183410064 234158478 210443555
        1624630718 1944254225 -1041694746</internalNodes>
      <leafValues>
        -1.9838520884513855e-01 1.3848960399627686e-01</leafValues></_>
    <_>
      <internalNodes>
        0 -1 87 739968704 1404041391 -892736417 652340033 390515849
        1584391131 -386540378 1103152448</internalNodes>
      <leafValues>
        -2.2872146964073181e-01 1.3520628213882446e-01</leafValues></_>
    <_>
      <internalNodes>
        0 -1 3093 -1706414912 825008660 -1348039562 -675248512 5472464
        1055554972 -937387078 2136293394</internalNodes>
      <leafValues>
        -2.3473185300827026e-01 1.1972604691982269e-01</leafValues></_>
    <_>
      <internalNodes>
        0 -1 3081 -1655394360 2124304110 -1089109853 -76600595
        1970978464 -104813856 1517402251 -1948175480</internalNodes>
      <leafValues>
        -1.4363101124763489e-01 1.9809295237064362e-01</leafValues></_>
    <_>
      <internalNodes>
        0 -1 5869 1486856863 1323289363 21399901 -219286550 -679886023
        -1833097121 -19307890 -792417280</internalNodes>
      <leafValues>
        -1.7856256663799286e-01 1.6558532416820526e-01</leafValues></_>
    <_>
      <internalNodes>
        0 -1 7857 -79170846 1133440996 1598958448 -491521230 -573741205
        -1897109562 1459012507 -951323489</internalNodes>
      <leafValues>
        -1.3900956511497498e-01 2.0303395390510559e-01</leafValues></_>
    <_>
      <internalNodes>
        0 -1 7255 -521695477 1355655110 -2109756206 300855454
        -1547294776 -111153629 -101800021 -403714178</internalNodes>
      <leafValues>
        -1.3699126243591309e-01 2.2785490751266479e-01</leafValues></_>
    <_>
      <internalNodes>
        0 -1 8005 489692184 -1625914766 -2096148466 -2112823460
        584921620 -1176891300 -2021017999 195040268</internalNodes>
      <leafValues>
        -3.3460468053817749e-01 9.4614647328853607e-02</leafValues></_>
    <_>
      <internalNodes>
        0 -1 2647 -932167673 -663411692 -54854145 525398965 -1669650107
        -816649131 -62727976 -11914661</internalNodes>
      <leafValues>
        -1.6563892364501953e-01 1.8584543466567993e-01</leafValues></_>
    <_>
      <internalNodes>
        0 -1 7680 -113249375 -488058270 -846040457 1424834416
        -1343398979 -1898971354 362919731 -978848257</internalNodes>
      <leafValues>
        -1.3759066164493561e-01 2.1909566223621368e-01</leafValues></_>
    <_>
      <internalNodes>
        0 -1 4784 117716456 -1550000709 1913828110 247839723 -1187680195
        2130029271 869880150 342467661</internalNodes>
      <leafValues>
        -2.3957493901252747e-01 1.3892503082752228e-01</leafValues></_>
    <_>
      <internalNodes>
        0 -1 529 -972050801 749446850 646656363 -454383002 1853553609
        776278009 1858495811 -698230937</internalNodes>
      <leafValues>
        -1.7719715833663940e-01 1.6905292868614197e-01</leafValues></_>
    <_>
      <internalNodes>
        0 -1 5284 813708741 1340527591 -17091104 -524729112 1452760641
        852809663 1795635969 15752801</internalNodes>
      <leafValues>
        -2.7725762128829956e-01 1.1130401492118835e-01</leafValues></_>
    <_>
      <internalNodes>
        0 -1 6300 -135273845 2047474611 312274996 -812034618 -461902709
        1441065962 -19689480 -136577429</internalNodes>
      <leafValues>
        -9.9560834467411041e-02 3.0019843578338623e-01</leafValues></_>
    <_>
      <internalNodes>
        0 -1 6065 -448296269 1023555120 -958425508 -1356666704
        1407407539 1968616914 737412794 -806619653</internalNodes>
      <leafValues>
        -1.5634517371654510e-01 2.0055711269378662e-01</leafValues></_>
    <_>
      <internalNodes>
        0 -1 8071 -587355136 274759444 -1999819776 -798484966 -428922487
        76415749 -134266104 82950483</internalNodes>
      <leafValues>
        -2.4637284874916077e-01 1.3613246381282806e-01</leafValues></_>
    <_>
      <internalNodes>
        0 -1 6788 -645951597 -1817010632 -1276380304 427315316
        -1510086171 201131975 -1711977248 -815930142</internalNodes>
      <leafValues>
        -1.5429696440696716e-01 2.0188568532466888e-01</leafValues></_>
    <_>
      <internalNodes>
        0 -1 8196 -354287685 -201990496 -587862063 -739274157
        -2047306967 -286220442 -1010065837 -549745443</internalNodes>
      <leafValues>
        -9.6866115927696228e-02 2.9284596443176270e-01</leafValues></_>
    <_>
      <internalNodes>
        0 -1 1758 926393552 -909990360 -1907132316 -811834336
        -1906533115 -1674264764 1052707417 1694262962</internalNodes>
      <leafValues>
        -2.3578484356403351e-01 1.2630608677864075e-01</leafValues></_>
    <_>
      <internalNodes>
        0 -1 9 716603462 513181519 1993892351 -284968267 -330635011
        553492501 -541164713 878788635</internalNodes>
      <leafValues>
        -2.3088295757770538e-01 1.3535259664058685e-01</leafValues></_>
    <_>
      <internalNodes>
        0 -1 6060 -747648001 2092854307 -279273784 -208199 1868614800
        -1255811586 -306873928 -4202274</internalNodes>
      <leafValues>
        -1.1281137168407440e-01 2.8937864303588867e-01</leafValues></_>
    <_>
      <internalNodes>
        0 -1 6720 -878794230 857916364 -562779866 -1359023109 1816258160
        1477477116 -572562050 -425363224</internalNodes>
      <leafValues>
        -1.8140858411788940e-01 1.7497728765010834e-01</leafValues></_>
    <_>
      <internalNodes>
        0 -1 849 -643870497 -395705326 -1301742753 923382515 -1772761868
        -84985920 -1556815880 -1140200019</internalNodes>
      <leafValues>
        -1.2226284295320511e-01 2.6088333129882812e-01</leafValues></_>
    <_>
      <internalNodes>
        0 -1 191 1653444324 794786 586566690 41148478 275338288
        777454164 2061857664 371385456</internalNodes>
      <leafValues>
        -4.1166487336158752e-01 7.5397580862045288e-02</leafValues></_>
    <_>
      <internalNodes>
        0 -1 8338 -814903927 -1157643383 -1669438405 -1091901818
        -1682781008 -1074637579 -159913282 -104071478</internalNodes>
      <leafValues>
        -1.1863809078931808e-01 2.6694235205650330e-01</leafValues></_>
    <_>
      <internalNodes>
        0 -1 3945 -1883690458 -284875953 -755889397 -2050617769
        -413103390 -325208895 71890163 1277775677</internalNodes>
      <leafValues>
        -2.3851378262042999e-01 1.2838815152645111e-01</leafValues></_>
    <_>
      <internalNodes>
        0 -1 6945 -1225534314 -651129079 -945098983 1602993930
        -561707824 714702825 1789955513 -208577589</internalNodes>
      <leafValues>
        -1.4029958844184875e-01 2.2904071211814880e-01</leafValues></_>
    <_>
      <internalNodes>
        0 -1 5145 -1751768613 479558384 1690629585 1576927167 -360971155
        116837900 -1112270297 1064163840</internalNodes>
      <leafValues>
        -2.0801509916782379e-01 1.6002660989761353e-01</leafValues></_>
    <_>
      <internalNodes>
        0 -1 7785 -450176295 -22349499 -38910219 -100744136 1291543208
        -1130844398 799333870 -680799557</internalNodes>
      <leafValues>
        -1.0532236099243164e-01 2.8574088215827942e-01</leafValues></_>
    <_>
      <internalNodes>
        0 -1 7580 935821058 194962 -325317613 -412845432 -1975678022
        -1966564969 296044338 1285352777</internalNodes>
      <leafValues>
        -2.4002082645893097e-01 1.3323904573917389e-01</leafValues></_>
    <_>
      <internalNodes>
        0 -1 8398 1996261909 211339394 -1862168395 -724632714 1037899503
        -896081013 1624725531 -724274845</internalNodes>
      <leafValues>
        -1.7938539385795593e-01 1.7732317745685577e-01</leafValues></_>
    <_>
      <internalNodes>
        0 -1 6312 896442496 -2012034544 -827538722 -1814419176
        1091392834 2026338675 1993960412 688255295</internalNodes>
      <leafValues>
        -2.6601487398147583e-01 1.1976490914821625e-01</leafValues></_>
    <_>
      <internalNodes>
        0 -1 4324 439879979 110736009 2070921135 148176879 468869145
        451918892 930249045 35654501</internalNodes>
      <leafValues>
        -3.3995708823204041e-01 8.9324705302715302e-02</leafValues></_>
    <_>
      <internalNodes>
        0 -1 7878 -298460255 -385957903 -1342870543 -584285068
        1241480397 -1996587033 -1879254785 -587735659</internalNodes>
      <leafValues>
        -1.4982062578201294e-01 2.2211384773254395e-01</leafValues></_>
    <_>
      <internalNodes>
        0 -1 3088 1510352080 1558863798 -835133575 -269551603 1342982404
        83386783 -288477478 -1595799769</internalNodes>
      <leafValues>
        -2.0609253644943237e-01 1.6222125291824341e-01</leafValues></_>
    <_>
      <internalNodes>
        0 -1 5241 1941315924 79970368 741906488 136578448 1147928656
        1034133808 642257232 205938761</internalNodes>
      <leafValues>
        -3.9167618751525879e-01 8.1583939492702484e-02</leafValues></_>
    <_>
      <internalNodes>
        0 -1 1424 1078585664 620815839 1934969373 -1133456312 86855787
        -31022399 1306037572 1631848458</internalNodes>
      <leafValues>
        -2.9373395442962646e-01 1.1489272862672806e-01</leafValues></_>
    <_>
      <internalNodes>
        0 -1 5952 -1033902454 -1612268974 442898208 -203066810 460177841
        886668325 1461579666 -1258500107</internalNodes>
      <leafValues>
        -1.7866925895214081e-01 1.9094321131706238e-01</leafValues></_>
    <_>
      <internalNodes>
        0 -1 1280 477931615 -2074221859 -231827811 -1531944618 606629493
        -619953886 1083366360 -29996258</internalNodes>
      <leafValues>
        -2.1003355085849762e-01 1.6408894956111908e-01</leafValues></_>
    <_>
      <internalNodes>
        0 -1 423 -556956025 1664323075 -1077457165 -1583692190 561804917
        -437791132 1602219470 -9146241</internalNodes>
      <leafValues>
        -1.5821994841098785e-01 2.1246932446956635e-01</leafValues></_>
    <_>
      <internalNodes>
        0 -1 4680 -765402885 -1156945808 -147761104 -503339950 489998489
        513757677 -869348341 1877990370</internalNodes>
      <leafValues>
        -1.5548853576183319e-01 2.1803486347198486e-01</leafValues></_>
    <_>
      <internalNodes>
        0 -1 5600 2104476243 2038484495 1177090721 490549113 526651868
        1041900530 1178926243 1732366378</internalNodes>
      <leafValues>
        -1.7830324172973633e-01 1.9587358832359314e-01</leafValues></_>
    <_>
      <internalNodes>
        0 -1 696 -285569281 -758886939 1123995647 -1613003079 -158448892
        -1285801870 1572490100 -1100982297</internalNodes>
      <leafValues>
        -1.6993205249309540e-01 1.9994045794010162e-01</leafValues></_>
    <_>
      <internalNodes>
        0 -1 3510 -2135523168 297301124 -146431748 -343272750 34246672
        -833258570 1511304068 302323636</internalNodes>
      <leafValues>
        -3.2269051671028137e-01 1.0510750114917755e-01</leafValues></_>
    <_>
      <internalNodes>
        0 -1 5548 241437222 343084977 -2036991664 248210521 1484228964
        -655046007 -448358362 1503685654</internalNodes>
      <leafValues>
        -2.7207031846046448e-01 1.1839576810598373e-01</leafValues></_>
    <_>
      <internalNodes>
        0 -1 6036 -22090092 344991099 -659445186 1906358624 1221042172
        -1904535857 -2142854012 -854169214</internalNodes>
      <leafValues>
        -1.8412418663501740e-01 1.8392463028430939e-01</leafValues></_>
    <_>
      <internalNodes>
        0 -1 5704 1018958753 792940480 698317986 340620 2084632175
        1390148273 840220468 538186693</internalNodes>
      <leafValues>
        -3.0326521396636963e-01 1.1384068429470062e-01</leafValues></_>
    <_>
      <internalNodes>
        0 -1 8152 -154155594 -600051288 -1028704315 -711507983
        1331079142 -1670048557 -294806360 -884749814</internalNodes>
      <leafValues>
        -1.3053101301193237e-01 2.6452487707138062e-01</leafValues></_></weakClassifiers></stage15>
</opencv_storage>
