<?xml version="1.0"?>
<opencv_storage>
<stage12>
  <maxWeakCount>31</maxWeakCount>
  <stageThreshold>-1.0085756778717041e+00</stageThreshold>
  <weakClassifiers>
    <_>
      <internalNodes>
        0 -1 7412 -643825679 -1918369915 -1073743885 -138805314
        -1218580481 -907087938 -705170987 -974127618</internalNodes>
      <leafValues>
        -2.2737909853458405e-01 2.6013162732124329e-01</leafValues></_>
    <_>
      <internalNodes>
        0 -1 25 1115046473 -1140919845 -820660577 -230515443 -8771233
        -69305187 -1144571141 -229444774</internalNodes>
      <leafValues>
        -2.3853576183319092e-01 2.1221439540386200e-01</leafValues></_>
    <_>
      <internalNodes>
        0 -1 1 -422924629 -1598613169 -118313041 -1251172457 1374628207
        -1224398012 1939283941 1983972215</internalNodes>
      <leafValues>
        -2.3601214587688446e-01 1.9272027909755707e-01</leafValues></_>
    <_>
      <internalNodes>
        0 -1 50 385116846 303187422 -1257797474 -1444916470 1688631772
        382546367 1930922380 1159817648</internalNodes>
      <leafValues>
        -3.7511339783668518e-01 1.1796265840530396e-01</leafValues></_>
    <_>
      <internalNodes>
        0 -1 5416 1395359952 -1097126142 -973748231 -1223450717 71197816
        -126575961 1282694385 138146835</internalNodes>
      <leafValues>
        -2.4631638824939728e-01 1.7392747104167938e-01</leafValues></_>
    <_>
      <internalNodes>
        0 -1 7790 -625285294 370902016 -556130960 -1645399615 928992510
        -1396904544 251379672 -52428806</internalNodes>
      <leafValues>
        -1.9828025996685028e-01 2.3382300138473511e-01</leafValues></_>
    <_>
      <internalNodes>
        0 -1 2394 -2088057936 -1859867148 -1989202059 -1084375980
        17795758 -877258833 544015501 -353381045</internalNodes>
      <leafValues>
        -1.5947081148624420e-01 2.5610679388046265e-01</leafValues></_>
    <_>
      <internalNodes>
        0 -1 4340 634652965 -1896124557 -7420548 -1427093925 1980332149
        -1076057861 -1699214249 1718890036</internalNodes>
      <leafValues>
        -3.3719068765640259e-01 1.1721556633710861e-01</leafValues></_>
    <_>
      <internalNodes>
        0 -1 507 13266518 1041442337 -1023841629 721169017 1817522241
        901201425 1379286326 1695877223</internalNodes>
      <leafValues>
        -3.5203033685684204e-01 1.3593310117721558e-01</leafValues></_>
    <_>
      <internalNodes>
        0 -1 8373 -136862447 -370829729 -537007267 -658810387
        -1418581513 217968302 -1112031859 -2124041989</internalNodes>
      <leafValues>
        -1.6877800226211548e-01 2.5965335965156555e-01</leafValues></_>
    <_>
      <internalNodes>
        0 -1 7081 -2003399951 816610356 -1611235667 -1818268240
        -1917709381 -807272988 506989769 -1342234352</internalNodes>
      <leafValues>
        -1.9687984883785248e-01 2.2507876157760620e-01</leafValues></_>
    <_>
      <internalNodes>
        0 -1 4312 -696332065 -541447205 -17450371 530067060 -103647783
        -1117029319 -869254 -1414341306</internalNodes>
      <leafValues>
        -1.8323104083538055e-01 2.6132306456565857e-01</leafValues></_>
    <_>
      <internalNodes>
        0 -1 6633 -194034689 819963955 1786753527 786496881 -1997142844
        -1100529684 1014390876 -90253638</internalNodes>
      <leafValues>
        -1.7231957614421844e-01 2.4712280929088593e-01</leafValues></_>
    <_>
      <internalNodes>
        0 -1 6280 -773069268 2125872938 796640092 967769915 -277119688
        1731026903 1996474272 -452992126</internalNodes>
      <leafValues>
        -1.8930096924304962e-01 2.3688098788261414e-01</leafValues></_>
    <_>
      <internalNodes>
        0 -1 665 -1361377569 107633109 1485896786 1015730926 -512329148
        -383943860 -47682553 -1154130380</internalNodes>
      <leafValues>
        -2.5119635462760925e-01 1.8347711861133575e-01</leafValues></_>
    <_>
      <internalNodes>
        0 -1 7023 1596770888 2106115280 -724001624 -678183402 1485384876
        855204116 1389131930 692798090</internalNodes>
      <leafValues>
        -2.6053410768508911e-01 1.7113681137561798e-01</leafValues></_>
    <_>
      <internalNodes>
        0 -1 771 69732610 1046615035 -1510292235 -1492889319 -124449768
        2078170037 1773622073 604003346</internalNodes>
      <leafValues>
        -4.0451464056968689e-01 1.2455134838819504e-01</leafValues></_>
    <_>
      <internalNodes>
        0 -1 3742 -219156771 -130383897 -1502351940 -546478156 675640541
        -297959809 -102241079 -13404565</internalNodes>
      <leafValues>
        -1.2702469527721405e-01 3.6517480015754700e-01</leafValues></_>
    <_>
      <internalNodes>
        0 -1 8365 1238149923 536931768 917526689 -837593540 -1848176863
        211673656 -1599212238 -655624710</internalNodes>
      <leafValues>
        -2.4892218410968781e-01 1.9234634935855865e-01</leafValues></_>
    <_>
      <internalNodes>
        0 -1 382 -709908253 -685497696 -1543639829 -979177880 1685480375
        -1079515206 1373018284 1900406663</internalNodes>
      <leafValues>
        -1.8866920471191406e-01 2.5283941626548767e-01</leafValues></_>
    <_>
      <internalNodes>
        0 -1 3369 351840167 1538377607 -1736983665 -1929059519
        1251682235 -1386600024 -2048296516 44651274</internalNodes>
      <leafValues>
        -2.6773878931999207e-01 1.7341744899749756e-01</leafValues></_>
    <_>
      <internalNodes>
        0 -1 5145 -729364268 832433901 346094720 234106531 1782582712
        196683969 428083738 1073159014</internalNodes>
      <leafValues>
        -2.9739657044410706e-01 1.6093100607395172e-01</leafValues></_>
    <_>
      <internalNodes>
        0 -1 6319 540552478 -2144800368 108931078 959561705 1184633932
        2057019488 -1565264400 761417220</internalNodes>
      <leafValues>
        -3.4375017881393433e-01 1.3290995359420776e-01</leafValues></_>
    <_>
      <internalNodes>
        0 -1 8084 1257221535 1584057649 1303278645 -422101386 686637963
        -332136731 -1175150333 -859711693</internalNodes>
      <leafValues>
        -1.7689420282840729e-01 2.6996168494224548e-01</leafValues></_>
    <_>
      <internalNodes>
        0 -1 5277 -1602033664 629977601 -1932284108 -1119620102 24802649
        2068482603 1615221844 814072048</internalNodes>
      <leafValues>
        -3.9657312631607056e-01 1.2404477596282959e-01</leafValues></_>
    <_>
      <internalNodes>
        0 -1 7902 -1368695015 -31056131 1037918206 472429692 -1993172227
        -361795723 1773983002 -604248758</internalNodes>
      <leafValues>
        -1.7827297747135162e-01 2.6448541879653931e-01</leafValues></_>
    <_>
      <internalNodes>
        0 -1 7379 1393235216 995779507 902119539 -783930655 924660066
        -1338928843 1001830911 216032555</internalNodes>
      <leafValues>
        -3.0945596098899841e-01 1.5780186653137207e-01</leafValues></_>
    <_>
      <internalNodes>
        0 -1 5984 -942946674 400863208 1476266632 -303185058 -286348845
        174853152 -1381954568 -223366113</internalNodes>
      <leafValues>
        -1.6851519048213959e-01 2.8361332416534424e-01</leafValues></_>
    <_>
      <internalNodes>
        0 -1 8184 109817393 109657912 -407642667 -270476344 -1869870630
        -1367173658 1463875865 -1936866975</internalNodes>
      <leafValues>
        -2.5605899095535278e-01 1.8847802281379700e-01</leafValues></_>
    <_>
      <internalNodes>
        0 -1 3437 575670033 909417463 -976004455 169906542 1313147700
        -1654159785 1829054525 2056735286</internalNodes>
      <leafValues>
        -3.0835795402526855e-01 1.5977367758750916e-01</leafValues></_>
    <_>
      <internalNodes>
        0 -1 4076 -464524096 872422988 1048592978 933698129 1918548944
        -641433442 1747481506 207424581</internalNodes>
      <leafValues>
        -3.0171120166778564e-01 1.6029646992683411e-01</leafValues></_></weakClassifiers></stage12>
</opencv_storage>
