<?xml version="1.0"?>
<opencv_storage>
<stage13>
  <maxWeakCount>31</maxWeakCount>
  <stageThreshold>-1.0778263807296753e+00</stageThreshold>
  <weakClassifiers>
    <_>
      <internalNodes>
        0 -1 8034 -2122056301 -814354279 1540702582 -682624620 732675579
        -1429948914 -1884553281 -541076004</internalNodes>
      <leafValues>
        -4.1511151194572449e-01 3.6585364490747452e-02</leafValues></_>
    <_>
      <internalNodes>
        0 -1 8407 -738213503 214892365 -380798160 -16786981 1075312017
        82166713 -141298108 -1060639057</internalNodes>
      <leafValues>
        -2.4671985208988190e-01 1.9713194668292999e-01</leafValues></_>
    <_>
      <internalNodes>
        0 -1 821 510021358 -562505321 -1108128100 720425276 1471565396
        -8458865 -1076891953 -592290754</internalNodes>
      <leafValues>
        -2.7812877297401428e-01 1.7406357824802399e-01</leafValues></_>
    <_>
      <internalNodes>
        0 -1 2227 -903926155 -1218612965 987360095 -545846673 -288748764
        -69379040 -353741328 -48047000</internalNodes>
      <leafValues>
        -2.2997441887855530e-01 1.9249485433101654e-01</leafValues></_>
    <_>
      <internalNodes>
        0 -1 5314 640098308 -2010982862 1065553769 -408272776 708320498
        -1342568261 1548033100 2191472</internalNodes>
      <leafValues>
        -4.1694912314414978e-01 1.2741984426975250e-01</leafValues></_>
    <_>
      <internalNodes>
        0 -1 7714 -572105636 2049002077 1069374251 -1085644286 116184368
        947461820 -1543753800 -811479733</internalNodes>
      <leafValues>
        -2.0416419208049774e-01 2.2793699800968170e-01</leafValues></_>
    <_>
      <internalNodes>
        0 -1 7979 692523810 682795680 247805777 1822737240 925042955
        -999624544 270531170 679789864</internalNodes>
      <leafValues>
        -4.2596048116683960e-01 8.9182913303375244e-02</leafValues></_>
    <_>
      <internalNodes>
        0 -1 105 -2046786810 -2095088478 -125733092 -1050581741
        216731439 -1459859713 955234320 28776561</internalNodes>
      <leafValues>
        -3.7047871947288513e-01 1.4249891042709351e-01</leafValues></_>
    <_>
      <internalNodes>
        0 -1 378 1689234979 -1780563197 -862933683 -1404911502 7548093
        -1203568112 -1082204763 -1387790681</internalNodes>
      <leafValues>
        -2.0880110561847687e-01 2.3290804028511047e-01</leafValues></_>
    <_>
      <internalNodes>
        0 -1 4114 3047810 -1214236797 -1289141919 -1746947552 569942956
        -1847571748 142566237 -382105340</internalNodes>
      <leafValues>
        -2.5150510668754578e-01 1.9414901733398438e-01</leafValues></_>
    <_>
      <internalNodes>
        0 -1 890 -256833275 1885146652 -323303437 -1845215244 -254228198
        370377015 -212292956 -698086158</internalNodes>
      <leafValues>
        -2.6747557520866394e-01 1.8481276929378510e-01</leafValues></_>
    <_>
      <internalNodes>
        0 -1 3613 820428044 475982048 1821557637 -1790521345 118014704
        1947811041 1883830847 264083967</internalNodes>
      <leafValues>
        -2.3909278213977814e-01 2.1094539761543274e-01</leafValues></_>
    <_>
      <internalNodes>
        0 -1 6725 -738464164 -551637423 -629556280 -878227454 1296333791
        -265364183 -610663110 256619</internalNodes>
      <leafValues>
        -2.4427774548530579e-01 2.1690274775028229e-01</leafValues></_>
    <_>
      <internalNodes>
        0 -1 7136 -103648735 -1046337322 -1917476453 -1492977217
        787602295 17424542 -240990495 1159721254</internalNodes>
      <leafValues>
        -2.8776678442955017e-01 1.8047711253166199e-01</leafValues></_>
    <_>
      <internalNodes>
        0 -1 6300 -747718485 1057861409 -1361252346 -253028386 662662603
        -179403273 -210262198 -190324742</internalNodes>
      <leafValues>
        -1.7817018926143646e-01 3.0883398652076721e-01</leafValues></_>
    <_>
      <internalNodes>
        0 -1 1982 1123520204 776604466 784765416 -404705214 -683771115
        1366663188 -107876848 1846668962</internalNodes>
      <leafValues>
        -3.3571860194206238e-01 1.6628989577293396e-01</leafValues></_>
    <_>
      <internalNodes>
        0 -1 5688 1640485632 11834481 -964222300 619346662 135857201
        1320523786 675844356 -329913110</internalNodes>
      <leafValues>
        -4.4103580713272095e-01 1.0230720043182373e-01</leafValues></_>
    <_>
      <internalNodes>
        0 -1 3444 306833035 2124961904 333283241 78446576 1120410726
        -191016537 -84324246 -1463820374</internalNodes>
      <leafValues>
        -2.2121973335742950e-01 2.4574023485183716e-01</leafValues></_>
    <_>
      <internalNodes>
        0 -1 2345 1701085577 -1460295712 69558290 1828478164 -754947790
        613960234 2018680097 638185937</internalNodes>
      <leafValues>
        -3.5740059614181519e-01 1.5354892611503601e-01</leafValues></_>
    <_>
      <internalNodes>
        0 -1 7790 -633876614 -761557584 -537261035 -1746224155
        -858100515 -1346472792 -1116237864 -225182215</internalNodes>
      <leafValues>
        -1.8251664936542511e-01 3.2130989432334900e-01</leafValues></_>
    <_>
      <internalNodes>
        0 -1 1406 100798314 453267919 -1131586428 254819713 1883570886
        1515889088 -1363524972 838992896</internalNodes>
      <leafValues>
        -4.4238153100013733e-01 1.2604449689388275e-01</leafValues></_>
    <_>
      <internalNodes>
        0 -1 5699 392313341 985049466 -2049830151 903107829 1045971197
        -1079623180 -657319718 -1640339202</internalNodes>
      <leafValues>
        -2.7085137367248535e-01 2.0590409636497498e-01</leafValues></_>
    <_>
      <internalNodes>
        0 -1 3653 1347772298 -727913966 1612460722 496911119 1493226920
        -777742750 -1155664773 1829248546</internalNodes>
      <leafValues>
        -2.8732794523239136e-01 2.1011455357074738e-01</leafValues></_>
    <_>
      <internalNodes>
        0 -1 5239 -595796899 2134186239 511468720 -1117872595 -352695051
        -548255646 -1476760359 -1175778288</internalNodes>
      <leafValues>
        -1.9178082048892975e-01 2.9439732432365417e-01</leafValues></_>
    <_>
      <internalNodes>
        0 -1 127 -1869098289 780728580 -224433069 -1761391749 -244070298
        -603969257 -167280217 1448836046</internalNodes>
      <leafValues>
        -2.5093033909797668e-01 2.2159272432327271e-01</leafValues></_>
    <_>
      <internalNodes>
        0 -1 1237 -1169488257 2024427010 -2013175314 1257710331
        2132853124 -1124054223 1852070566 -54243707</internalNodes>
      <leafValues>
        -2.5116118788719177e-01 2.2407062351703644e-01</leafValues></_>
    <_>
      <internalNodes>
        0 -1 8371 -1435392333 -1453571692 -2113742213 313426829
        2052842310 -1572700021 -967493547 -592211814</internalNodes>
      <leafValues>
        -2.4520026147365570e-01 2.3080609738826752e-01</leafValues></_>
    <_>
      <internalNodes>
        0 -1 2324 1522232673 209239924 -420491663 635697041 241142755
        494739431 -33806740 -1929652982</internalNodes>
      <leafValues>
        -2.2223752737045288e-01 2.5083339214324951e-01</leafValues></_>
    <_>
      <internalNodes>
        0 -1 27 137398340 525970499 1276613118 -1945551997 -585806616
        2041594294 -2111589316 202375184</internalNodes>
      <leafValues>
        -4.4996166229248047e-01 1.2418156862258911e-01</leafValues></_>
    <_>
      <internalNodes>
        0 -1 6428 -278613742 1948281114 1976193170 995684896 409883840
        1756332335 1509880824 -1899541924</internalNodes>
      <leafValues>
        -2.6109260320663452e-01 2.2139325737953186e-01</leafValues></_>
    <_>
      <internalNodes>
        0 -1 6373 -955724592 -239957409 543981210 84412504 -317406836
        -1098035514 1517128623 727310163</internalNodes>
      <leafValues>
        -2.6790925860404968e-01 2.0380534231662750e-01</leafValues></_></weakClassifiers></stage13>
</opencv_storage>
