<?xml version="1.0"?>
<opencv_storage>
<stage7>
  <maxWeakCount>28</maxWeakCount>
  <stageThreshold>-1.2346787452697754e+00</stageThreshold>
  <weakClassifiers>
    <_>
      <internalNodes>
        0 -1 2051 707821427 -537206785 1766905727 -1078273637 1573264351
        -4195653 -574644226 -853522430</internalNodes>
      <leafValues>
        -3.4426230192184448e-01 2.0167675614356995e-01</leafValues></_>
    <_>
      <internalNodes>
        0 -1 7829 -1893469823 -67502629 -4202535 -14340 -838861841
        -387063841 -840348193 -841228835</internalNodes>
      <leafValues>
        -1.8775527179241180e-01 3.3830046653747559e-01</leafValues></_>
    <_>
      <internalNodes>
        0 -1 177 -360987957 -31048705 -689000729 1782763471 1971668305
        2138318679 -185189697 -83364601</internalNodes>
      <leafValues>
        -1.8200378119945526e-01 3.0361643433570862e-01</leafValues></_>
    <_>
      <internalNodes>
        0 -1 327 -1342854389 -2065748789 1073819671 -554313613
        -1617613049 258018594 1718483839 1174404983</internalNodes>
      <leafValues>
        -3.2815009355545044e-01 1.4480713009834290e-01</leafValues></_>
    <_>
      <internalNodes>
        0 -1 5377 894540869 662552234 -1485603079 -135267905 1325354737
        -1347586139 -1195948007 -1353885626</internalNodes>
      <leafValues>
        -1.3411828875541687e-01 3.3525308966636658e-01</leafValues></_>
    <_>
      <internalNodes>
        0 -1 4318 -666893259 481958709 -1546456713 -1088277613
        -392278828 -71995027 -364360066 -1621066214</internalNodes>
      <leafValues>
        -2.8465870022773743e-01 1.7362499237060547e-01</leafValues></_>
    <_>
      <internalNodes>
        0 -1 502 -962925022 1691586080 -1368702705 580657858 1598111856
        2125086788 2060411445 1681086039</internalNodes>
      <leafValues>
        -3.8996636867523193e-01 1.1983411014080048e-01</leafValues></_>
    <_>
      <internalNodes>
        0 -1 2758 2063353423 1131934779 -485273217 1647820734
        -2005383152 -33070283 -266946467 -260904406</internalNodes>
      <leafValues>
        -2.2831796109676361e-01 2.2578026354312897e-01</leafValues></_>
    <_>
      <internalNodes>
        0 -1 8449 -270563835 -2131894721 -497978784 653589470 1904142339
        1142061405 -961352880 -154665049</internalNodes>
      <leafValues>
        -2.5680762529373169e-01 2.0899698138237000e-01</leafValues></_>
    <_>
      <internalNodes>
        0 -1 2951 -1968640719 823343126 764994923 -137653287 -1967207492
        -1691361829 186978440 -1930443684</internalNodes>
      <leafValues>
        -2.3020434379577637e-01 2.3212595283985138e-01</leafValues></_>
    <_>
      <internalNodes>
        0 -1 4640 1970046698 -1752901836 -1070918654 -1213869164
        369664147 -1172686649 -367798006 482196350</internalNodes>
      <leafValues>
        -2.7169355750083923e-01 1.9225040078163147e-01</leafValues></_>
    <_>
      <internalNodes>
        0 -1 8030 1840220160 -187252035 -530977486 -1714627889
        -535082414 -1704925315 -627179494 1078590991</internalNodes>
      <leafValues>
        -2.4792511761188507e-01 2.1766322851181030e-01</leafValues></_>
    <_>
      <internalNodes>
        0 -1 4663 -725225280 -1119834749 815735051 -1217965528 944074953
        533891246 -91812472 1940365957</internalNodes>
      <leafValues>
        -2.7371555566787720e-01 1.8993587791919708e-01</leafValues></_>
    <_>
      <internalNodes>
        0 -1 6069 519865297 941122136 1746180316 729856368 215490000
        232330040 686078168 -1387378758</internalNodes>
      <leafValues>
        -2.3361803591251373e-01 2.3832468688488007e-01</leafValues></_>
    <_>
      <internalNodes>
        0 -1 2704 1338081952 343442031 -839622716 2022316334 1959735743
        -61560364 -1013980216 2073559680</internalNodes>
      <leafValues>
        -3.4471923112869263e-01 1.4959535002708435e-01</leafValues></_>
    <_>
      <internalNodes>
        0 -1 6312 -1673168794 -632117248 -970338093 904953547 1263492482
        1405161575 1551985087 2070895422</internalNodes>
      <leafValues>
        -2.2602421045303345e-01 2.3392900824546814e-01</leafValues></_>
    <_>
      <internalNodes>
        0 -1 2010 -324047293 1577998066 -596972549 167925975 1245977696
        -27505354 -219575497 -883789806</internalNodes>
      <leafValues>
        -2.9730409383773804e-01 1.7457523941993713e-01</leafValues></_>
    <_>
      <internalNodes>
        0 -1 5952 -942674013 1551665733 -1780260989 -752746938
        -1236802687 578737506 -35787808 -386670706</internalNodes>
      <leafValues>
        -1.5312542021274567e-01 3.2772225141525269e-01</leafValues></_>
    <_>
      <internalNodes>
        0 -1 7231 714474580 -1841688798 -39910937 218538998 2065959056
        -82771533 -1089985873 -294718870</internalNodes>
      <leafValues>
        -2.6156246662139893e-01 2.0285022258758545e-01</leafValues></_>
    <_>
      <internalNodes>
        0 -1 104 -838799437 -502166266 -1836740977 1959011091
        -1978163482 37587453 -358392910 1156982803</internalNodes>
      <leafValues>
        -2.9259181022644043e-01 1.8235582113265991e-01</leafValues></_>
    <_>
      <internalNodes>
        0 -1 403 -291046014 437930992 -268030473 1029121649 41967645
        -1176157377 -634036389 -313705298</internalNodes>
      <leafValues>
        -2.2169782221317291e-01 2.5145670771598816e-01</leafValues></_>
    <_>
      <internalNodes>
        0 -1 6527 -845705455 1574675766 5446707 -1877136536 1857340556
        -1600109874 -867303441 1155866167</internalNodes>
      <leafValues>
        -2.6166161894798279e-01 2.0881073176860809e-01</leafValues></_>
    <_>
      <internalNodes>
        0 -1 1534 -19708325 -622763 -826977043 -274260609 -541771226
        -405379723 -298647558 -109413665</internalNodes>
      <leafValues>
        -1.5303088724613190e-01 3.3532208204269409e-01</leafValues></_>
    <_>
      <internalNodes>
        0 -1 8186 742045751 -1423834934 -441560197 -1343625360 689042423
        -1413097955 1420747637 -991177479</internalNodes>
      <leafValues>
        -2.4779079854488373e-01 2.1946533024311066e-01</leafValues></_>
    <_>
      <internalNodes>
        0 -1 6347 -40753514 322438576 89398189 620847112 -269050472
        1852366165 1181051387 730577835</internalNodes>
      <leafValues>
        -2.7232661843299866e-01 2.1115815639495850e-01</leafValues></_>
    <_>
      <internalNodes>
        0 -1 64 45018255 -386224149 -85674091 -823283858 1416031037
        1206873619 1567997887 -162409289</internalNodes>
      <leafValues>
        -2.3514620959758759e-01 2.4339418113231659e-01</leafValues></_>
    <_>
      <internalNodes>
        0 -1 505 1313587910 1416030885 -438145135 118669540 1174864612
        855819120 580674558 1197830739</internalNodes>
      <leafValues>
        -3.0396789312362671e-01 1.8699358403682709e-01</leafValues></_>
    <_>
      <internalNodes>
        0 -1 2367 838053779 1834512869 -277617877 1428516898 -990533021
        699715059 510994011 1339355710</internalNodes>
      <leafValues>
        -2.2610603272914886e-01 2.5100520253181458e-01</leafValues></_></weakClassifiers></stage7>
</opencv_storage>
