<?xml version="1.0"?>
<opencv_storage>
<stage5>
  <maxWeakCount>44</maxWeakCount>
  <stageThreshold>-1.0873405933380127e+00</stageThreshold>
  <weakClassifiers>
    <_>
      <internalNodes>
        0 -1 7829 -1984958557 -1312803 -37795883 -67119106 -1343754753
        -1429483586 -806625829 -842019427</internalNodes>
      <leafValues>
        -2.2021225094795227e-01 3.3425542712211609e-01</leafValues></_>
    <_>
      <internalNodes>
        0 -1 72 -16792882 -8442618 -289735169 -76296969 -1314825 -61418
        -3147777 -79462553</internalNodes>
      <leafValues>
        -1.8516997992992401e-01 3.2495063543319702e-01</leafValues></_>
    <_>
      <internalNodes>
        0 -1 1430 1347889542 863555391 1006501886 -40442802 1170732538
        2069499022 -120672612 1974258396</internalNodes>
      <leafValues>
        -3.0663463473320007e-01 1.6721928119659424e-01</leafValues></_>
    <_>
      <internalNodes>
        0 -1 6804 -1408713771 -1648696900 1073712049 -1078379072
        714869680 -1632764420 -1930818148 -1413805064</internalNodes>
      <leafValues>
        -2.0768928527832031e-01 2.1740192174911499e-01</leafValues></_>
    <_>
      <internalNodes>
        0 -1 8429 -318779904 176594921 -2067241216 549386122 2128025088
        27995237 -176212464 1425536842</internalNodes>
      <leafValues>
        -4.0344694256782532e-01 9.1933503746986389e-02</leafValues></_>
    <_>
      <internalNodes>
        0 -1 3942 2131747856 254481927 -63587905 -1347070555 1788602076
        -1187125776 -1595618053 136832123</internalNodes>
      <leafValues>
        -2.3711562156677246e-01 1.8492095172405243e-01</leafValues></_>
    <_>
      <internalNodes>
        0 -1 2922 -622665296 455128112 -34032745 -135926864 145358992
        -1662507341 -998156146 -40919797</internalNodes>
      <leafValues>
        -1.8075060844421387e-01 2.3650836944580078e-01</leafValues></_>
    <_>
      <internalNodes>
        0 -1 242 -432886093 -282810810 -335075653 671197867 -565790923
        1812284529 -2136718157 1096115799</internalNodes>
      <leafValues>
        -2.5603246688842773e-01 1.5790663659572601e-01</leafValues></_>
    <_>
      <internalNodes>
        0 -1 3760 -663344554 473042288 -659374346 456167548 1004411908
        -125928610 -89751944 -1151304334</internalNodes>
      <leafValues>
        -2.6068928837776184e-01 1.5423892438411713e-01</leafValues></_>
    <_>
      <internalNodes>
        0 -1 273 -422673881 -855644166 520098625 -461930893 -846492113
        -1909643930 1181604661 1147105543</internalNodes>
      <leafValues>
        -2.6710024476051331e-01 1.5219303965568542e-01</leafValues></_>
    <_>
      <internalNodes>
        0 -1 3040 10521378 903926448 268371837 -33702472 61772201
        -1355010243 567937165 -1683251176</internalNodes>
      <leafValues>
        -1.8285441398620605e-01 2.1593382954597473e-01</leafValues></_>
    <_>
      <internalNodes>
        0 -1 7750 -905838588 409337871 -1439029379 824864731 1874069140
        -580211755 -277866786 -1365315238</internalNodes>
      <leafValues>
        -2.2695440053939819e-01 1.7120882868766785e-01</leafValues></_>
    <_>
      <internalNodes>
        0 -1 7205 -623386721 2078109394 742079495 2043363859 -1998074231
        -1232421710 -863154021 1189078619</internalNodes>
      <leafValues>
        -1.4002399146556854e-01 2.7270349860191345e-01</leafValues></_>
    <_>
      <internalNodes>
        0 -1 4121 -1052326240 268736240 2036511224 1060889304
        -1006245719 -882993197 1486406795 354154958</internalNodes>
      <leafValues>
        -2.3529578745365143e-01 1.6871590912342072e-01</leafValues></_>
    <_>
      <internalNodes>
        0 -1 2200 1286007346 1993926453 162813755 775069490 460726902
        -5805351 -571934471 -287878366</internalNodes>
      <leafValues>
        -2.2276373207569122e-01 1.7835126817226410e-01</leafValues></_>
    <_>
      <internalNodes>
        0 -1 6800 -1140073420 412132668 -275612676 999062580 248795124
        1016415645 -1382019604 -68013936</internalNodes>
      <leafValues>
        -2.3013545572757721e-01 1.8244211375713348e-01</leafValues></_>
    <_>
      <internalNodes>
        0 -1 7442 -686826240 -85524693 869200902 -1219231849 1317875840
        144629945 1252506130 1088142659</internalNodes>
      <leafValues>
        -2.4590671062469482e-01 1.5293191373348236e-01</leafValues></_>
    <_>
      <internalNodes>
        0 -1 8118 -1963261936 1609240430 -1306666499 832223803
        -1343472424 -9144876 -1150571592 -362935750</internalNodes>
      <leafValues>
        -1.8142433464527130e-01 2.1852481365203857e-01</leafValues></_>
    <_>
      <internalNodes>
        0 -1 616 -497029585 1789305254 -463836736 -122231222 1438220116
        -553817485 1927754304 -428213417</internalNodes>
      <leafValues>
        -2.3669289052486420e-01 1.6568948328495026e-01</leafValues></_>
    <_>
      <internalNodes>
        0 -1 7973 1675596675 61013652 1873172592 1065330901 669198259
        175104721 -1715151549 1313078806</internalNodes>
      <leafValues>
        -1.9730748236179352e-01 1.9545994699001312e-01</leafValues></_>
    <_>
      <internalNodes>
        0 -1 2 -521952513 -1662783809 -83910709 -107293725 -899308227
        -276967873 -274335766 -16562833</internalNodes>
      <leafValues>
        -1.2348148971796036e-01 3.1053543090820312e-01</leafValues></_>
    <_>
      <internalNodes>
        0 -1 7819 1878769411 175957924 -11441647 -1243252432 182074754
        704537710 1299469076 -841029461</internalNodes>
      <leafValues>
        -2.2826920449733734e-01 1.7109106481075287e-01</leafValues></_>
    <_>
      <internalNodes>
        0 -1 5177 2137515146 -1693382542 617887409 834510580 -1269193026
        169484800 -33260677 225816058</internalNodes>
      <leafValues>
        -2.0838451385498047e-01 1.9427947700023651e-01</leafValues></_>
    <_>
      <internalNodes>
        0 -1 4416 1093469568 -1088019695 -939605699 91012098 1003567311
        -422842741 -340582743 547356704</internalNodes>
      <leafValues>
        -3.7131854891777039e-01 1.0042738169431686e-01</leafValues></_>
    <_>
      <internalNodes>
        0 -1 2247 1512372135 946106275 2142617279 -1212100255 535497199
        607102685 1323256669 -913349013</internalNodes>
      <leafValues>
        -1.5913625061511993e-01 2.5125440955162048e-01</leafValues></_>
    <_>
      <internalNodes>
        0 -1 5699 -187163279 2039913082 -47547187 529936887 -1194190340
        -41940979 -1998558500 -274584502</internalNodes>
      <leafValues>
        -1.9677153229713440e-01 2.0871271193027496e-01</leafValues></_>
    <_>
      <internalNodes>
        0 -1 435 -1155559725 1456416208 714567383 238496347 442949648
        -1395823014 794251110 -999166117</internalNodes>
      <leafValues>
        -1.9238014519214630e-01 2.0835940539836884e-01</leafValues></_>
    <_>
      <internalNodes>
        0 -1 288 -64491853 -1926434008 1668943843 28216896 1393885077
        -539479683 476455116 -178957306</internalNodes>
      <leafValues>
        -1.9224895536899567e-01 2.1742556989192963e-01</leafValues></_>
    <_>
      <internalNodes>
        0 -1 5529 -480254454 42502448 -811406558 -1032537360 -1480338556
        1208238645 -144124024 -169364600</internalNodes>
      <leafValues>
        -2.1112579107284546e-01 1.9812734425067902e-01</leafValues></_>
    <_>
      <internalNodes>
        0 -1 1452 240259743 -1566026909 -33430533 221375131 -765174196
        -26029273 -1715504434 1279544341</internalNodes>
      <leafValues>
        -2.4899099767208099e-01 1.7092096805572510e-01</leafValues></_>
    <_>
      <internalNodes>
        0 -1 5993 1212662990 1368539219 -645820741 -174972333 49553294
        -1390066311 -361699158 1403481934</internalNodes>
      <leafValues>
        -2.1975918114185333e-01 1.8785770237445831e-01</leafValues></_>
    <_>
      <internalNodes>
        0 -1 2634 -161806595 1061449279 622123741 790686262 -146120748
        -1108055248 -231589152 -56591338</internalNodes>
      <leafValues>
        -2.1694123744964600e-01 1.9300480186939240e-01</leafValues></_>
    <_>
      <internalNodes>
        0 -1 6300 -362304849 860077765 241098276 -637606138 -998775371
        1885661175 -1479178358 -457773082</internalNodes>
      <leafValues>
        -1.7049452662467957e-01 2.4547848105430603e-01</leafValues></_>
    <_>
      <internalNodes>
        0 -1 6640 -532561690 579900050 -432660561 1233267030 185879172
        -1530756675 -1318800994 -475016542</internalNodes>
      <leafValues>
        -2.0664769411087036e-01 2.0615909993648529e-01</leafValues></_>
    <_>
      <internalNodes>
        0 -1 8373 567747841 1103614019 -136501743 1286852020 1834674628
        1322082957 -1990215767 15022135</internalNodes>
      <leafValues>
        -2.6476153731346130e-01 1.5542429685592651e-01</leafValues></_>
    <_>
      <internalNodes>
        0 -1 7768 -829452527 -1636293033 -1401542209 1034902282
        -329865288 712047773 -24294469 -270285077</internalNodes>
      <leafValues>
        -1.3746958971023560e-01 3.0355787277221680e-01</leafValues></_>
    <_>
      <internalNodes>
        0 -1 7287 -731776040 420507321 -1401072065 -141499337
        -2147003495 490622933 -1458778455 265797835</internalNodes>
      <leafValues>
        -1.7775821685791016e-01 2.2821094095706940e-01</leafValues></_>
    <_>
      <internalNodes>
        0 -1 8461 -1345383839 -2009336876 -1433993260 -288356516
        1814221840 -843061401 1336421489 -938115591</internalNodes>
      <leafValues>
        -2.7334415912628174e-01 1.4924947917461395e-01</leafValues></_>
    <_>
      <internalNodes>
        0 -1 3502 129413169 -1915616619 921765077 -1820459423
        -1957752432 1778017547 433525713 -595331907</internalNodes>
      <leafValues>
        -1.9992963969707489e-01 2.0547258853912354e-01</leafValues></_>
    <_>
      <internalNodes>
        0 -1 722 1707077190 1614783337 1447188110 -2135901958 1782208065
        741296674 -953156858 -529282538</internalNodes>
      <leafValues>
        -3.6348289251327515e-01 1.0917448997497559e-01</leafValues></_>
    <_>
      <internalNodes>
        0 -1 7370 572441936 1570566944 -20563107 -1108078038 -290227288
        -877909119 -2005081613 1210970360</internalNodes>
      <leafValues>
        -2.6669499278068542e-01 1.5092678368091583e-01</leafValues></_>
    <_>
      <internalNodes>
        0 -1 5618 -798759774 1533192194 -2030649678 165507380 282514824
        1069853296 -1797020635 661874187</internalNodes>
      <leafValues>
        -2.4581453204154968e-01 1.6413214802742004e-01</leafValues></_>
    <_>
      <internalNodes>
        0 -1 8004 -1517423711 1337578096 1765248111 -928810535 698300275
        1877450544 -608373209 -847785711</internalNodes>
      <leafValues>
        -2.0234058797359467e-01 2.0468722283840179e-01</leafValues></_>
    <_>
      <internalNodes>
        0 -1 6704 -11558778 -1763096001 1120632450 -240458848 -462559172
        -555186123 -824604836 -576657438</internalNodes>
      <leafValues>
        -1.7559248208999634e-01 2.3250521719455719e-01</leafValues></_></weakClassifiers></stage5>
</opencv_storage>
