<?xml version="1.0"?>
<opencv_storage>
<stage18>
  <maxWeakCount>63</maxWeakCount>
  <stageThreshold>-9.2978858947753906e-01</stageThreshold>
  <weakClassifiers>
    <_>
      <internalNodes>
        0 -1 2178 -17349515 -539089357 -2009705729 -243302401 -277174476
        -41680 -351211784 -13893761</internalNodes>
      <leafValues>
        -1.5958403050899506e-01 2.0757727324962616e-01</leafValues></_>
    <_>
      <internalNodes>
        0 -1 7829 -1985225303 -396079 -705206315 -10761744 -857461057
        -489959949 -817636097 -652225516</internalNodes>
      <leafValues>
        -1.4946147799491882e-01 1.9818685948848724e-01</leafValues></_>
    <_>
      <internalNodes>
        0 -1 120 -285955413 -1564100701 1289660858 -1565204849 348628571
        1998950147 -169872409 1735517119</internalNodes>
      <leafValues>
        -2.0118013024330139e-01 1.4076341688632965e-01</leafValues></_>
    <_>
      <internalNodes>
        0 -1 2301 1548205838 1996345693 1956643120 -791625173 2077897151
        190122341 -1269023832 1653575786</internalNodes>
      <leafValues>
        -2.2408966720104218e-01 1.1952972412109375e-01</leafValues></_>
    <_>
      <internalNodes>
        0 -1 1678 374413328 -649510912 745251270 372512272 702548656
        -607858176 585499903 242617425</internalNodes>
      <leafValues>
        -2.9798385500907898e-01 1.0733730345964432e-01</leafValues></_>
    <_>
      <internalNodes>
        0 -1 754 347294854 -1084115491 1834345183 1022836727 1354429948
        1002183301 1488954106 -1577006742</internalNodes>
      <leafValues>
        -2.3274500668048859e-01 9.4919674098491669e-02</leafValues></_>
    <_>
      <internalNodes>
        0 -1 8420 -554457973 48561826 1056290340 -1707160530 -319525365
        -1937973897 1012209456 2034496547</internalNodes>
      <leafValues>
        -1.3921487331390381e-01 1.7917731404304504e-01</leafValues></_>
    <_>
      <internalNodes>
        0 -1 4234 -8748924 1390812950 -1115799819 1610506124 -833739082
        -107734830 -1394454614 -8435698</internalNodes>
      <leafValues>
        -1.4415143430233002e-01 1.7481143772602081e-01</leafValues></_>
    <_>
      <internalNodes>
        0 -1 2353 149824784 -1511470384 1687190517 -538072330 -647039596
        -275039292 -1998256659 -840973136</internalNodes>
      <leafValues>
        -1.6873463988304138e-01 1.4556522667407990e-01</leafValues></_>
    <_>
      <internalNodes>
        0 -1 6725 2030102746 1599252023 1850445081 -35170638 1157635530
        -249402463 -1800847041 1637860298</internalNodes>
      <leafValues>
        -1.4237551391124725e-01 1.7610992491245270e-01</leafValues></_>
    <_>
      <internalNodes>
        0 -1 8006 -1397989920 -1114478512 356569876 280379988
        -2105267436 2140154553 -1613876304 790848</internalNodes>
      <leafValues>
        -4.0713900327682495e-01 4.5544490218162537e-02</leafValues></_>
    <_>
      <internalNodes>
        0 -1 3352 -564477761 -78678729 -2106283012 687577471 -620978096
        -631767981 -790169890 -10226353</internalNodes>
      <leafValues>
        -1.1106345802545547e-01 2.2933910787105560e-01</leafValues></_>
    <_>
      <internalNodes>
        0 -1 5984 -807804286 146737719 -1078164882 -1107307694
        1680229025 1209855267 -383033397 -487610522</internalNodes>
      <leafValues>
        -1.1216747760772705e-01 2.0822973549365997e-01</leafValues></_>
    <_>
      <internalNodes>
        0 -1 7730 1213604924 1379009053 -707448833 304252837 721436016
        -356366929 -194884785 -74777057</internalNodes>
      <leafValues>
        -1.9507773220539093e-01 1.2416113913059235e-01</leafValues></_>
    <_>
      <internalNodes>
        0 -1 5807 1125772444 -1181304078 -1435472387 -1078531248
        -177209943 -1082333705 1538667821 -1342987524</internalNodes>
      <leafValues>
        -1.2751400470733643e-01 1.9820261001586914e-01</leafValues></_>
    <_>
      <internalNodes>
        0 -1 383 -739315889 -1096372510 -538249517 -1909235222
        1348964005 -552374318 -1528362041 -447355178</internalNodes>
      <leafValues>
        -1.5329511463642120e-01 1.7114843428134918e-01</leafValues></_>
    <_>
      <internalNodes>
        0 -1 3215 1484416014 242689744 784791572 -1168085576 1872367172
        -196198654 1412450385 -1152222358</internalNodes>
      <leafValues>
        -2.3906922340393066e-01 1.1006826162338257e-01</leafValues></_>
    <_>
      <internalNodes>
        0 -1 194 -1021050913 -1888768896 636890094 -38535489 2098719965
        -379310348 -1461350677 1019016911</internalNodes>
      <leafValues>
        -1.0710444301366806e-01 2.4715550243854523e-01</leafValues></_>
    <_>
      <internalNodes>
        0 -1 6069 -665282888 754948080 1275501500 763529944 1449684464
        -275921244 -322098344 -1408558997</internalNodes>
      <leafValues>
        -1.9643652439117432e-01 1.2443467229604721e-01</leafValues></_>
    <_>
      <internalNodes>
        0 -1 6429 -1911037402 314881886 -191877064 747299152 895746309
        1427519616 1795192992 4783859</internalNodes>
      <leafValues>
        -2.7130505442619324e-01 1.0311055928468704e-01</leafValues></_>
    <_>
      <internalNodes>
        0 -1 2758 1276527838 -860963821 1210087109 1162813292
        -1972485950 -1274363580 -801082812 2019224924</internalNodes>
      <leafValues>
        -2.0589962601661682e-01 1.1959493905305862e-01</leafValues></_>
    <_>
      <internalNodes>
        0 -1 5252 643832329 -1532262955 -1457494573 82671981 1212759347
        -271208393 -1701553849 1297876053</internalNodes>
      <leafValues>
        -2.3197907209396362e-01 1.0636888444423676e-01</leafValues></_>
    <_>
      <internalNodes>
        0 -1 2405 1174486479 -219465350 -174834898 2046181107 -795979531
        -1077205762 -163064289 -816246709</internalNodes>
      <leafValues>
        -1.1755952239036560e-01 2.1361304819583893e-01</leafValues></_>
    <_>
      <internalNodes>
        0 -1 6314 -1140713430 -6091226 425549960 189620533 1336218680
        1746263856 774175682 226015346</internalNodes>
      <leafValues>
        -2.4491807818412781e-01 1.0463851690292358e-01</leafValues></_>
    <_>
      <internalNodes>
        0 -1 1870 -1403884026 -695828350 -395782786 866292796 170141220
        -1821758436 1029206081 1543574806</internalNodes>
      <leafValues>
        -2.6422592997550964e-01 9.7871161997318268e-02</leafValues></_>
    <_>
      <internalNodes>
        0 -1 2423 -1465506288 -1237318900 -1858388621 -1918363504
        175036877 -342475888 -1027304052 -1948399040</internalNodes>
      <leafValues>
        -1.7847745120525360e-01 1.5761667490005493e-01</leafValues></_>
    <_>
      <internalNodes>
        0 -1 5095 -532372984 573610295 -1548860059 1233986731 138294276
        303841834 1909059592 4547091</internalNodes>
      <leafValues>
        -2.5190657377243042e-01 1.0262993723154068e-01</leafValues></_>
    <_>
      <internalNodes>
        0 -1 1565 1585501760 765160924 -1174251254 -197869648 116603168
        -125210793 215264212 1161957931</internalNodes>
      <leafValues>
        -2.5394013524055481e-01 1.1062312871217728e-01</leafValues></_>
    <_>
      <internalNodes>
        0 -1 5595 1208009776 498091854 -1716625328 -1910316416
        -1061610178 1818798103 1256741404 676095496</internalNodes>
      <leafValues>
        -2.8509405255317688e-01 9.1191619634628296e-02</leafValues></_>
    <_>
      <internalNodes>
        0 -1 3507 782746643 722080802 -1075603440 798013023 528201011
        535795174 1473739289 -33563254</internalNodes>
      <leafValues>
        -1.5572983026504517e-01 1.7188744246959686e-01</leafValues></_>
    <_>
      <internalNodes>
        0 -1 5201 -823137438 830623626 -1332697176 -241034774 -922721622
        90288003 1717810010 1669849675</internalNodes>
      <leafValues>
        -1.9241108000278473e-01 1.3655194640159607e-01</leafValues></_>
    <_>
      <internalNodes>
        0 -1 8106 1251706769 -2001675032 1386406769 67424465 221946931
        -997010518 1271136777 26590081</internalNodes>
      <leafValues>
        -2.2507521510124207e-01 1.1880677938461304e-01</leafValues></_>
    <_>
      <internalNodes>
        0 -1 7056 1606409499 1498158780 -2056919627 739228256 -362009486
        -2081538328 -305142050 -590420586</internalNodes>
      <leafValues>
        -1.1211083829402924e-01 2.3301175236701965e-01</leafValues></_>
    <_>
      <internalNodes>
        0 -1 7666 1636000257 -374972216 -499121864 -1033342026
        1074021687 -1886878532 277828963 1230435808</internalNodes>
      <leafValues>
        -2.4381010234355927e-01 1.0386630892753601e-01</leafValues></_>
    <_>
      <internalNodes>
        0 -1 939 -664139668 -567933595 1286531371 1759535278 2060811840
        1738698826 -270050898 -719171085</internalNodes>
      <leafValues>
        -1.9966375827789307e-01 1.3991683721542358e-01</leafValues></_>
    <_>
      <internalNodes>
        0 -1 6994 -498105429 -201657748 -874190587 -1583956034
        1229848537 1011413475 -58996006 -710805681</internalNodes>
      <leafValues>
        -1.3068610429763794e-01 2.1921586990356445e-01</leafValues></_>
    <_>
      <internalNodes>
        0 -1 8440 127863554 437687412 -1786654655 -1526457572 1800223232
        1749122697 -2138962860 9745124</internalNodes>
      <leafValues>
        -3.0638530850410461e-01 9.4301097095012665e-02</leafValues></_>
    <_>
      <internalNodes>
        0 -1 1065 -964000542 -748528374 -997891808 1977652304
        -1563700876 2118698663 -101522010 -458001214</internalNodes>
      <leafValues>
        -1.7181153595447540e-01 1.6297768056392670e-01</leafValues></_>
    <_>
      <internalNodes>
        0 -1 3081 1116014696 -1244891291 -137363456 233798169 17422640
        725215782 992213512 1239494884</internalNodes>
      <leafValues>
        -2.4139326810836792e-01 1.1214968562126160e-01</leafValues></_>
    <_>
      <internalNodes>
        0 -1 3202 1920397911 1493707026 -1699578242 908105207 -968409067
        -210573393 -271440676 -1957275030</internalNodes>
      <leafValues>
        -1.7573763430118561e-01 1.5212839841842651e-01</leafValues></_>
    <_>
      <internalNodes>
        0 -1 7594 -89265696 -785405340 -1204824623 1539792171 -366660170
        1792106105 1008817834 -885039416</internalNodes>
      <leafValues>
        -1.1879973113536835e-01 2.2284866869449615e-01</leafValues></_>
    <_>
      <internalNodes>
        0 -1 4564 1398256307 2033581868 2124578645 -857181806
        -1108007949 -1911474281 723922241 -354130958</internalNodes>
      <leafValues>
        -1.5994155406951904e-01 1.7807759344577789e-01</leafValues></_>
    <_>
      <internalNodes>
        0 -1 2254 -1038297472 880626439 1820092017 -1379094237
        1312903354 150239469 -343659846 -573208007</internalNodes>
      <leafValues>
        -1.5836019814014435e-01 1.8304406106472015e-01</leafValues></_>
    <_>
      <internalNodes>
        0 -1 3930 -1421105101 133885820 1420242903 -723248270 -299797359
        949731917 -525991752 105657078</internalNodes>
      <leafValues>
        -2.3606812953948975e-01 1.1709920316934586e-01</leafValues></_>
    <_>
      <internalNodes>
        0 -1 3744 -1982863666 176202224 -1192002950 -77453504 1313161468
        -115866094 150669594 -17084129</internalNodes>
      <leafValues>
        -1.5459136664867401e-01 1.8241769075393677e-01</leafValues></_>
    <_>
      <internalNodes>
        0 -1 3622 -548631814 2132860544 -1590184831 -195407146
        1324672912 -1932388768 -1996110808 1388201059</internalNodes>
      <leafValues>
        -2.0344944298267365e-01 1.3967107236385345e-01</leafValues></_>
    <_>
      <internalNodes>
        0 -1 8280 134226224 -645489839 1155704081 1256046924 1685328916
        -1409183599 651962692 273</internalNodes>
      <leafValues>
        -3.5594511032104492e-01 8.1100724637508392e-02</leafValues></_>
    <_>
      <internalNodes>
        0 -1 6861 949863728 -1138694010 1738784735 -1247339099
        1019844702 1275644449 1705530869 162268730</internalNodes>
      <leafValues>
        -2.1356131136417389e-01 1.3245546817779541e-01</leafValues></_>
    <_>
      <internalNodes>
        0 -1 8203 -1684016221 -447939982 1609924467 -357769535
        -2023852653 -1964056596 933199839 -826634755</internalNodes>
      <leafValues>
        -1.4439690113067627e-01 2.0244066417217255e-01</leafValues></_>
    <_>
      <internalNodes>
        0 -1 6300 -4226429 -1843546264 173834278 -1430219 -445158504
        1616188898 326871962 1953291642</internalNodes>
      <leafValues>
        -1.6610208153724670e-01 1.7283357679843903e-01</leafValues></_>
    <_>
      <internalNodes>
        0 -1 4542 1238773167 -1622820527 1171760944 1686184707
        1051736415 -1273023650 -1052250670 1244630816</internalNodes>
      <leafValues>
        -1.9003811478614807e-01 1.5578961372375488e-01</leafValues></_>
    <_>
      <internalNodes>
        0 -1 7953 -1033711600 582129652 -301312003 -735585608
        -1465367131 -393689117 -2031453698 -1118086490</internalNodes>
      <leafValues>
        -1.7299488186836243e-01 1.6669860482215881e-01</leafValues></_>
    <_>
      <internalNodes>
        0 -1 90 2228866 1093296816 1091871584 -2116691200 -1496244699
        766692769 1476463817 603980352</internalNodes>
      <leafValues>
        -3.9839243888854980e-01 8.0180607736110687e-02</leafValues></_>
    <_>
      <internalNodes>
        0 -1 2808 -234139394 1929582518 -1090901036 161135089 -165159806
        -13154751 913768174 1470041978</internalNodes>
      <leafValues>
        -1.5369987487792969e-01 1.9117179512977600e-01</leafValues></_>
    <_>
      <internalNodes>
        0 -1 730 -493451762 682269548 886897918 -1474935660 -1307898795
        438457383 1353109589 -176768138</internalNodes>
      <leafValues>
        -3.1564033031463623e-01 9.4719201326370239e-02</leafValues></_>
    <_>
      <internalNodes>
        0 -1 6390 866372232 136300227 -1550758549 104445219 -693266604
        697080822 -1558829040 1089575092</internalNodes>
      <leafValues>
        -2.8525537252426147e-01 1.0309899598360062e-01</leafValues></_>
    <_>
      <internalNodes>
        0 -1 5380 -854813972 -1976942061 -279083653 -64341072 1618177880
        1671315150 1282721599 -246583345</internalNodes>
      <leafValues>
        -1.5477482974529266e-01 1.9376605749130249e-01</leafValues></_>
    <_>
      <internalNodes>
        0 -1 6358 2050425562 1368850260 -759511622 -1373337693
        1451524813 1719033976 -1966024285 -1098646325</internalNodes>
      <leafValues>
        -1.5593637526035309e-01 1.8823388218879700e-01</leafValues></_>
    <_>
      <internalNodes>
        0 -1 6392 -75783778 2096276743 1706949337 -1314210413 1287621588
        -595715515 -707110844 -283154774</internalNodes>
      <leafValues>
        -1.2935134768486023e-01 2.2133187949657440e-01</leafValues></_>
    <_>
      <internalNodes>
        0 -1 6704 -146808277 -1705295045 -1488403254 -403180046
        -1394623571 1380229749 1825162748 -49547646</internalNodes>
      <leafValues>
        -1.1708180606365204e-01 2.4544785916805267e-01</leafValues></_>
    <_>
      <internalNodes>
        0 -1 6740 192621588 1017245370 1346490024 -1901582416 -985150577
        -5693304 1099757898 475920855</internalNodes>
      <leafValues>
        -2.1214644610881805e-01 1.4133572578430176e-01</leafValues></_>
    <_>
      <internalNodes>
        0 -1 4338 344981504 819086521 -31330215 379225837 1726883885
        -866424370 1354765719 674244608</internalNodes>
      <leafValues>
        -5.0160771608352661e-01 5.8616347610950470e-02</leafValues></_>
    <_>
      <internalNodes>
        0 -1 5169 -1022737684 961741458 1299392022 -1311352641 994485406
        1141529536 -168894247 -1874447037</internalNodes>
      <leafValues>
        -1.7678970098495483e-01 1.6942116618156433e-01</leafValues></_></weakClassifiers></stage18>
</opencv_storage>
