<?xml version="1.0"?>
<opencv_storage>
<stage10>
  <maxWeakCount>47</maxWeakCount>
  <stageThreshold>-1.0474194288253784e+00</stageThreshold>
  <weakClassifiers>
    <_>
      <internalNodes>
        0 -1 9 -25433881 -547361009 -19005441 -8683649 -35717153 -37625
        -134292481 -12354241</internalNodes>
      <leafValues>
        -2.0148167014122009e-01 2.8769019246101379e-01</leafValues></_>
    <_>
      <internalNodes>
        0 -1 786 1469689614 928184301 -441085970 2009264430 1372394490
        1843829687 365951950 669309592</internalNodes>
      <leafValues>
        -3.1591746211051941e-01 1.3702906668186188e-01</leafValues></_>
    <_>
      <internalNodes>
        0 -1 8034 -1880687391 -1912801804 2020946935 -575145652
        662674675 -1369244425 90036079 -908075528</internalNodes>
      <leafValues>
        -1.8087852001190186e-01 2.1454025804996490e-01</leafValues></_>
    <_>
      <internalNodes>
        0 -1 2800 -44939057 -587236509 1490546397 863764447 -92880832
        -160172219 -109130066 -78446981</internalNodes>
      <leafValues>
        -1.4876124262809753e-01 2.3110005259513855e-01</leafValues></_>
    <_>
      <internalNodes>
        0 -1 104 -1940878813 1517837611 -693985738 1959034643
        -1900082261 -323186689 -622125566 1156975731</internalNodes>
      <leafValues>
        -2.8544157743453979e-01 1.0482672601938248e-01</leafValues></_>
    <_>
      <internalNodes>
        0 -1 3474 -661916872 -1853032544 1069389753 -1584342613
        -1932132027 -1891694795 1842957770 -872957620</internalNodes>
      <leafValues>
        -1.6198150813579559e-01 2.1292035281658173e-01</leafValues></_>
    <_>
      <internalNodes>
        0 -1 5993 1506182870 1964270032 -436401485 -136647069 1196170892
        1397071043 147139790 1943406342</internalNodes>
      <leafValues>
        -1.6744245588779449e-01 2.0515437424182892e-01</leafValues></_>
    <_>
      <internalNodes>
        0 -1 8448 -1394655967 76872675 34273008 262468518 1032454929
        202107371 -363392928 -840645698</internalNodes>
      <leafValues>
        -2.7175012230873108e-01 1.0648605227470398e-01</leafValues></_>
    <_>
      <internalNodes>
        0 -1 5239 383917181 1035222109 1960446264 462559684 -1715988228
        -68005877 -1246206792 -1440592835</internalNodes>
      <leafValues>
        -2.2892722487449646e-01 1.5451504290103912e-01</leafValues></_>
    <_>
      <internalNodes>
        0 -1 456 -902909982 -2142397270 -110681006 -500324692 1624209506
        619098948 703260384 -168298969</internalNodes>
      <leafValues>
        -2.3469737172126770e-01 1.4395941793918610e-01</leafValues></_>
    <_>
      <internalNodes>
        0 -1 6999 -988756608 -1826672521 -1932335885 -1752514631
        1301628314 2078014957 -454663489 629630867</internalNodes>
      <leafValues>
        -1.9166038930416107e-01 1.8481418490409851e-01</leafValues></_>
    <_>
      <internalNodes>
        0 -1 2312 -1928680236 -1683673776 -1516638341 1073587952
        -1989559384 -395570701 157106232 -1933687656</internalNodes>
      <leafValues>
        -2.3494774103164673e-01 1.4258109033107758e-01</leafValues></_>
    <_>
      <internalNodes>
        0 -1 7627 1237489297 731002610 804705616 858684640 79002789
        -1980958977 634351856 -7646740</internalNodes>
      <leafValues>
        -1.8134038150310516e-01 1.9094766676425934e-01</leafValues></_>
    <_>
      <internalNodes>
        0 -1 5780 475300884 -1506676744 -13220355 -1819031258 1561814525
        -273974767 1304239604 721111216</internalNodes>
      <leafValues>
        -2.7918255329132080e-01 1.1879730224609375e-01</leafValues></_>
    <_>
      <internalNodes>
        0 -1 3215 2087901823 913998262 1515494448 982557944 2144797268
        -27368428 2054289503 -96174486</internalNodes>
      <leafValues>
        -2.2572226822376251e-01 1.4850965142250061e-01</leafValues></_>
    <_>
      <internalNodes>
        0 -1 198 1747083626 1602551122 116196110 292785871 37538773
        2125794407 -105709748 1181777778</internalNodes>
      <leafValues>
        -2.6031592488288879e-01 1.3666746020317078e-01</leafValues></_>
    <_>
      <internalNodes>
        0 -1 7446 -355491933 1562547787 -1103165152 -8705997 -1706105602
        -1936654932 1478400959 -864029739</internalNodes>
      <leafValues>
        -1.2744107842445374e-01 2.7557003498077393e-01</leafValues></_>
    <_>
      <internalNodes>
        0 -1 848 1475867377 738666286 -1972060417 35059934 1130950720
        -177518575 -712526899 1919662134</internalNodes>
      <leafValues>
        -2.0482563972473145e-01 1.6876229643821716e-01</leafValues></_>
    <_>
      <internalNodes>
        0 -1 2177 585574402 -1010030075 -431525293 -1060319764
        -1367994572 1064371974 540357685 41708605</internalNodes>
      <leafValues>
        -3.6355108022689819e-01 9.1420046985149384e-02</leafValues></_>
    <_>
      <internalNodes>
        0 -1 5173 -403705128 -1794061305 1690303024 928360565
        -1916763910 -621882219 492831194 2131302969</internalNodes>
      <leafValues>
        -1.8039038777351379e-01 1.9715946912765503e-01</leafValues></_>
    <_>
      <internalNodes>
        0 -1 1207 -240720645 -1182748926 -819202119 -269286784
        -228519199 1999315965 -194925381 728048985</internalNodes>
      <leafValues>
        -1.6701197624206543e-01 2.1274885535240173e-01</leafValues></_>
    <_>
      <internalNodes>
        0 -1 3394 -198189321 -1078694018 1050639611 955427833 -950389680
        -1651016367 -1804533859 -112091398</internalNodes>
      <leafValues>
        -1.4003276824951172e-01 2.5068894028663635e-01</leafValues></_>
    <_>
      <internalNodes>
        0 -1 3780 38928645 -1465618657 1041124999 782416916 -1977990887
        963196157 1395924737 13665552</internalNodes>
      <leafValues>
        -3.7807098031044006e-01 9.0609051287174225e-02</leafValues></_>
    <_>
      <internalNodes>
        0 -1 8093 -610288102 -695632837 907773600 1011867187 1508460888
        1258481407 838167040 1895012797</internalNodes>
      <leafValues>
        -2.2845065593719482e-01 1.5982012450695038e-01</leafValues></_>
    <_>
      <internalNodes>
        0 -1 2963 -267391034 397682272 -1467853385 1460976503
        -1006468430 470804359 2003790720 1874329234</internalNodes>
      <leafValues>
        -2.0924213528633118e-01 1.7399774491786957e-01</leafValues></_>
    <_>
      <internalNodes>
        0 -1 3239 9971010 392997374 1356823955 884851843 1849562975
        -19999619 -1347197456 204628000</internalNodes>
      <leafValues>
        -3.7728783488273621e-01 1.0298453271389008e-01</leafValues></_>
    <_>
      <internalNodes>
        0 -1 5669 -432347263 -172060033 1727814130 -235778186
        -1653754680 -277487756 1236994301 -1879584705</internalNodes>
      <leafValues>
        -1.3770537078380585e-01 2.6639512181282043e-01</leafValues></_>
    <_>
      <internalNodes>
        0 -1 5069 -1509978622 688425027 1525469393 808240364 -143154265
        -1039834133 -229285168 -2036531264</internalNodes>
      <leafValues>
        -2.2657875716686249e-01 1.6272012889385223e-01</leafValues></_>
    <_>
      <internalNodes>
        0 -1 4902 1174950896 -678554665 -120047207 1339054970
        -1681983060 1932894539 1875384737 264515368</internalNodes>
      <leafValues>
        -2.7553352713584900e-01 1.3674055039882660e-01</leafValues></_>
    <_>
      <internalNodes>
        0 -1 6227 1379058886 403712338 842464727 -1657383022 765470640
        -1462875684 1088300771 -811619253</internalNodes>
      <leafValues>
        -1.9366666674613953e-01 2.0163503289222717e-01</leafValues></_>
    <_>
      <internalNodes>
        0 -1 4294 -568938994 402945106 -661726280 -139264558 122619780
        -4974001 1336426160 -1418468578</internalNodes>
      <leafValues>
        -1.9788180291652679e-01 1.9089587032794952e-01</leafValues></_>
    <_>
      <internalNodes>
        0 -1 1989 1254835927 1060695665 -1360621317 347500204 -210024932
        -101225171 738000001 -77365642</internalNodes>
      <leafValues>
        -1.7799668014049530e-01 2.1210218966007233e-01</leafValues></_>
    <_>
      <internalNodes>
        0 -1 3664 -704591302 -132566360 -1399578811 -1081776150
        -260389650 -1372316598 -389157686 -1693719250</internalNodes>
      <leafValues>
        -1.5585258603096008e-01 2.5323212146759033e-01</leafValues></_>
    <_>
      <internalNodes>
        0 -1 6704 -48258005 -1627980357 -1318452096 -36254494
        -1110477266 1430686333 2128826068 -645404794</internalNodes>
      <leafValues>
        -1.4771850407123566e-01 2.5095921754837036e-01</leafValues></_>
    <_>
      <internalNodes>
        0 -1 7768 1110180608 -1154021680 1428503021 288063006 477414556
        1039982490 1590074014 -304357917</internalNodes>
      <leafValues>
        -1.8713776767253876e-01 2.0369458198547363e-01</leafValues></_>
    <_>
      <internalNodes>
        0 -1 7029 1035733272 202951888 630667857 81912896 438051872
        1220913454 -3687376 675050928</internalNodes>
      <leafValues>
        -3.8879579305648804e-01 9.8836764693260193e-02</leafValues></_>
    <_>
      <internalNodes>
        0 -1 7965 -134775280 279904958 1339632433 -2050559810 1955971253
        402709075 1276768386 216894687</internalNodes>
      <leafValues>
        -2.3485420644283295e-01 1.6223758459091187e-01</leafValues></_>
    <_>
      <internalNodes>
        0 -1 713 1257958446 539533608 -456773996 1113770222 -387637403
        1129332752 579147072 1648751985</internalNodes>
      <leafValues>
        -4.5619064569473267e-01 8.6292251944541931e-02</leafValues></_>
    <_>
      <internalNodes>
        0 -1 6395 -26482142 274897738 1932656818 382838275 1096691596
        880290842 -1544386164 -794305445</internalNodes>
      <leafValues>
        -2.3359036445617676e-01 1.6679967939853668e-01</leafValues></_>
    <_>
      <internalNodes>
        0 -1 3711 778600734 129195793 280069404 536446001 2111165460
        448308117 1456232817 682931830</internalNodes>
      <leafValues>
        -2.8631988167762756e-01 1.4042909443378448e-01</leafValues></_>
    <_>
      <internalNodes>
        0 -1 8371 -1981969149 -1471272388 -1084335500 -962018368
        -1767784783 -2034607431 -1040066287 210039892</internalNodes>
      <leafValues>
        -2.9067420959472656e-01 1.3403490185737610e-01</leafValues></_>
    <_>
      <internalNodes>
        0 -1 4084 655532065 -1769727104 -1337208400 -1514801166
        140201911 -100993431 -1819143360 -555498002</internalNodes>
      <leafValues>
        -2.1014031767845154e-01 1.8091714382171631e-01</leafValues></_>
    <_>
      <internalNodes>
        0 -1 7850 -39508704 -819212640 1035949913 -709647370 -5404745
        -932708361 1438345079 -552608326</internalNodes>
      <leafValues>
        -1.4347369968891144e-01 2.6596406102180481e-01</leafValues></_>
    <_>
      <internalNodes>
        0 -1 1994 -1033956709 1980956249 1778924220 -831604913 787831248
        -1763682411 -618619181 -110960901</internalNodes>
      <leafValues>
        -1.8220166862010956e-01 2.1036197245121002e-01</leafValues></_>
    <_>
      <internalNodes>
        0 -1 5594 -903349878 1160947303 1995313877 -1254760734 498974885
        1352526915 -2026466935 -86378578</internalNodes>
      <leafValues>
        -1.4776828885078430e-01 2.6190641522407532e-01</leafValues></_>
    <_>
      <internalNodes>
        0 -1 5869 -912293349 1843049555 1528027419 -1339125197 847755125
        -1546016071 -679876930 -532094948</internalNodes>
      <leafValues>
        -1.9363287091255188e-01 2.0633248984813690e-01</leafValues></_>
    <_>
      <internalNodes>
        0 -1 1692 1593363337 428297214 1927802793 1442162823 1338379606
        -170849038 200550392 -1990212229</internalNodes>
      <leafValues>
        -1.6506412625312805e-01 2.4045021831989288e-01</leafValues></_></weakClassifiers></stage10>
</opencv_storage>
