<?xml version="1.0"?>
<opencv_storage>
<stage16>
  <maxWeakCount>27</maxWeakCount>
  <stageThreshold>-1.0053156614303589e+00</stageThreshold>
  <weakClassifiers>
    <_>
      <internalNodes>
        0 -1 65 -487349565 -1216376945 -226293061 -1548566585 1633102631
        462928696 -208407702 1935750615</internalNodes>
      <leafValues>
        -5.1850789785385132e-01 -1.0883392393589020e-01</leafValues></_>
    <_>
      <internalNodes>
        0 -1 16 241649189 259991295 2021771231 1913542109 -224716726
        -31339781 -540036268 1343679226</internalNodes>
      <leafValues>
        -3.5406887531280518e-01 1.1656336486339569e-01</leafValues></_>
    <_>
      <internalNodes>
        0 -1 5826 429537168 -1799820001 493131711 -270825555 -84309073
        -369439749 -69370344 -1163866440</internalNodes>
      <leafValues>
        -2.2578401863574982e-01 2.0689786970615387e-01</leafValues></_>
    <_>
      <internalNodes>
        0 -1 4084 580333568 -1903384052 -132576924 2108538593 142028052
        -859821941 1704148992 -1007966596</internalNodes>
      <leafValues>
        -2.8668978810310364e-01 1.8840275704860687e-01</leafValues></_>
    <_>
      <internalNodes>
        0 -1 501 -51682078 -256974752 283806878 -1532722656 2002937605
        1984299393 -1035685761 1952957795</internalNodes>
      <leafValues>
        -3.2845011353492737e-01 1.4309579133987427e-01</leafValues></_>
    <_>
      <internalNodes>
        0 -1 7433 -149992671 -1073690872 1226507712 -1113891880
        1267628550 1250619935 1924561393 19426567</internalNodes>
      <leafValues>
        -3.2173734903335571e-01 1.4847660064697266e-01</leafValues></_>
    <_>
      <internalNodes>
        0 -1 3045 1747093024 1703553000 -241214823 1731840544 1778541293
        1497689199 -521582136 913574921</internalNodes>
      <leafValues>
        -3.5097077488899231e-01 1.4306405186653137e-01</leafValues></_>
    <_>
      <internalNodes>
        0 -1 6780 -102270046 -756349435 -1145151340 -1814843848 69037212
        1161281373 2092219132 -2119216566</internalNodes>
      <leafValues>
        -2.0289903879165649e-01 2.3698349297046661e-01</leafValues></_>
    <_>
      <internalNodes>
        0 -1 4556 519877157 -867661824 863603868 -1159868208 465568154
        -1311476831 640968310 540936906</internalNodes>
      <leafValues>
        -3.1717136502265930e-01 1.5674400329589844e-01</leafValues></_>
    <_>
      <internalNodes>
        0 -1 6979 -504387412 -607358359 -2130927152 1897440502
        -144243248 -545784289 1593698042 -673984894</internalNodes>
      <leafValues>
        -1.9902481138706207e-01 2.5176858901977539e-01</leafValues></_>
    <_>
      <internalNodes>
        0 -1 328 -359683442 -496080644 -333986587 -1494498592 1695930882
        1719810883 -1123566942 889578467</internalNodes>
      <leafValues>
        -3.0403602123260498e-01 1.7149490118026733e-01</leafValues></_>
    <_>
      <internalNodes>
        0 -1 1027 223356529 1646208350 1531057537 938043601 -469147664
        -1470080511 -1950336759 712008310</internalNodes>
      <leafValues>
        -4.3582057952880859e-01 1.0604710876941681e-01</leafValues></_>
    <_>
      <internalNodes>
        0 -1 6725 -96015906 1163264017 302721288 -872586104 -620217345
        -664814815 -893156033 75746449</internalNodes>
      <leafValues>
        -2.3302464187145233e-01 2.2915856540203094e-01</leafValues></_>
    <_>
      <internalNodes>
        0 -1 2758 434062078 1918459473 -1445366842 1930650381
        -2125815292 -1087946484 -800921012 -231546054</internalNodes>
      <leafValues>
        -2.5943681597709656e-01 2.0344568789005280e-01</leafValues></_>
    <_>
      <internalNodes>
        0 -1 5704 544887779 216845056 -2000333156 195418491 -158440587
        1255371091 337056375 1165841892</internalNodes>
      <leafValues>
        -3.3953034877777100e-01 1.5977896749973297e-01</leafValues></_>
    <_>
      <internalNodes>
        0 -1 7810 -1430540512 1135268628 -301672879 -5100016 36176260
        1776835240 -459772736 -1362405127</internalNodes>
      <leafValues>
        -2.8450858592987061e-01 1.8588897585868835e-01</leafValues></_>
    <_>
      <internalNodes>
        0 -1 1485 -587546569 804998776 -1896874241 -1364353 -565158129
        -33595648 -162361450 -1156940116</internalNodes>
      <leafValues>
        -2.0778639614582062e-01 2.5725057721138000e-01</leafValues></_>
    <_>
      <internalNodes>
        0 -1 8127 768595730 76863104 115092 -978955826 164448545
        -1578497741 357003828 72218820</internalNodes>
      <leafValues>
        -3.6567482352256775e-01 1.4969378709793091e-01</leafValues></_>
    <_>
      <internalNodes>
        0 -1 4198 -1014967088 -1382599567 -96856515 -1678332927
        213219787 24792030 -1472594278 1600906794</internalNodes>
      <leafValues>
        -2.3343330621719360e-01 2.4418924748897552e-01</leafValues></_>
    <_>
      <internalNodes>
        0 -1 1010 -1658335523 -1677395603 -614063523 -1211064746
        -2030654035 -377688102 -226513101 -822399147</internalNodes>
      <leafValues>
        -1.9894388318061829e-01 2.9539290070533752e-01</leafValues></_>
    <_>
      <internalNodes>
        0 -1 1187 975712040 -122129966 -98455482 1893827715 881943540
        1484875938 -602899089 1149526216</internalNodes>
      <leafValues>
        -3.4691876173019409e-01 1.7130340635776520e-01</leafValues></_>
    <_>
      <internalNodes>
        0 -1 7784 -1647114056 -1173062132 -1342243809 -786843727
        895621008 -218497676 347504120 -406009878</internalNodes>
      <leafValues>
        -2.2628855705261230e-01 2.4748195707798004e-01</leafValues></_>
    <_>
      <internalNodes>
        0 -1 5529 -363618302 -2007869103 -108592190 -2021774718
        2056980288 2122537189 1972204328 -779823736</internalNodes>
      <leafValues>
        -3.0475810170173645e-01 1.8969056010246277e-01</leafValues></_>
    <_>
      <internalNodes>
        0 -1 179 1923329075 -1846698608 -1056021634 -1787378516
        1845836676 -427741144 -481563944 1081955063</internalNodes>
      <leafValues>
        -2.4402774870395660e-01 2.3163750767707825e-01</leafValues></_>
    <_>
      <internalNodes>
        0 -1 8128 987653264 1412214321 1048468831 -1679331397 -357296280
        -1145640972 -121731510 -425578437</internalNodes>
      <leafValues>
        -2.3077011108398438e-01 2.4993480741977692e-01</leafValues></_>
    <_>
      <internalNodes>
        0 -1 4173 1430918432 973890418 -1219407821 264715856 -414127040
        -570170951 -1459830264 671376904</internalNodes>
      <leafValues>
        -3.9724382758140564e-01 1.4148983359336853e-01</leafValues></_>
    <_>
      <internalNodes>
        0 -1 6602 346176134 -1357365358 1279556145 -1497024224
        1349863540 676080829 1859476085 2176123</internalNodes>
      <leafValues>
        -4.0203478932380676e-01 1.4146108925342560e-01</leafValues></_></weakClassifiers></stage16>
</opencv_storage>
