<?xml version="1.0"?>
<opencv_storage>
<stage7>
  <maxWeakCount>48</maxWeakCount>
  <stageThreshold>-1.0112603902816772e+00</stageThreshold>
  <weakClassifiers>
    <_>
      <internalNodes>
        0 -1 72 -13617 -33613053 -1159004161 -67649673 -170393609 -53242
        -787457 -14418585</internalNodes>
      <leafValues>
        -1.6432328522205353e-01 3.8112992048263550e-01</leafValues></_>
    <_>
      <internalNodes>
        0 -1 7377 61334915 -5506089 -738200065 -534791 1320665081
        -856752395 -882911787 1170724069</internalNodes>
      <leafValues>
        -2.2024463117122650e-01 2.3090559244155884e-01</leafValues></_>
    <_>
      <internalNodes>
        0 -1 5280 487261189 696866855 -1133514251 1065844730 1501413835
        -1111762181 -866804497 115930</internalNodes>
      <leafValues>
        -2.8539702296257019e-01 1.4938648045063019e-01</leafValues></_>
    <_>
      <internalNodes>
        0 -1 8395 -604254301 -1594974237 -151398603 -536881477
        -572008189 22003387 -43002815 -1043333701</internalNodes>
      <leafValues>
        -1.4634613692760468e-01 2.8311330080032349e-01</leafValues></_>
    <_>
      <internalNodes>
        0 -1 6618 -229377542 318779138 -537739824 -1560091229
        -1800502032 -1617326145 -155913028 -68425041</internalNodes>
      <leafValues>
        -1.7149886488914490e-01 2.2520983219146729e-01</leafValues></_>
    <_>
      <internalNodes>
        0 -1 5826 912594105 -1631653930 1526642687 -1342888004
        -1092293219 -1377994241 -1400936052 -1414734184</internalNodes>
      <leafValues>
        -1.3910773396492004e-01 2.5313022732734680e-01</leafValues></_>
    <_>
      <internalNodes>
        0 -1 667 1325362903 997229198 -300773745 -1460241318 1930581508
        -129345420 -631805610 -11273385</internalNodes>
      <leafValues>
        -2.2020827233791351e-01 1.6326871514320374e-01</leafValues></_>
    <_>
      <internalNodes>
        0 -1 1 -863327573 -1460154865 -285302793 -1594183777 -1049710609
        -1723503777 -1028145381 1903242047</internalNodes>
      <leafValues>
        -1.5764454007148743e-01 2.2903178632259369e-01</leafValues></_>
    <_>
      <internalNodes>
        0 -1 7354 -1849967437 1068275472 -1910219628 -1086586276
        79214009 -1977618473 201149944 -1895839560</internalNodes>
      <leafValues>
        -1.9542549550533295e-01 1.8034341931343079e-01</leafValues></_>
    <_>
      <internalNodes>
        0 -1 2746 508622476 603352919 1464569621 -642601010 2048211762
        784460235 1767326968 1710928394</internalNodes>
      <leafValues>
        -2.5660488009452820e-01 1.3549971580505371e-01</leafValues></_>
    <_>
      <internalNodes>
        0 -1 8062 573356820 -1905620000 2074926384 -1940876444
        -1362683932 -1459720291 -2057671416 -1947284188</internalNodes>
      <leafValues>
        -2.4483360350131989e-01 1.5179811418056488e-01</leafValues></_>
    <_>
      <internalNodes>
        0 -1 6554 1607165635 -8415809 523897395 1603222787 -1396522856
        -367867642 1121569470 1086446279</internalNodes>
      <leafValues>
        -2.0842508971691132e-01 1.6155351698398590e-01</leafValues></_>
    <_>
      <internalNodes>
        0 -1 3040 713982850 795483916 -1883300041 -1075366102 1131340457
        -1181292611 4558013 -605039603</internalNodes>
      <leafValues>
        -1.5616573393344879e-01 2.1813629567623138e-01</leafValues></_>
    <_>
      <internalNodes>
        0 -1 5952 -1008737661 -562321314 610798374 -203162906 360006017
        1170338819 1438639057 -488769870</internalNodes>
      <leafValues>
        -1.5997135639190674e-01 2.2159613668918610e-01</leafValues></_>
    <_>
      <internalNodes>
        0 -1 6763 -562102782 1886626739 -533665136 -716099710 816006792
        880176404 606464394 -322214709</internalNodes>
      <leafValues>
        -1.8488506972789764e-01 1.9256676733493805e-01</leafValues></_>
    <_>
      <internalNodes>
        0 -1 2914 -1358995919 -1711646399 -30491139 -1745904536
        2117152433 -1362171275 514982916 -1943335810</internalNodes>
      <leafValues>
        -1.7890885472297668e-01 2.0325413346290588e-01</leafValues></_>
    <_>
      <internalNodes>
        0 -1 5699 479730997 976780664 933912189 328207669 -1305454348
        -335803275 1072175864 -1425535368</internalNodes>
      <leafValues>
        -2.8529319167137146e-01 1.1630225926637650e-01</leafValues></_>
    <_>
      <internalNodes>
        0 -1 8434 -528865 1355284223 -364907215 -1262486083 -797617316
        1750956423 -4721954 -738988049</internalNodes>
      <leafValues>
        -1.2352707237005234e-01 2.8027737140655518e-01</leafValues></_>
    <_>
      <internalNodes>
        0 -1 5932 -522214749 -491090998 116467760 -640291870 -162216955
        909313219 -222431604 -154796354</internalNodes>
      <leafValues>
        -1.5880027413368225e-01 2.2413149476051331e-01</leafValues></_>
    <_>
      <internalNodes>
        0 -1 382 -232264485 -1887258990 1123899745 795053666 925302613
        993028867 1565816194 1131898471</internalNodes>
      <leafValues>
        -2.1541860699653625e-01 1.6620486974716187e-01</leafValues></_>
    <_>
      <internalNodes>
        0 -1 253 -1071464304 69219122 -2019416048 1012851556 -1999583548
        604063620 -603487154 923746384</internalNodes>
      <leafValues>
        -3.2148182392120361e-01 1.1798877269029617e-01</leafValues></_>
    <_>
      <internalNodes>
        0 -1 1279 -1498436507 -1176543205 1792698911 1199820986
        2054253105 1401117024 577019640 -42602889</internalNodes>
      <leafValues>
        -1.9554919004440308e-01 1.8602925539016724e-01</leafValues></_>
    <_>
      <internalNodes>
        0 -1 4716 -193477006 -583108057 1089704081 1172808386 1091343537
        -1255266022 1248139819 798699642</internalNodes>
      <leafValues>
        -1.8784409761428833e-01 1.9788800179958344e-01</leafValues></_>
    <_>
      <internalNodes>
        0 -1 5543 454363314 1007423010 613472720 676201313 -413397828
        1870542518 -521013624 1561207383</internalNodes>
      <leafValues>
        -2.9080286622047424e-01 1.1949964612722397e-01</leafValues></_>
    <_>
      <internalNodes>
        0 -1 2669 699025496 1227875294 2135848447 -1612758742 -186801922
        1337956663 -537667203 1848269107</internalNodes>
      <leafValues>
        -2.3756469786167145e-01 1.5858766436576843e-01</leafValues></_>
    <_>
      <internalNodes>
        0 -1 729 -824507801 -429518961 -330554642 1784830670 -344768943
        1500316934 -46989483 -1838056665</internalNodes>
      <leafValues>
        -2.7664092183113098e-01 1.2745589017868042e-01</leafValues></_>
    <_>
      <internalNodes>
        0 -1 4294 -553652513 -1629332488 -387514436 1471217658
        -1519393537 -1087152692 1581231612 -67109958</internalNodes>
      <leafValues>
        -1.0719640552997589e-01 3.4695938229560852e-01</leafValues></_>
    <_>
      <internalNodes>
        0 -1 7790 -927019502 -1777171408 1319767417 1039730888
        1449026812 -1407933782 305216184 -824346974</internalNodes>
      <leafValues>
        -1.7922535538673401e-01 2.0256085693836212e-01</leafValues></_>
    <_>
      <internalNodes>
        0 -1 7997 1166802818 -1948583238 -988449024 2103292924 592996837
        -1967294038 1285907556 -867869666</internalNodes>
      <leafValues>
        -2.1122831106185913e-01 1.7286995053291321e-01</leafValues></_>
    <_>
      <internalNodes>
        0 -1 5944 -531578688 5474910 -1225870185 -1856971656 1254848584
        -602944370 -1552322978 1262592013</internalNodes>
      <leafValues>
        -2.5818821787834167e-01 1.3527694344520569e-01</leafValues></_>
    <_>
      <internalNodes>
        0 -1 7482 717165114 280263386 62874385 495270416 -624262006
        -1940739090 196396627 208139098</internalNodes>
      <leafValues>
        -2.5445705652236938e-01 1.4962288737297058e-01</leafValues></_>
    <_>
      <internalNodes>
        0 -1 5912 -526401373 -673577317 -476261599 -1282484334
        -1208188883 -489931786 -697898257 -487063934</internalNodes>
      <leafValues>
        -1.4262074232101440e-01 2.6295334100723267e-01</leafValues></_>
    <_>
      <internalNodes>
        0 -1 38 404786971 -541138605 -1376934539 -638362973 -908514949
        -1397573203 -352462896 -1876667885</internalNodes>
      <leafValues>
        -1.9386933743953705e-01 1.8893863260746002e-01</leafValues></_>
    <_>
      <internalNodes>
        0 -1 1853 -1670673667 -593191322 1339441858 -1943826749
        1795546716 -1493639648 382732858 1287112733</internalNodes>
      <leafValues>
        -2.0000018179416656e-01 1.8253882229328156e-01</leafValues></_>
    <_>
      <internalNodes>
        0 -1 3046 1520453170 385951362 798559577 -407000456 619105695
        -1244860742 -284590968 1577856126</internalNodes>
      <leafValues>
        -2.3928882181644440e-01 1.6229373216629028e-01</leafValues></_>
    <_>
      <internalNodes>
        0 -1 7371 169936176 993138456 -2126374469 1604748340 -424658179
        2130418655 1286549430 5333584</internalNodes>
      <leafValues>
        -3.4318292140960693e-01 1.0497863590717316e-01</leafValues></_>
    <_>
      <internalNodes>
        0 -1 1451 -251736177 -95830318 -826148550 269549555 1899370053
        2014642591 -1927316308 1879251583</internalNodes>
      <leafValues>
        -2.0954695343971252e-01 1.7706869542598724e-01</leafValues></_>
    <_>
      <internalNodes>
        0 -1 4215 -1873836000 3192629 -1485974726 -1399534637 2103079221
        -190519292 -1156433376 619768928</internalNodes>
      <leafValues>
        -3.4441262483596802e-01 9.7493112087249756e-02</leafValues></_>
    <_>
      <internalNodes>
        0 -1 8373 1104224273 -1478498745 -812576156 -1002963998
        -1730910907 804125078 -246469755 202448879</internalNodes>
      <leafValues>
        -2.4006180465221405e-01 1.5035070478916168e-01</leafValues></_>
    <_>
      <internalNodes>
        0 -1 269 -618927102 113583891 475014318 726312448 229230287
        1429696931 -1188086864 71362674</internalNodes>
      <leafValues>
        -3.6560782790184021e-01 1.0241924226284027e-01</leafValues></_>
    <_>
      <internalNodes>
        0 -1 3754 -665965557 -1166782196 -480605444 834709720
        -1888019130 2122253175 1324363484 -546867462</internalNodes>
      <leafValues>
        -2.0311963558197021e-01 1.8363137543201447e-01</leafValues></_>
    <_>
      <internalNodes>
        0 -1 4709 1245376514 319885104 -278250671 803269811 355290314
        526388384 754344442 -621868993</internalNodes>
      <leafValues>
        -1.8435345590114594e-01 2.0573174953460693e-01</leafValues></_>
    <_>
      <internalNodes>
        0 -1 3538 110007552 597731624 -1098230860 -2049969248 20971621
        2109685428 485690761 1506216502</internalNodes>
      <leafValues>
        -2.8992572426795959e-01 1.2755385041236877e-01</leafValues></_>
    <_>
      <internalNodes>
        0 -1 417 120508066 -571803255 -1124168464 -1602954266 1412595171
        -1485081244 932507639 -840569453</internalNodes>
      <leafValues>
        -1.8201096355915070e-01 2.0269030332565308e-01</leafValues></_>
    <_>
      <internalNodes>
        0 -1 1642 -1152014446 1411931696 -1386912747 476632080 143590046
        -317044751 143985547 139477280</internalNodes>
      <leafValues>
        -2.9834225773811340e-01 1.2471512705087662e-01</leafValues></_>
    <_>
      <internalNodes>
        0 -1 6420 -26563323 -65888651 -1082868640 -1283058720 -865762836
        1321688951 -1401717176 -1407872974</internalNodes>
      <leafValues>
        -1.7891132831573486e-01 2.1330231428146362e-01</leafValues></_>
    <_>
      <internalNodes>
        0 -1 3023 -681585669 -1614648021 1873149937 -1945688864
        1595930615 -563118696 2010294033 -621042502</internalNodes>
      <leafValues>
        -1.1789021641016006e-01 3.2095885276794434e-01</leafValues></_>
    <_>
      <internalNodes>
        0 -1 7957 -65019952 1360920505 -291696735 -1251869290 -975183220
        -1023809683 1660244714 -839910565</internalNodes>
      <leafValues>
        -1.2801526486873627e-01 2.9133602976799011e-01</leafValues></_></weakClassifiers></stage7>
</opencv_storage>
