<?xml version="1.0"?>
<opencv_storage>
<stage10>
  <maxWeakCount>48</maxWeakCount>
  <stageThreshold>-9.2656910419464111e-01</stageThreshold>
  <weakClassifiers>
    <_>
      <internalNodes>
        0 -1 1563 1599273983 -524801 -42058753 -5741894 1658011902
        -1074495523 -277451269 -279486606</internalNodes>
      <leafValues>
        -1.2843912839889526e-01 3.3527839183807373e-01</leafValues></_>
    <_>
      <internalNodes>
        0 -1 2842 -86280099 -1081117345 911293439 2136079343 -226822363
        -42512827 -91029796 -9176966</internalNodes>
      <leafValues>
        -1.5435934066772461e-01 2.8671684861183167e-01</leafValues></_>
    <_>
      <internalNodes>
        0 -1 8020 -2014838879 -483695590 -638850633 -4459916 1800388519
        -1909467587 220160455 -572532283</internalNodes>
      <leafValues>
        -1.7004199326038361e-01 2.4588277935981750e-01</leafValues></_>
    <_>
      <internalNodes>
        0 -1 8448 -8437965 79098827 39776618 -1987255378 495914803
        -1157755645 -88669888 -320012305</internalNodes>
      <leafValues>
        -2.0531702041625977e-01 1.7971679568290710e-01</leafValues></_>
    <_>
      <internalNodes>
        0 -1 8 -392442813 2130705335 -219291745 -1153697825 -1744830785
        -1105215689 -1526739782 1615060003</internalNodes>
      <leafValues>
        -1.6216680407524109e-01 2.1988701820373535e-01</leafValues></_>
    <_>
      <internalNodes>
        0 -1 12 774090382 -1858281517 742435127 1264947043 -883562509
        -1176182175 599254953 1399939442</internalNodes>
      <leafValues>
        -2.2878795862197876e-01 1.4244478940963745e-01</leafValues></_>
    <_>
      <internalNodes>
        0 -1 5912 -263214933 -74524777 -1091503229 -139658498 1407166595
        1372380952 -461446482 -439029050</internalNodes>
      <leafValues>
        -1.1783272773027420e-01 2.6088523864746094e-01</leafValues></_>
    <_>
      <internalNodes>
        0 -1 6969 -486626657 318376855 -1439648389 719906895 1860912224
        -21266925 -1670356626 -21239186</internalNodes>
      <leafValues>
        -1.8624114990234375e-01 1.7897413671016693e-01</leafValues></_>
    <_>
      <internalNodes>
        0 -1 5383 1410724660 -1736114384 658723611 -37152824 1698151676
        1312504267 -654372571 22540990</internalNodes>
      <leafValues>
        -1.9287838041782379e-01 1.7841149866580963e-01</leafValues></_>
    <_>
      <internalNodes>
        0 -1 3788 727976195 -2133240987 -1122117841 239599821 1555519583
        -117735681 913058135 663006064</internalNodes>
      <leafValues>
        -2.5660550594329834e-01 1.2763446569442749e-01</leafValues></_>
    <_>
      <internalNodes>
        0 -1 8419 2141178624 39513791 -56882624 -20066710 -536395932
        6028471 -258738234 -1067074849</internalNodes>
      <leafValues>
        -1.9559560716152191e-01 1.7297561466693878e-01</leafValues></_>
    <_>
      <internalNodes>
        0 -1 3502 437432997 -1654649860 854661971 1060108989 -1436348288
        -1409326054 463147404 -592456578</internalNodes>
      <leafValues>
        -1.7914426326751709e-01 1.9006140530109406e-01</leafValues></_>
    <_>
      <internalNodes>
        0 -1 7221 2113854937 -227419374 -180213991 389277970 -959592228
        -91271695 -991101379 -1142325383</internalNodes>
      <leafValues>
        -1.0766863822937012e-01 2.9077783226966858e-01</leafValues></_>
    <_>
      <internalNodes>
        0 -1 147 -1886009709 -1382579661 241437025 -921313437 788377503
        -372028110 -1361596833 272983637</internalNodes>
      <leafValues>
        -2.3560900986194611e-01 1.3474641740322113e-01</leafValues></_>
    <_>
      <internalNodes>
        0 -1 4388 1077969408 773109037 -245106595 529043423 1865638870
        776571825 773967953 852140576</internalNodes>
      <leafValues>
        -3.0014348030090332e-01 1.1415528506040573e-01</leafValues></_>
    <_>
      <internalNodes>
        0 -1 5239 -830857892 531635574 -799095372 529302060 -1698936708
        1068902699 -1180406248 -1167061956</internalNodes>
      <leafValues>
        -2.5167208909988403e-01 1.4571544528007507e-01</leafValues></_>
    <_>
      <internalNodes>
        0 -1 6352 -756101598 8503099 -1945939432 613216554 1357316487
        1543533296 -475180651 -525994138</internalNodes>
      <leafValues>
        -2.5065490603446960e-01 1.2189867347478867e-01</leafValues></_>
    <_>
      <internalNodes>
        0 -1 6523 103355392 1409299744 -859031286 1319779354 -169913312
        1762265875 1432708714 2193448</internalNodes>
      <leafValues>
        -3.6370059847831726e-01 1.0595227777957916e-01</leafValues></_>
    <_>
      <internalNodes>
        0 -1 2523 1533923994 1024880254 2106834232 -1647367157
        -771348510 -12512599 2140969098 232611343</internalNodes>
      <leafValues>
        -1.7911082506179810e-01 1.8298754096031189e-01</leafValues></_>
    <_>
      <internalNodes>
        0 -1 3669 2047785170 -560924764 -875473801 -1202357451
        1415086778 1318955022 1249198162 973958011</internalNodes>
      <leafValues>
        -2.1406792104244232e-01 1.5769644081592560e-01</leafValues></_>
    <_>
      <internalNodes>
        0 -1 4215 72099872 609287205 -1511666663 -1919525949 1414164596
        606126160 -1969091056 776528448</internalNodes>
      <leafValues>
        -3.8476189970970154e-01 9.0309858322143555e-02</leafValues></_>
    <_>
      <internalNodes>
        0 -1 6673 1313041935 102959667 -867970787 776096459 1598114685
        -71364225 -1091446926 -71860425</internalNodes>
      <leafValues>
        -1.9597980380058289e-01 1.7694371938705444e-01</leafValues></_>
    <_>
      <internalNodes>
        0 -1 8435 -673207283 -736498449 1994714167 1088763815 -151541184
        -536756233 1706332042 -194515025</internalNodes>
      <leafValues>
        -1.2973755598068237e-01 2.6278743147850037e-01</leafValues></_>
    <_>
      <internalNodes>
        0 -1 7299 -602949944 440643664 -1677717007 -1548627812 5902328
        -1685062128 -1030943576 222683291</internalNodes>
      <leafValues>
        -2.2089011967182159e-01 1.5520414710044861e-01</leafValues></_>
    <_>
      <internalNodes>
        0 -1 4716 1950278608 -62932988 -176221565 -2065848755 -782448494
        -676173790 -1016292758 215168730</internalNodes>
      <leafValues>
        -1.8932400643825531e-01 1.8169143795967102e-01</leafValues></_>
    <_>
      <internalNodes>
        0 -1 7075 1136076729 -1771825845 -51053104 -1108279528
        1695295380 752318174 1462204664 -805311062</internalNodes>
      <leafValues>
        -1.6696190834045410e-01 2.0799903571605682e-01</leafValues></_>
    <_>
      <internalNodes>
        0 -1 6848 70439316 -1978496655 -178420649 1562925453 509687208
        1046487892 743509873 216607060</internalNodes>
      <leafValues>
        -3.0114346742630005e-01 1.2063150107860565e-01</leafValues></_>
    <_>
      <internalNodes>
        0 -1 8394 -1803745789 27060655 -947318126 -91801401 374300933
        234601391 -249421502 1420083997</internalNodes>
      <leafValues>
        -2.8066092729568481e-01 1.2190523743629456e-01</leafValues></_>
    <_>
      <internalNodes>
        0 -1 6693 -870535136 993306673 -2029329193 -1414198183
        -309919607 1301786135 1107305774 818361894</internalNodes>
      <leafValues>
        -2.4049198627471924e-01 1.4882642030715942e-01</leafValues></_>
    <_>
      <internalNodes>
        0 -1 3509 -34866539 52444212 -72549403 -141860157 -1005911675
        -2894145 -490786406 -922857</internalNodes>
      <leafValues>
        -1.3205237686634064e-01 2.6223400235176086e-01</leafValues></_>
    <_>
      <internalNodes>
        0 -1 5968 -961624542 1647486342 -410998000 -1306242333 63297424
        302212116 1995088721 -1065193072</internalNodes>
      <leafValues>
        -2.5609275698661804e-01 1.3783736526966095e-01</leafValues></_>
    <_>
      <internalNodes>
        0 -1 2269 -237364105 1551132528 -287602085 -1144431558
        -1392604555 -6878176 963102308 -1350120366</internalNodes>
      <leafValues>
        -1.8190580606460571e-01 2.0101372897624969e-01</leafValues></_>
    <_>
      <internalNodes>
        0 -1 382 2140137203 -2052554590 -1035203997 551562348 2033480529
        521554579 -505415749 1656087467</internalNodes>
      <leafValues>
        -2.0287083089351654e-01 1.8866394460201263e-01</leafValues></_>
    <_>
      <internalNodes>
        0 -1 648 -300522753 762571563 -1395069337 -1474266329 1344488404
        2016365428 2123463524 -113198252</internalNodes>
      <leafValues>
        -2.1682590246200562e-01 1.6509698331356049e-01</leafValues></_>
    <_>
      <internalNodes>
        0 -1 7940 -930090863 1478592851 -713172991 361338410 46043340
        -334851176 1625697800 212203427</internalNodes>
      <leafValues>
        -1.9361265003681183e-01 1.9069120287895203e-01</leafValues></_>
    <_>
      <internalNodes>
        0 -1 6420 -2297970 -995690946 -1812301648 -239887404 -152595480
        -805986313 1056915128 -268969861</internalNodes>
      <leafValues>
        -1.3678735494613647e-01 2.8047981858253479e-01</leafValues></_>
    <_>
      <internalNodes>
        0 -1 594 976989815 -1435691919 -1632485711 -2048507953 209403252
        2147450749 -824266804 -44695742</internalNodes>
      <leafValues>
        -1.6627025604248047e-01 2.1711812913417816e-01</leafValues></_>
    <_>
      <internalNodes>
        0 -1 3215 976994903 1547043494 -627820004 441757051 1596854084
        2107390012 1585711186 -630162878</internalNodes>
      <leafValues>
        -2.5332549214363098e-01 1.4358040690422058e-01</leafValues></_>
    <_>
      <internalNodes>
        0 -1 5564 1146251328 349309246 -1252185557 1669491796 -709619835
        1442048791 837063304 1126148291</internalNodes>
      <leafValues>
        -2.6102450489997864e-01 1.3932457566261292e-01</leafValues></_>
    <_>
      <internalNodes>
        0 -1 1399 1211236354 -1443641176 1797828511 -1129500315
        820020153 1055937273 -369778785 162553202</internalNodes>
      <leafValues>
        -2.6890236139297485e-01 1.4113399386405945e-01</leafValues></_>
    <_>
      <internalNodes>
        0 -1 4076 -1798640024 470297399 789324761 -1391018495 1937021429
        945073122 1481407204 223288850</internalNodes>
      <leafValues>
        -2.5759470462799072e-01 1.3108927011489868e-01</leafValues></_>
    <_>
      <internalNodes>
        0 -1 7687 -313640800 1242095910 -614529176 -504875180 1160650761
        209774798 1350529348 1465832132</internalNodes>
      <leafValues>
        -3.1403765082359314e-01 1.1882551759481430e-01</leafValues></_>
    <_>
      <internalNodes>
        0 -1 4468 -456850795 1310330133 2026170099 254130200 -581947742
        -8968713 1847961845 743729189</internalNodes>
      <leafValues>
        -2.7227997779846191e-01 1.3834135234355927e-01</leafValues></_>
    <_>
      <internalNodes>
        0 -1 6053 438045624 386971504 602947957 889231996 428367096
        1065353472 59783680 525604220</internalNodes>
      <leafValues>
        -4.5705583691596985e-01 7.3036655783653259e-02</leafValues></_>
    <_>
      <internalNodes>
        0 -1 6301 1617920650 -469196157 147902586 -889071280 -62808701
        1537655120 -894616654 1814361690</internalNodes>
      <leafValues>
        -2.0415107905864716e-01 1.7952711880207062e-01</leafValues></_>
    <_>
      <internalNodes>
        0 -1 120 -1393563607 1789722605 -128550977 1988541583 194848339
        1780878153 -81177863 -193878241</internalNodes>
      <leafValues>
        -2.0795378088951111e-01 1.9158750772476196e-01</leafValues></_>
    <_>
      <internalNodes>
        0 -1 1380 776619026 218572638 883608009 1733890463 394844860
        -419452007 -845416220 1644698181</internalNodes>
      <leafValues>
        -2.7788922190666199e-01 1.3681691884994507e-01</leafValues></_>
    <_>
      <internalNodes>
        0 -1 6805 -617875457 -1650001164 -1122230947 233451985
        1834598330 -305334348 1575447289 -305145278</internalNodes>
      <leafValues>
        -1.2469314783811569e-01 2.9732668399810791e-01</leafValues></_></weakClassifiers></stage10>
</opencv_storage>
