<?xml version="1.0"?>
<opencv_storage>
<stage8>
  <maxWeakCount>49</maxWeakCount>
  <stageThreshold>-9.9593168497085571e-01</stageThreshold>
  <weakClassifiers>
    <_>
      <internalNodes>
        0 -1 2800 -94939041 -671121579 2119552751 997977983 -16912316
        -8947883 -29687873 -78446725</internalNodes>
      <leafValues>
        -2.0080220699310303e-01 2.9009532928466797e-01</leafValues></_>
    <_>
      <internalNodes>
        0 -1 7412 2076049377 260963220 -1077973519 -677380097 -403058717
        -916523026 -772157007 -973087250</internalNodes>
      <leafValues>
        -1.7957626283168793e-01 2.5870323181152344e-01</leafValues></_>
    <_>
      <internalNodes>
        0 -1 870 1175637438 2071125175 1732021755 -871320774 372660054
        -34116911 -559120418 -821418</internalNodes>
      <leafValues>
        -2.1678319573402405e-01 1.8940785527229309e-01</leafValues></_>
    <_>
      <internalNodes>
        0 -1 7381 -664829952 -191897709 832186153 2103314984 1258148087
        -931243538 -620766549 11070106</internalNodes>
      <leafValues>
        -2.8822958469390869e-01 1.2981301546096802e-01</leafValues></_>
    <_>
      <internalNodes>
        0 -1 2 -421351894 741847671 -224748117 -463807777 -1032492759
        1062455576 -47847596 1917963559</internalNodes>
      <leafValues>
        -2.0366205275058746e-01 1.8993569910526276e-01</leafValues></_>
    <_>
      <internalNodes>
        0 -1 7082 -1409286219 202306682 -556404379 -1892847628
        2120287664 -1345326864 -1997864552 -856040975</internalNodes>
      <leafValues>
        -2.1514549851417542e-01 1.6956911981105804e-01</leafValues></_>
    <_>
      <internalNodes>
        0 -1 7214 -403045291 571877971 1073442635 -1996321241
        -1197992719 982199372 -285452002 -338165990</internalNodes>
      <leafValues>
        -1.6152876615524292e-01 2.2034360468387604e-01</leafValues></_>
    <_>
      <internalNodes>
        0 -1 8447 -67640029 144209912 -992216478 -840502364 1034123776
        1810217383 -1962952878 -388631557</internalNodes>
      <leafValues>
        -1.8951353430747986e-01 1.7976103723049164e-01</leafValues></_>
    <_>
      <internalNodes>
        0 -1 3495 131279362 266152501 1179957809 1291712884 -562749581
        1029447702 -466813664 609237625</internalNodes>
      <leafValues>
        -3.1064617633819580e-01 1.1553913354873657e-01</leafValues></_>
    <_>
      <internalNodes>
        0 -1 26 572130818 1474951415 943178687 462564829 -1310748161
        -270673438 2139207836 276876894</internalNodes>
      <leafValues>
        -2.4451144039630890e-01 1.4077129960060120e-01</leafValues></_>
    <_>
      <internalNodes>
        0 -1 3766 1515539071 -36038304 1835143128 1798201140 2034921552
        -272881026 -1167556774 -1153934282</internalNodes>
      <leafValues>
        -2.3177176713943481e-01 1.4109699428081512e-01</leafValues></_>
    <_>
      <internalNodes>
        0 -1 7012 -803027736 -771561968 1392107227 326993104 59841658
        393804560 -2069187362 419917754</internalNodes>
      <leafValues>
        -2.0362378656864166e-01 1.7412306368350983e-01</leafValues></_>
    <_>
      <internalNodes>
        0 -1 7634 -283252813 -1392837024 -510445289 -1650088746
        254716304 -1377127170 1164970001 -862068630</internalNodes>
      <leafValues>
        -1.8194402754306793e-01 1.8999502062797546e-01</leafValues></_>
    <_>
      <internalNodes>
        0 -1 6999 -650861424 -753135453 -1419580169 388628267 1288674483
        1534312014 2144615612 1301243871</internalNodes>
      <leafValues>
        -1.7745633423328400e-01 1.9840078055858612e-01</leafValues></_>
    <_>
      <internalNodes>
        0 -1 2227 1251874365 -1906026224 -1309003794 -725161670
        -288745724 -48274832 1014659984 -81596882</internalNodes>
      <leafValues>
        -2.2286161780357361e-01 1.4589256048202515e-01</leafValues></_>
    <_>
      <internalNodes>
        0 -1 8425 -689993701 202148438 -1599165664 -601569445 -462395636
        -1709057022 -121667800 403894103</internalNodes>
      <leafValues>
        -1.9823177158832550e-01 1.6913108527660370e-01</leafValues></_>
    <_>
      <internalNodes>
        0 -1 498 -365973777 141536949 -198887107 813608932 1627094133
        -1955317399 2141212784 -261783689</internalNodes>
      <leafValues>
        -1.9294284284114838e-01 1.7202763259410858e-01</leafValues></_>
    <_>
      <internalNodes>
        0 -1 3015 -1494758749 176582452 86996305 -174076512 -2005039439
        -1346109739 1282295317 -872548357</internalNodes>
      <leafValues>
        -1.6355058550834656e-01 2.0002476871013641e-01</leafValues></_>
    <_>
      <internalNodes>
        0 -1 6648 -218390354 1608815139 -1364757624 971102859 2135413892
        1581768037 -53934898 -219761750</internalNodes>
      <leafValues>
        -1.5143039822578430e-01 2.2132192552089691e-01</leafValues></_>
    <_>
      <internalNodes>
        0 -1 3814 3852468 4239926 -1660699198 -1922428662 1142246836
        1336916145 1030793792 12671672</internalNodes>
      <leafValues>
        -3.4270215034484863e-01 9.2596434056758881e-02</leafValues></_>
    <_>
      <internalNodes>
        0 -1 6069 307807989 479998650 -1425509548 -1887396216 382754804
        -1395820628 -1919001992 -1884325717</internalNodes>
      <leafValues>
        -1.7469781637191772e-01 1.8606731295585632e-01</leafValues></_>
    <_>
      <internalNodes>
        0 -1 1785 -735918498 -33538478 -572264947 1837745280 612970633
        -1662326142 1559528941 2045231206</internalNodes>
      <leafValues>
        -1.9132685661315918e-01 1.6850802302360535e-01</leafValues></_>
    <_>
      <internalNodes>
        0 -1 8074 -1498788364 -391633572 1024343484 -1358013182
        -1020732592 -1431502944 -1478412336 -559231824</internalNodes>
      <leafValues>
        -2.0242936909198761e-01 1.6651496291160583e-01</leafValues></_>
    <_>
      <internalNodes>
        0 -1 6258 -755534113 -224052466 1143676881 -820291069 163079322
        -356847618 1856884538 -287969289</internalNodes>
      <leafValues>
        -1.3874506950378418e-01 2.5262117385864258e-01</leafValues></_>
    <_>
      <internalNodes>
        0 -1 1737 1455795131 -553927178 1601177431 1606372182 -994920009
        -895982890 1029488627 -336087351</internalNodes>
      <leafValues>
        -1.0588157922029495e-01 3.0207023024559021e-01</leafValues></_>
    <_>
      <internalNodes>
        0 -1 3605 1498968904 -587302678 1170086850 -403657244 1427724505
        1216876204 -471900852 1925712520</internalNodes>
      <leafValues>
        -2.3527726531028748e-01 1.4478789269924164e-01</leafValues></_>
    <_>
      <internalNodes>
        0 -1 624 1715384030 1572473359 -1906178465 -1968284770 653331792
        2086808214 -599516574 -665526460</internalNodes>
      <leafValues>
        -2.4564109742641449e-01 1.3762338459491730e-01</leafValues></_>
    <_>
      <internalNodes>
        0 -1 5694 -568902346 -1077385153 -261201931 419970932
        -2083492688 1329861488 -1415181124 -346403546</internalNodes>
      <leafValues>
        -1.8546633422374725e-01 1.7799586057662964e-01</leafValues></_>
    <_>
      <internalNodes>
        0 -1 752 70789646 677299502 66829910 1110469856 -1963123960
        1737160991 -591860364 1109052982</internalNodes>
      <leafValues>
        -4.1191190481185913e-01 7.5313791632652283e-02</leafValues></_>
    <_>
      <internalNodes>
        0 -1 6412 -164707086 -1702564546 -1446762728 871544382
        -911493188 -1967239707 1107092732 -1436061569</internalNodes>
      <leafValues>
        -1.5768182277679443e-01 2.1535603702068329e-01</leafValues></_>
    <_>
      <internalNodes>
        0 -1 1885 1316620882 -1434443104 579862780 -1530551198
        -871287887 -285727312 1239686237 1517649478</internalNodes>
      <leafValues>
        -2.8563541173934937e-01 1.2566828727722168e-01</leafValues></_>
    <_>
      <internalNodes>
        0 -1 7891 -2011279883 716847400 -506055955 935473936 112081401
        -1119926017 1034952140 -1883079410</internalNodes>
      <leafValues>
        -2.3684233427047729e-01 1.4075554907321930e-01</leafValues></_>
    <_>
      <internalNodes>
        0 -1 2695 134481430 997259315 -186814629 743064799 -1589232050
        -1714682393 -11399848 1353082928</internalNodes>
      <leafValues>
        -3.1988167762756348e-01 1.1151252686977386e-01</leafValues></_>
    <_>
      <internalNodes>
        0 -1 6013 -261454824 431634464 721749168 992119841 313003292
        -1172831844 488915180 481910803</internalNodes>
      <leafValues>
        -2.8100207448005676e-01 1.2585096061229706e-01</leafValues></_>
    <_>
      <internalNodes>
        0 -1 5402 -622534508 1380198803 -284064771 502766449 -249073729
        -1163251787 1692503676 -1998605664</internalNodes>
      <leafValues>
        -1.8695461750030518e-01 1.8943966925144196e-01</leafValues></_>
    <_>
      <internalNodes>
        0 -1 5712 782135919 -1005787403 184282093 -473066273 -270700021
        1652705387 -308589806 1457058149</internalNodes>
      <leafValues>
        -2.2745288908481598e-01 1.5045180916786194e-01</leafValues></_>
    <_>
      <internalNodes>
        0 -1 736 -935788539 -130086118 775871987 -771979444 -56052033
        -86041281 -210338006 2099381827</internalNodes>
      <leafValues>
        -1.8223062157630920e-01 1.8949913978576660e-01</leafValues></_>
    <_>
      <internalNodes>
        0 -1 7568 2112880191 1538695095 -1788502519 -646054007
        -1444532805 -1668546957 -1696093310 -340920919</internalNodes>
      <leafValues>
        -1.1277569085359573e-01 3.0574321746826172e-01</leafValues></_>
    <_>
      <internalNodes>
        0 -1 5351 -969620480 -1280267513 1981846821 209960612 -824360835
        1752326005 -465096969 1237279</internalNodes>
      <leafValues>
        -2.9881769418716431e-01 1.2506036460399628e-01</leafValues></_>
    <_>
      <internalNodes>
        0 -1 4847 150159892 -2079200798 1493388759 840100571 241653681
        -1078649231 1714552917 678631596</internalNodes>
      <leafValues>
        -2.9295068979263306e-01 1.1345008015632629e-01</leafValues></_>
    <_>
      <internalNodes>
        0 -1 7627 -808806767 -1963323974 2096511316 1001225912 339457265
        -1245874690 1827544304 -1651565314</internalNodes>
      <leafValues>
        -1.7449767887592316e-01 1.9943800568580627e-01</leafValues></_>
    <_>
      <internalNodes>
        0 -1 2601 -1006190030 -2032353634 56396575 652427491 1594308401
        -122361376 1028173586 1823782336</internalNodes>
      <leafValues>
        -2.4647708237171173e-01 1.4666235446929932e-01</leafValues></_>
    <_>
      <internalNodes>
        0 -1 7814 941561427 -1976074904 -939839520 2036487292 -747620368
        -1906640868 1522328792 -1379081528</internalNodes>
      <leafValues>
        -2.0541360974311829e-01 1.6962233185768127e-01</leafValues></_>
    <_>
      <internalNodes>
        0 -1 2034 443957830 632204527 1622096346 1338336639 -1160983312
        979201552 2010398396 253755472</internalNodes>
      <leafValues>
        -3.0424690246582031e-01 1.1640747636556625e-01</leafValues></_>
    <_>
      <internalNodes>
        0 -1 6994 -488701432 1918937031 -1974723413 -1267810678
        -781368368 72896835 -464677128 -1597589760</internalNodes>
      <leafValues>
        -2.4146673083305359e-01 1.4814822375774384e-01</leafValues></_>
    <_>
      <internalNodes>
        0 -1 6068 -562917899 1604353521 -1083405315 -1153696456
        -17002564 -1680140606 -807657542 -1074840661</internalNodes>
      <leafValues>
        -1.1478584259748459e-01 3.0907186865806580e-01</leafValues></_>
    <_>
      <internalNodes>
        0 -1 1654 138715168 215804780 1263282034 234900032 199699044
        408764223 684329813 106260323</internalNodes>
      <leafValues>
        -4.5908135175704956e-01 7.9928666353225708e-02</leafValues></_>
    <_>
      <internalNodes>
        0 -1 3045 1361502336 1865092678 -81723595 2033565834 -498671127
        463870957 -387791671 1850103950</internalNodes>
      <leafValues>
        -2.0995424687862396e-01 1.7286351323127747e-01</leafValues></_>
    <_>
      <internalNodes>
        0 -1 5244 747118159 685029131 -521763160 -1495685481 2007972735
        622444081 -352878745 289147769</internalNodes>
      <leafValues>
        -2.8968876600265503e-01 1.2345982342958450e-01</leafValues></_></weakClassifiers></stage8>
</opencv_storage>
