<?xml version="1.0"?>
<opencv_storage>
<stage6>
  <maxWeakCount>42</maxWeakCount>
  <stageThreshold>-1.0025490522384644e+00</stageThreshold>
  <weakClassifiers>
    <_>
      <internalNodes>
        0 -1 2669 -109422465 -135266465 -360449 -36929 -50593793 -81941
        -541401093 -13959425</internalNodes>
      <leafValues>
        -2.1019108593463898e-01 3.6951160430908203e-01</leafValues></_>
    <_>
      <internalNodes>
        0 -1 870 1981216255 -136972361 -4542497 -38734918 1173835230
        -33660933 -537427969 -67668110</internalNodes>
      <leafValues>
        -1.5648910403251648e-01 3.4265300631523132e-01</leafValues></_>
    <_>
      <internalNodes>
        0 -1 7433 1945106915 705210658 -545413775 -38077837 -851718153
        1325137897 1977873905 1094710747</internalNodes>
      <leafValues>
        -2.3929721117019653e-01 2.1736122667789459e-01</leafValues></_>
    <_>
      <internalNodes>
        0 -1 8389 1861192737 209647103 -187746795 -454131737 -194949177
        48046999 -721993468 -931137693</internalNodes>
      <leafValues>
        -2.3138688504695892e-01 1.8094438314437866e-01</leafValues></_>
    <_>
      <internalNodes>
        0 -1 2 -353965441 -1660963849 -83960849 -489620482 -764024011
        -328085691 -526472 -230437001</internalNodes>
      <leafValues>
        -1.4061217010021210e-01 2.8956368565559387e-01</leafValues></_>
    <_>
      <internalNodes>
        0 -1 5808 2030034005 1060313848 -1141030977 -2105603 -134305139
        -1342199873 -1729866243 -1369451460</internalNodes>
      <leafValues>
        -1.5755254030227661e-01 2.4459643661975861e-01</leafValues></_>
    <_>
      <internalNodes>
        0 -1 5239 1450581620 468867185 456353213 467211885 -1998058252
        519727622 -1087632168 -1103099848</internalNodes>
      <leafValues>
        -2.5446966290473938e-01 1.5650376677513123e-01</leafValues></_>
    <_>
      <internalNodes>
        0 -1 8185 -274923741 -1467231766 -786472400 -899910050
        -1477449468 79621113 1832376416 -925894681</internalNodes>
      <leafValues>
        -2.5282490253448486e-01 1.5786033868789673e-01</leafValues></_>
    <_>
      <internalNodes>
        0 -1 388 -282073418 -1281086784 772014282 -347888958 1629570293
        794294133 1615151323 -17305277</internalNodes>
      <leafValues>
        -1.9913175702095032e-01 1.9236846268177032e-01</leafValues></_>
    <_>
      <internalNodes>
        0 -1 242 1712565799 1572318798 -468244597 652715774 1544991285
        -884629459 1232407956 1148542998</internalNodes>
      <leafValues>
        -2.4532459676265717e-01 1.5119919180870056e-01</leafValues></_>
    <_>
      <internalNodes>
        0 -1 7082 1274019637 -1944553888 1350030533 -1381151428
        1296379041 -1393685264 217389757 -865342120</internalNodes>
      <leafValues>
        -1.7165002226829529e-01 2.0969155430793762e-01</leafValues></_>
    <_>
      <internalNodes>
        0 -1 7299 -80838768 286712048 -1671750275 -1279143725 3475696
        -703595687 -1063711608 233562538</internalNodes>
      <leafValues>
        -2.2767275571823120e-01 1.5289516746997833e-01</leafValues></_>
    <_>
      <internalNodes>
        0 -1 1345 -1032690049 788342261 684641950 9629438 1535004176
        -1240250057 -1085047018 -27787405</internalNodes>
      <leafValues>
        -2.0134107768535614e-01 1.8649066984653473e-01</leafValues></_>
    <_>
      <internalNodes>
        0 -1 3553 -655791665 1561681909 -372722759 -1074415659
        1057332919 970293998 -1193220097 -37098517</internalNodes>
      <leafValues>
        -1.2417534738779068e-01 3.1434825062751770e-01</leafValues></_>
    <_>
      <internalNodes>
        0 -1 8012 657080611 -278599 1064500537 1610479447 -612380801
        -270901635 -878714981 -1063004841</internalNodes>
      <leafValues>
        -1.4421832561492920e-01 2.4474960565567017e-01</leafValues></_>
    <_>
      <internalNodes>
        0 -1 6069 357302928 1013105330 -565249708 -1378288376 150502592
        -124227164 227306136 -1398008782</internalNodes>
      <leafValues>
        -2.3452228307723999e-01 1.5562660992145538e-01</leafValues></_>
    <_>
      <internalNodes>
        0 -1 6060 846112872 708454151 -10604836 1003524624 767701028
        770010484 -222533220 -1399883984</internalNodes>
      <leafValues>
        -2.7146500349044800e-01 1.3263218104839325e-01</leafValues></_>
    <_>
      <internalNodes>
        0 -1 6760 -603994000 1545259544 -1963432350 -1308447684
        1143341833 -848978364 -1265549148 -155981174</internalNodes>
      <leafValues>
        -1.7834658920764923e-01 2.0930618047714233e-01</leafValues></_>
    <_>
      <internalNodes>
        0 -1 8443 -54006009 113834870 -1471944574 544013184 1627344130
        50319330 -827756796 -521807945</internalNodes>
      <leafValues>
        -2.1362064778804779e-01 1.7313672602176666e-01</leafValues></_>
    <_>
      <internalNodes>
        0 -1 1390 1085436226 804874623 -1780039745 -1082933513
        -1818388036 -1166120263 -1204213553 -1892511946</internalNodes>
      <leafValues>
        -2.0013049244880676e-01 1.8654267489910126e-01</leafValues></_>
    <_>
      <internalNodes>
        0 -1 3945 -1343215049 1867393813 445999677 -305570209 -562766958
        -1679154265 675593471 606666543</internalNodes>
      <leafValues>
        -2.2893643379211426e-01 1.6327264904975891e-01</leafValues></_>
    <_>
      <internalNodes>
        0 -1 4716 -12467244 1604989734 -982433663 1473104477 1934400139
        -1474285144 -919848165 479271514</internalNodes>
      <leafValues>
        -1.8999849259853363e-01 2.0188520848751068e-01</leafValues></_>
    <_>
      <internalNodes>
        0 -1 560 2104470439 -1566071122 -1028232862 -322777560
        1860136647 1662146870 -171444384 -177375754</internalNodes>
      <leafValues>
        -2.0568205416202545e-01 1.8437111377716064e-01</leafValues></_>
    <_>
      <internalNodes>
        0 -1 7464 -287855181 1199365153 -2093280463 422033459
        -1931517258 -1462059288 505752371 -984222833</internalNodes>
      <leafValues>
        -1.6143700480461121e-01 2.3571024835109711e-01</leafValues></_>
    <_>
      <internalNodes>
        0 -1 2879 -1564846319 1066298420 -1343512641 -1951474339
        803653821 1023305191 -1358082944 -842015361</internalNodes>
      <leafValues>
        -1.6855664551258087e-01 2.2458446025848389e-01</leafValues></_>
    <_>
      <internalNodes>
        0 -1 3097 -609750646 973891342 -1860840144 -1117707135
        -559431526 1243942845 -261031233 1256746047</internalNodes>
      <leafValues>
        -2.1123404800891876e-01 1.8282742798328400e-01</leafValues></_>
    <_>
      <internalNodes>
        0 -1 127 -1150302641 238285604 -759771018 -1473781262 -68621235
        1584763156 -168561948 -1307313058</internalNodes>
      <leafValues>
        -2.2622662782669067e-01 1.6581937670707703e-01</leafValues></_>
    <_>
      <internalNodes>
        0 -1 6523 188598024 1545079584 -1476444917 2108322906
        -1109710535 -1204897154 1602041454 15754292</internalNodes>
      <leafValues>
        -3.0342841148376465e-01 1.2899245321750641e-01</leafValues></_>
    <_>
      <internalNodes>
        0 -1 7570 1552580864 2000333219 -1341747043 -40154693 1077245140
        961884530 -509075558 -1347977150</internalNodes>
      <leafValues>
        -1.8392342329025269e-01 2.1802721917629242e-01</leafValues></_>
    <_>
      <internalNodes>
        0 -1 7784 -1922388432 405997056 -1669894631 -1853296372
        688626136 -1661034107 -235032632 -1964326485</internalNodes>
      <leafValues>
        -2.0182232558727264e-01 1.9792972505092621e-01</leafValues></_>
    <_>
      <internalNodes>
        0 -1 6331 2038170298 735117328 681943984 71631001 -1692253128
        -816677611 -355189098 1334681106</internalNodes>
      <leafValues>
        -2.6123902201652527e-01 1.5267951786518097e-01</leafValues></_>
    <_>
      <internalNodes>
        0 -1 5529 -358882814 21004576 132309882 1945686202 2135417541
        1047648047 -699538960 -461000560</internalNodes>
      <leafValues>
        -2.3151984810829163e-01 1.6804048418998718e-01</leafValues></_>
    <_>
      <internalNodes>
        0 -1 3010 37880096 80499192 -811877515 -1088562098 457009536
        -1962984069 263547929 -924106372</internalNodes>
      <leafValues>
        -2.5025770068168640e-01 1.5787369012832642e-01</leafValues></_>
    <_>
      <internalNodes>
        0 -1 3214 -255970147 -537064140 -1073856569 799543227
        -1250677164 -134381894 -1684001063 -15568038</internalNodes>
      <leafValues>
        -1.9496220350265503e-01 2.0812720060348511e-01</leafValues></_>
    <_>
      <internalNodes>
        0 -1 1879 -623514576 329679552 -1292714182 -2050947210
        1724851413 1281461191 -1730756273 1933575770</internalNodes>
      <leafValues>
        -2.4544413387775421e-01 1.6708108782768250e-01</leafValues></_>
    <_>
      <internalNodes>
        0 -1 8152 -65813882 -1352211186 872329745 1535844920 989237476
        -2014560575 -185762580 -1922827957</internalNodes>
      <leafValues>
        -1.8630889058113098e-01 2.2195366024971008e-01</leafValues></_>
    <_>
      <internalNodes>
        0 -1 50 32826890 1115054014 -48245300 695079242 1701657817
        1487531229 2013596296 538803076</internalNodes>
      <leafValues>
        -3.2873594760894775e-01 1.2584404647350311e-01</leafValues></_>
    <_>
      <internalNodes>
        0 -1 543 -2044987521 754908370 1861712863 -831656207 -606683116
        -8987179 2121563743 -352327048</internalNodes>
      <leafValues>
        -1.6849473118782043e-01 2.4968691170215607e-01</leafValues></_>
    <_>
      <internalNodes>
        0 -1 8408 -1056971769 182121647 1873772304 1945814004
        -1481023948 -1905391893 -772572592 -798261389</internalNodes>
      <leafValues>
        -1.8968343734741211e-01 2.1785254776477814e-01</leafValues></_>
    <_>
      <internalNodes>
        0 -1 4985 1442559999 -1190440781 2004564719 -1210585417
        1542798808 -79739213 -54972949 -1617963597</internalNodes>
      <leafValues>
        -1.1008652299642563e-01 3.5945510864257812e-01</leafValues></_>
    <_>
      <internalNodes>
        0 -1 2246 -260245957 1998696043 666646423 594863539 -655611425
        -1111925133 -312484436 -237411734</internalNodes>
      <leafValues>
        -1.4947564899921417e-01 2.6358404755592346e-01</leafValues></_>
    <_>
      <internalNodes>
        0 -1 7068 -179323981 1025012660 1675597564 1427073427 1565513120
        223851508 -1186647000 -6357777</internalNodes>
      <leafValues>
        -1.4751502871513367e-01 2.6730448007583618e-01</leafValues></_></weakClassifiers></stage6>
</opencv_storage>
