<?xml version="1.0"?>
<opencv_storage>
<stage8>
  <maxWeakCount>24</maxWeakCount>
  <stageThreshold>-1.2682439088821411e+00</stageThreshold>
  <weakClassifiers>
    <_>
      <internalNodes>
        0 -1 7821 -1894523911 -2623065 -676073089 -39586421 -806626119
        -1082918819 -835982337 -536885827</internalNodes>
      <leafValues>
        -3.4461718797683716e-01 2.5117149949073792e-01</leafValues></_>
    <_>
      <internalNodes>
        0 -1 814 1120857759 -131081 -1158481153 820048498 1073697895
        -2138113 -1344405765 -163328182</internalNodes>
      <leafValues>
        -2.5137260556221008e-01 2.7751985192298889e-01</leafValues></_>
    <_>
      <internalNodes>
        0 -1 1485 -63044089 268373504 -299698309 1062741563 927337476
        -3253501 -232596485 -15565251</internalNodes>
      <leafValues>
        -2.5782305002212524e-01 2.1537871658802032e-01</leafValues></_>
    <_>
      <internalNodes>
        0 -1 8162 1744825091 244000 -914902094 -906428674 -648562637
        -1344875719 1495225895 -327816353</internalNodes>
      <leafValues>
        -2.4420894682407379e-01 2.2611103951931000e-01</leafValues></_>
    <_>
      <internalNodes>
        0 -1 2986 -2136305248 329910962 -28995 -1113074912 42631309
        -1460061705 96927961 -113284019</internalNodes>
      <leafValues>
        -2.2223263978958130e-01 2.6103827357292175e-01</leafValues></_>
    <_>
      <internalNodes>
        0 -1 39 -2012839669 -570780413 -1788317291 -710779375
        -2113697125 -2014790786 -1933078753 68509973</internalNodes>
      <leafValues>
        -3.6632826924324036e-01 1.3502214848995209e-01</leafValues></_>
    <_>
      <internalNodes>
        0 -1 8407 -18881277 -1405354005 -76645391 -658571870 -1710754352
        -1059225601 -1258561983 -240140353</internalNodes>
      <leafValues>
        -1.8549211323261261e-01 3.0301487445831299e-01</leafValues></_>
    <_>
      <internalNodes>
        0 -1 7215 1920110012 159393910 -1238442137 -1090478719
        -936099796 -1919273685 1262017722 -350789087</internalNodes>
      <leafValues>
        -2.8611570596694946e-01 1.9600018858909607e-01</leafValues></_>
    <_>
      <internalNodes>
        0 -1 2654 2053074005 -1232574894 -1046839171 488307057
        -404209392 -4306625 1917598878 -128959466</internalNodes>
      <leafValues>
        -2.5348389148712158e-01 2.2167390584945679e-01</leafValues></_>
    <_>
      <internalNodes>
        0 -1 3929 1221427810 2140621889 -196494435 -1116872700
        1380036983 1090344734 1816207756 1610883362</internalNodes>
      <leafValues>
        -3.6851128935813904e-01 1.6006973385810852e-01</leafValues></_>
    <_>
      <internalNodes>
        0 -1 7287 -210646640 423315024 -1392579586 -712793879 97464472
        -33652741 -339749478 556786363</internalNodes>
      <leafValues>
        -2.2736659646034241e-01 2.4837809801101685e-01</leafValues></_>
    <_>
      <internalNodes>
        0 -1 6423 202179888 365469144 -1299808684 444774032 257830228
        1072476453 159467540 -843186587</internalNodes>
      <leafValues>
        -3.9374727010726929e-01 1.4449939131736755e-01</leafValues></_>
    <_>
      <internalNodes>
        0 -1 4026 1086052839 -1692823792 -29769835 96036908 6179037
        -269232773 -595759458 -336593490</internalNodes>
      <leafValues>
        -1.7030906677246094e-01 3.3753493428230286e-01</leafValues></_>
    <_>
      <internalNodes>
        0 -1 1283 -1508136321 1397378154 215246964 -472915523 1917128817
        -1625878528 -93045169 -95066553</internalNodes>
      <leafValues>
        -2.3322777450084686e-01 2.4962165951728821e-01</leafValues></_>
    <_>
      <internalNodes>
        0 -1 7404 -16829805 -772178085 502605113 1037527811 1088784095
        1186529262 1588543423 -930873741</internalNodes>
      <leafValues>
        -1.7666853964328766e-01 3.2706451416015625e-01</leafValues></_>
    <_>
      <internalNodes>
        0 -1 6465 70198560 254202034 -343435990 2034752914 894450007
        822866681 1141592420 21348802</internalNodes>
      <leafValues>
        -4.6012929081916809e-01 1.2048833817243576e-01</leafValues></_>
    <_>
      <internalNodes>
        0 -1 980 -588740303 -1930822126 71606389 1096382553 265120485
        -1941108458 -412729673 1115477357</internalNodes>
      <leafValues>
        -3.1117588281631470e-01 1.8486815690994263e-01</leafValues></_>
    <_>
      <internalNodes>
        0 -1 8030 -1012036608 -690565224 -1178455167 -1087482228
        -385340324 1916294587 417081881 3469851</internalNodes>
      <leafValues>
        -3.4470656514167786e-01 1.8071521818637848e-01</leafValues></_>
    <_>
      <internalNodes>
        0 -1 6015 -358488252 1591999921 -254531360 -753510256 1037582583
        -1927019552 -762166804 -705207530</internalNodes>
      <leafValues>
        -2.4838116765022278e-01 2.4353739619255066e-01</leafValues></_>
    <_>
      <internalNodes>
        0 -1 6436 323250800 474674664 2088550285 1025016917 224677584
        -696194196 -2010498856 -1364559260</internalNodes>
      <leafValues>
        -3.4358096122741699e-01 1.7778086662292480e-01</leafValues></_>
    <_>
      <internalNodes>
        0 -1 3562 44176946 -2012717670 -945196107 -5861356 199719059
        -1445027351 -472547312 -2067545852</internalNodes>
      <leafValues>
        -3.3603727817535400e-01 1.7277701199054718e-01</leafValues></_>
    <_>
      <internalNodes>
        0 -1 1675 -234716080 1932156976 -2067607299 1402625289 34436224
        -1259600209 688521366 1758093514</internalNodes>
      <leafValues>
        -3.1658378243446350e-01 1.9010989367961884e-01</leafValues></_>
    <_>
      <internalNodes>
        0 -1 6176 1009467029 -1322383426 -335798721 -980779080
        -755556375 -1167556873 1626623996 -1926280546</internalNodes>
      <leafValues>
        -2.4413955211639404e-01 2.4582427740097046e-01</leafValues></_>
    <_>
      <internalNodes>
        0 -1 395 205187794 639902740 -1903303045 506163259 1682966640
        -901951127 792681235 1953953046</internalNodes>
      <leafValues>
        -3.6060637235641479e-01 1.7155528068542480e-01</leafValues></_></weakClassifiers></stage8>
</opencv_storage>
