<?xml version="1.0"?>
<opencv_storage>
<stage12>
  <maxWeakCount>55</maxWeakCount>
  <stageThreshold>-1.0009086132049561e+00</stageThreshold>
  <weakClassifiers>
    <_>
      <internalNodes>
        0 -1 2025 -46244609 -33657521 -1258422529 -33596037 -1120469509
        -50528905 -50856198 2132438383</internalNodes>
      <leafValues>
        -2.0393733680248260e-01 2.2697192430496216e-01</leafValues></_>
    <_>
      <internalNodes>
        0 -1 8028 -38797917 -16777235 -8520235 -134217891 -357585473
        -1360087121 -1145070597 -908079653</internalNodes>
      <leafValues>
        -1.1614266782999039e-01 3.2931953668594360e-01</leafValues></_>
    <_>
      <internalNodes>
        0 -1 3454 427029978 890386362 146813174 -75310820 1375887806
        1360701692 -1056713752 1942678712</internalNodes>
      <leafValues>
        -2.1984633803367615e-01 1.4900682866573334e-01</leafValues></_>
    <_>
      <internalNodes>
        0 -1 4181 1363197354 -544065586 89456826 -33747436 -82465349
        -729240852 -1208836213 2140056232</internalNodes>
      <leafValues>
        -1.8742367625236511e-01 1.5644498169422150e-01</leafValues></_>
    <_>
      <internalNodes>
        0 -1 280 -1347444049 -790962968 -1494572470 -1594891761
        1739552324 1937071972 -540793 -779628745</internalNodes>
      <leafValues>
        -1.5585207939147949e-01 1.8426328897476196e-01</leafValues></_>
    <_>
      <internalNodes>
        0 -1 8104 -645930863 341047247 1426016530 -1329734921 508496201
        1216114800 -822095504 8387503</internalNodes>
      <leafValues>
        -1.7848092317581177e-01 1.6302551329135895e-01</leafValues></_>
    <_>
      <internalNodes>
        0 -1 7358 947237811 -1472152702 1338730481 -1382154447 729399157
        -1394021720 876966033 -857997974</internalNodes>
      <leafValues>
        -2.0579355955123901e-01 1.2707599997520447e-01</leafValues></_>
    <_>
      <internalNodes>
        0 -1 6225 1526156373 708806685 1683162525 -1477943650 -59227652
        1058411441 1221609757 137317594</internalNodes>
      <leafValues>
        -1.7704218626022339e-01 1.6512280702590942e-01</leafValues></_>
    <_>
      <internalNodes>
        0 -1 6432 -1799376396 -1803012146 1836747228 -1080551560
        840710836 728650481 -271053156 -1076164530</internalNodes>
      <leafValues>
        -1.9361537694931030e-01 1.3845296204090118e-01</leafValues></_>
    <_>
      <internalNodes>
        0 -1 0 1617593510 -1955516855 1242872685 1643622355 -918163989
        217680537 1898114955 1465983093</internalNodes>
      <leafValues>
        -1.6673500835895538e-01 1.6868951916694641e-01</leafValues></_>
    <_>
      <internalNodes>
        0 -1 86 33883819 1875046974 974299099 -1091399306 1351483561
        -40830435 -1108353604 -536754181</internalNodes>
      <leafValues>
        -1.9292487204074860e-01 1.4351485669612885e-01</leafValues></_>
    <_>
      <internalNodes>
        0 -1 2311 -2073276874 -73877756 -1550608528 -113504650 178523952
        -1492171 144838784 -1916663736</internalNodes>
      <leafValues>
        -2.1133691072463989e-01 1.5347483754158020e-01</leafValues></_>
    <_>
      <internalNodes>
        0 -1 1923 426492599 2133091419 1112288446 795923045 371148297
        1340371212 -771629494 -613943730</internalNodes>
      <leafValues>
        -1.7332883179187775e-01 1.6174142062664032e-01</leafValues></_>
    <_>
      <internalNodes>
        0 -1 1674 -1356700202 831580326 783015162 -273157092 -1907884048
        -86968523 1339048076 -287311457</internalNodes>
      <leafValues>
        -1.5110743045806885e-01 1.8965545296669006e-01</leafValues></_>
    <_>
      <internalNodes>
        0 -1 3621 -536482624 465268494 -2076945493 486657104 1786586282
        -1047152273 -658158901 780094423</internalNodes>
      <leafValues>
        -1.7920549213886261e-01 1.5624816715717316e-01</leafValues></_>
    <_>
      <internalNodes>
        0 -1 1072 1633830854 957057378 -837400993 -379032551 38945984
        973375269 1204735134 1458919111</internalNodes>
      <leafValues>
        -2.1550795435905457e-01 1.2090706080198288e-01</leafValues></_>
    <_>
      <internalNodes>
        0 -1 8004 105249 -49623600 1329120839 -857333918 675354605
        1796204963 -841123277 91997633</internalNodes>
      <leafValues>
        -1.9547066092491150e-01 1.4866586029529572e-01</leafValues></_>
    <_>
      <internalNodes>
        0 -1 3318 1479724236 -1174472811 -15797906 -1085883330
        -204122107 1538374336 -1600508988 1603750422</internalNodes>
      <leafValues>
        -1.8946972489356995e-01 1.4849720895290375e-01</leafValues></_>
    <_>
      <internalNodes>
        0 -1 7813 103260083 -1741251732 -1762171855 -857665112
        1082792484 138938544 1479361569 -867371796</internalNodes>
      <leafValues>
        -2.0435556769371033e-01 1.4436839520931244e-01</leafValues></_>
    <_>
      <internalNodes>
        0 -1 1772 1080337199 -689976505 464585553 -1057775246 1244853072
        -1929543258 2124371254 1102786679</internalNodes>
      <leafValues>
        -2.1487717330455780e-01 1.3340178132057190e-01</leafValues></_>
    <_>
      <internalNodes>
        0 -1 2662 1727090349 450113110 -393042917 705190364 -959101948
        534317363 1511147364 -46008282</internalNodes>
      <leafValues>
        -2.2691962122917175e-01 1.2779782712459564e-01</leafValues></_>
    <_>
      <internalNodes>
        0 -1 2209 1587075503 2064626051 -1243136649 -1229653535
        1518288546 -324539477 -420090385 -895515669</internalNodes>
      <leafValues>
        -1.2705948948860168e-01 2.4524495005607605e-01</leafValues></_>
    <_>
      <internalNodes>
        0 -1 5334 337438356 -2078738304 -1708124674 -576785974
        -1060932368 -1884054613 1813710813 686594056</internalNodes>
      <leafValues>
        -2.4237760901451111e-01 1.4079742133617401e-01</leafValues></_>
    <_>
      <internalNodes>
        0 -1 7789 1396177322 415877765 603749405 -1118591455 -1660604487
        -1644810754 -1055410945 -194151971</internalNodes>
      <leafValues>
        -1.5460744500160217e-01 2.0121231675148010e-01</leafValues></_>
    <_>
      <internalNodes>
        0 -1 6300 -361258966 -752898164 238931974 -1141231650 1683874052
        1929148904 -488799528 -974672656</internalNodes>
      <leafValues>
        -1.4799490571022034e-01 1.9246558845043182e-01</leafValues></_>
    <_>
      <internalNodes>
        0 -1 6751 -129766790 -1336744105 -1968605020 -715202006
        1997949833 410308744 -814645810 1663295683</internalNodes>
      <leafValues>
        -1.8263550102710724e-01 1.5593613684177399e-01</leafValues></_>
    <_>
      <internalNodes>
        0 -1 7680 -751045343 -492248126 521745589 -563217199 -1350607491
        -1903233237 1968174957 -2052337414</internalNodes>
      <leafValues>
        -1.3952682912349701e-01 2.0869889855384827e-01</leafValues></_>
    <_>
      <internalNodes>
        0 -1 7776 705660048 958948526 -391603719 -1115620318 -250271535
        968133328 -73368407 -1944574894</internalNodes>
      <leafValues>
        -1.9722580909729004e-01 1.5100736916065216e-01</leafValues></_>
    <_>
      <internalNodes>
        0 -1 4241 -110696581 1434140262 1654260881 -1780642270
        1743579588 -1284855534 -286934134 1473602474</internalNodes>
      <leafValues>
        -1.5710456669330597e-01 1.9573065638542175e-01</leafValues></_>
    <_>
      <internalNodes>
        0 -1 5952 -767303037 -816059825 98770749 -775750914 861370613
        1154088609 1375508361 -188356621</internalNodes>
      <leafValues>
        -1.3113147020339966e-01 2.2570182383060455e-01</leafValues></_>
    <_>
      <internalNodes>
        0 -1 8429 -195238910 1116074189 -163039728 -1575234613 -17611007
        1250943081 -159467820 1882192847</internalNodes>
      <leafValues>
        -2.4107524752616882e-01 1.2281554937362671e-01</leafValues></_>
    <_>
      <internalNodes>
        0 -1 6280 -784341485 1458962202 661087256 -1364869253 -805340185
        1346796935 -145019936 -1262292158</internalNodes>
      <leafValues>
        -1.5143829584121704e-01 1.9560368359088898e-01</leafValues></_>
    <_>
      <internalNodes>
        0 -1 8136 1096909984 -1149203546 1988857529 1974497210
        -1267826468 -1680749131 -1074787093 -1393941162</internalNodes>
      <leafValues>
        -1.7188066244125366e-01 1.8326500058174133e-01</leafValues></_>
    <_>
      <internalNodes>
        0 -1 5278 142689029 -1758432458 -132314470 -1155170802
        -560033083 1866664876 510347253 547650680</internalNodes>
      <leafValues>
        -2.4589306116104126e-01 1.2586905062198639e-01</leafValues></_>
    <_>
      <internalNodes>
        0 -1 5574 -419585661 -672856161 -150760841 -1248985928 758562549
        267714216 1996225279 -553651413</internalNodes>
      <leafValues>
        -1.1050199717283249e-01 2.9014569520950317e-01</leafValues></_>
    <_>
      <internalNodes>
        0 -1 1645 1686958754 -1332701512 -1480510453 -1330062400 6113812
        -1247668589 -809759224 1611268105</internalNodes>
      <leafValues>
        -2.7192705869674683e-01 1.1177045851945877e-01</leafValues></_>
    <_>
      <internalNodes>
        0 -1 7357 37633425 -1909962244 1030561668 -1108295692
        -1962118471 -1086574352 122181361 -1935864771</internalNodes>
      <leafValues>
        -2.3827132582664490e-01 1.3137331604957581e-01</leafValues></_>
    <_>
      <internalNodes>
        0 -1 8034 -2007796703 -403271192 492634597 -784419492 746429431
        -1416891636 1293089142 -1682476843</internalNodes>
      <leafValues>
        -1.8715633451938629e-01 1.6052676737308502e-01</leafValues></_>
    <_>
      <internalNodes>
        0 -1 4769 -1964339650 1991778959 -158065800 1963363966
        1553727888 134531240 1073613822 -1363444936</internalNodes>
      <leafValues>
        -1.8391256034374237e-01 1.6871222853660583e-01</leafValues></_>
    <_>
      <internalNodes>
        0 -1 6910 -752369249 1936411299 -842388584 -741772374
        -1145830036 1168825739 2062796699 1672014489</internalNodes>
      <leafValues>
        -1.5138231217861176e-01 2.0941403508186340e-01</leafValues></_>
    <_>
      <internalNodes>
        0 -1 7377 1122448716 451486686 -1210468680 989180595 200683811
        1278860283 706576206 18043222</internalNodes>
      <leafValues>
        -2.2797171771526337e-01 1.3859516382217407e-01</leafValues></_>
    <_>
      <internalNodes>
        0 -1 3718 -122763597 -1671156206 1589511991 -1154861076
        931577980 -941203457 -2009309934 -270046861</internalNodes>
      <leafValues>
        -1.5079125761985779e-01 2.1069158613681793e-01</leafValues></_>
    <_>
      <internalNodes>
        0 -1 8395 -57496543 -1048915493 -1035871599 -716611590
        1926060931 138782769 1294648006 1215406887</internalNodes>
      <leafValues>
        -1.7710092663764954e-01 1.7478337883949280e-01</leafValues></_>
    <_>
      <internalNodes>
        0 -1 5700 -61561225 -1102394156 -583187395 533419189 -824931344
        -1361853020 -590000849 -88510837</internalNodes>
      <leafValues>
        -1.2482409924268723e-01 2.6166367530822754e-01</leafValues></_>
    <_>
      <internalNodes>
        0 -1 21 707306498 -1086652577 215700132 -2005434553 -430257115
        -185478351 1330924796 2098275408</internalNodes>
      <leafValues>
        -3.0683296918869019e-01 1.0709650814533234e-01</leafValues></_>
    <_>
      <internalNodes>
        0 -1 141 -185225331 -411579 -918090051 -2098537032 139400463
        -1851291760 -59980579 -137930070</internalNodes>
      <leafValues>
        -1.7979650199413300e-01 1.7487874627113342e-01</leafValues></_>
    <_>
      <internalNodes>
        0 -1 1889 922676606 -1231578372 -163723427 -1612371116
        -864429372 -865392409 -227508365 -860690735</internalNodes>
      <leafValues>
        -1.5145407617092133e-01 2.1494629979133606e-01</leafValues></_>
    <_>
      <internalNodes>
        0 -1 479 -1074902121 -1133705476 753322122 1325032039
        -2009029792 -746501659 -1018791313 1152347543</internalNodes>
      <leafValues>
        -1.9459643959999084e-01 1.6409212350845337e-01</leafValues></_>
    <_>
      <internalNodes>
        0 -1 5472 -667416030 662900245 -997329315 -1923127860 700495592
        1596252479 -660473644 1289689378</internalNodes>
      <leafValues>
        -2.4706338346004486e-01 1.2831234931945801e-01</leafValues></_>
    <_>
      <internalNodes>
        0 -1 5552 -298061923 1346158064 -1662440092 1806792583
        -528323026 -1623478119 569956219 -1651712809</internalNodes>
      <leafValues>
        -1.4458785951137543e-01 2.2823315858840942e-01</leafValues></_>
    <_>
      <internalNodes>
        0 -1 5191 1518774724 -1325153204 561023014 -1884320009
        -1619031096 -1727295382 -1011372485 1433764450</internalNodes>
      <leafValues>
        -1.9362072646617889e-01 1.6858205199241638e-01</leafValues></_>
    <_>
      <internalNodes>
        0 -1 7914 138020112 1882721996 -1676927979 169904958 785647088
        48167403 909778506 -1038918458</internalNodes>
      <leafValues>
        -2.5880637764930725e-01 1.2454101443290710e-01</leafValues></_>
    <_>
      <internalNodes>
        0 -1 7300 1186792592 1495853760 951452407 350587511 -2057036319
        -615544264 1281629420 671233186</internalNodes>
      <leafValues>
        -2.5437179207801819e-01 1.2220355868339539e-01</leafValues></_>
    <_>
      <internalNodes>
        0 -1 3483 474917552 3214676 -150092583 1507862832 -1915806162
        -1243066178 1029160092 746402406</internalNodes>
      <leafValues>
        -3.0062565207481384e-01 1.0064494609832764e-01</leafValues></_>
    <_>
      <internalNodes>
        0 -1 7306 -1335385204 -1271307002 -2006387074 -1183915230
        1131546096 335577763 -185272834 -313831033</internalNodes>
      <leafValues>
        -1.6036619246006012e-01 1.9552172720432281e-01</leafValues></_></weakClassifiers></stage12>
</opencv_storage>
