<?xml version="1.0"?>
<opencv_storage>
<stage18>
  <maxWeakCount>28</maxWeakCount>
  <stageThreshold>-1.0860546827316284e+00</stageThreshold>
  <weakClassifiers>
    <_>
      <internalNodes>
        0 -1 2144 -159973457 -75576377 2005376254 101879826 1519736129
        -1145382893 -123774056 -638088350</internalNodes>
      <leafValues>
        -5.2252781391143799e-01 -1.1356575787067413e-01</leafValues></_>
    <_>
      <internalNodes>
        0 -1 8450 -87053021 13548494 1186552640 215283636 1778849191
        -374015609 1944432592 -842924566</internalNodes>
      <leafValues>
        -2.4413576722145081e-01 1.9309073686599731e-01</leafValues></_>
    <_>
      <internalNodes>
        0 -1 3269 1217537147 -183537547 -1816459553 2146029963
        -985941512 -1412890366 1141176719 796044139</internalNodes>
      <leafValues>
        -2.4377223849296570e-01 1.9381867349147797e-01</leafValues></_>
    <_>
      <internalNodes>
        0 -1 1071 1848310483 -46991832 -932219148 364769444 1459285694
        -553844739 1912537254 -925016945</internalNodes>
      <leafValues>
        -1.8749894201755524e-01 2.5804665684700012e-01</leafValues></_>
    <_>
      <internalNodes>
        0 -1 7441 1261033318 -634520011 -67436696 -80971973 -1832987479
        605846839 1453172479 160392795</internalNodes>
      <leafValues>
        -2.0121122896671295e-01 2.3815576732158661e-01</leafValues></_>
    <_>
      <internalNodes>
        0 -1 1040 -695914531 -891732476 2006948967 1821642337 -399719808
        -96391551 245327547 491993619</internalNodes>
      <leafValues>
        -2.5470530986785889e-01 1.9464381039142609e-01</leafValues></_>
    <_>
      <internalNodes>
        0 -1 4775 -419772892 482616502 -729281350 990967442 10555543
        1411647770 1338966120 2135037910</internalNodes>
      <leafValues>
        -3.0739206075668335e-01 1.6614560782909393e-01</leafValues></_>
    <_>
      <internalNodes>
        0 -1 4709 -344013792 1429520680 1313493203 757404984 1954290426
        521546032 -1472795767 972173086</internalNodes>
      <leafValues>
        -2.7211201190948486e-01 1.9304604828357697e-01</leafValues></_>
    <_>
      <internalNodes>
        0 -1 3760 -354473897 -1942590023 -1064949641 -553496200
        1678256688 -1969553404 -23050184 -1421720974</internalNodes>
      <leafValues>
        -2.7429798245429993e-01 2.0187038183212280e-01</leafValues></_>
    <_>
      <internalNodes>
        0 -1 7885 -1146119623 -163955170 -600367340 1001848635
        1818618079 452918935 -1929445578 -678474434</internalNodes>
      <leafValues>
        -1.9527857005596161e-01 2.8245395421981812e-01</leafValues></_>
    <_>
      <internalNodes>
        0 -1 4784 112074532 884655277 656810798 573758212 159466019
        784433791 916353367 68419940</internalNodes>
      <leafValues>
        -5.4448896646499634e-01 9.0897522866725922e-02</leafValues></_>
    <_>
      <internalNodes>
        0 -1 7718 1517725143 519710139 1073702667 -1145144151 -330014988
        743174131 2140912793 -1712597651</internalNodes>
      <leafValues>
        -1.9407422840595245e-01 2.7912604808807373e-01</leafValues></_>
    <_>
      <internalNodes>
        0 -1 7551 1112572560 1360554333 522499987 1463998162 1374190238
        -1927308145 -1071494498 757327523</internalNodes>
      <leafValues>
        -2.6254954934120178e-01 2.1219140291213989e-01</leafValues></_>
    <_>
      <internalNodes>
        0 -1 8449 2061700993 679201473 -996686776 545586154 1701072649
        1502501356 -689553134 1413021074</internalNodes>
      <leafValues>
        -3.9539334177970886e-01 1.3652668893337250e-01</leafValues></_>
    <_>
      <internalNodes>
        0 -1 7313 -170164551 1355087793 1874840657 1156054704
        -1706776287 -1990349074 1656592744 -906782902</internalNodes>
      <leafValues>
        -2.1248802542686462e-01 2.7008268237113953e-01</leafValues></_>
    <_>
      <internalNodes>
        0 -1 3538 -391998336 26262368 92895337 -2050011017 -1716838107
        -324075090 2089353580 44370695</internalNodes>
      <leafValues>
        -3.5118070244789124e-01 1.5537793934345245e-01</leafValues></_>
    <_>
      <internalNodes>
        0 -1 3550 621587232 458972369 831795857 143007888 1093804833
        715174319 1858417714 80697970</internalNodes>
      <leafValues>
        -4.5734664797782898e-01 1.2587633728981018e-01</leafValues></_>
    <_>
      <internalNodes>
        0 -1 3058 1197066803 -692773634 653929355 -591096591 1564306878
        -537539933 -1195627524 -1085754989</internalNodes>
      <leafValues>
        -1.6162358224391937e-01 3.4362751245498657e-01</leafValues></_>
    <_>
      <internalNodes>
        0 -1 6068 -667353891 -1620804485 -8503555 -1779360407 -379188043
        -1342566401 -27634566 -1114941446</internalNodes>
      <leafValues>
        -1.6291506588459015e-01 3.3387127518653870e-01</leafValues></_>
    <_>
      <internalNodes>
        0 -1 4943 602098758 1329824370 354583441 -401280454 -1566435046
        -884391103 -86496064 1643172452</internalNodes>
      <leafValues>
        -3.8166362047195435e-01 1.5478651225566864e-01</leafValues></_>
    <_>
      <internalNodes>
        0 -1 8056 319490690 3757263 -775337204 -695413299 -133308115
        -1466985807 77695013 -1059683171</internalNodes>
      <leafValues>
        -3.5193470120429993e-01 1.6192981600761414e-01</leafValues></_>
    <_>
      <internalNodes>
        0 -1 87 7489106 524714531 -469712229 17919175 -2147095311
        2037317786 -558134931 1371784961</internalNodes>
      <leafValues>
        -3.2830938696861267e-01 1.6906577348709106e-01</leafValues></_>
    <_>
      <internalNodes>
        0 -1 1881 262021306 550159420 -1156578956 -822999329 -400535192
        517525752 -852219780 -1359986623</internalNodes>
      <leafValues>
        -3.6399561166763306e-01 1.5911814570426941e-01</leafValues></_>
    <_>
      <internalNodes>
        0 -1 3704 222554006 924975618 -1344657869 -1392263083
        -2130606342 -632790642 1816927480 224294062</internalNodes>
      <leafValues>
        -2.6367005705833435e-01 2.3690748214721680e-01</leafValues></_>
    <_>
      <internalNodes>
        0 -1 4075 -940056905 169582094 132198119 -412768344 1031665071
        1870659484 -1126888917 -606745247</internalNodes>
      <leafValues>
        -2.0773199200630188e-01 2.8208225965499878e-01</leafValues></_>
    <_>
      <internalNodes>
        0 -1 4958 664156360 192219650 558263251 -1996537200 1476405634
        -1653561254 1819017828 73457920</internalNodes>
      <leafValues>
        -4.6329331398010254e-01 1.3841520249843597e-01</leafValues></_>
    <_>
      <internalNodes>
        0 -1 5316 1957286400 1770267654 36971080 -1875581008 1767545174
        -1083088097 -993903534 643036210</internalNodes>
      <leafValues>
        -3.6935055255889893e-01 1.5574619174003601e-01</leafValues></_>
    <_>
      <internalNodes>
        0 -1 6432 1003360180 1233683456 -515493132 -1315399334 198122116
        1227247045 -1887365684 719083572</internalNodes>
      <leafValues>
        -4.0572640299797058e-01 1.4943513274192810e-01</leafValues></_></weakClassifiers></stage18>
</opencv_storage>
