<?xml version="1.0"?>
<opencv_storage>
<stage9>
  <maxWeakCount>50</maxWeakCount>
  <stageThreshold>-1.0294451713562012e+00</stageThreshold>
  <weakClassifiers>
    <_>
      <internalNodes>
        0 -1 79 2055161423 -15239681 -18877729 1934884607 -800465698
        -46060715 -29696577 1107492699</internalNodes>
      <leafValues>
        -2.3510324954986572e-01 2.0820513367652893e-01</leafValues></_>
    <_>
      <internalNodes>
        0 -1 8395 -33558623 83816431 1711134516 -303136769 -980035247
        4714431 -173574651 -1040187925</internalNodes>
      <leafValues>
        -1.8165759742259979e-01 2.5214830040931702e-01</leafValues></_>
    <_>
      <internalNodes>
        0 -1 7215 -231552884 285348615 -142708877 855871267 -698350396
        -1124989307 -12657462 -71566365</internalNodes>
      <leafValues>
        -1.7650379240512848e-01 2.2298091650009155e-01</leafValues></_>
    <_>
      <internalNodes>
        0 -1 7404 -319838701 -103128117 1026364691 -1611964413
        -1931882801 -1533477235 -1091706177 9629300</internalNodes>
      <leafValues>
        -2.6386177539825439e-01 1.1909450590610504e-01</leafValues></_>
    <_>
      <internalNodes>
        0 -1 4779 -21357452 -38267084 -1464173187 798506168 -42329936
        -598847639 -1363927812 -1105184720</internalNodes>
      <leafValues>
        -1.8366526067256927e-01 2.2446045279502869e-01</leafValues></_>
    <_>
      <internalNodes>
        0 -1 6521 -976251613 226849226 1938661375 463429111 -6704684
        -873923658 -1761733199 -977273269</internalNodes>
      <leafValues>
        -2.0681869983673096e-01 1.7862378060817719e-01</leafValues></_>
    <_>
      <internalNodes>
        0 -1 1534 -86356984 -156872104 -286092418 -362129426 -1851891968
        -137411778 -1911898930 -13434929</internalNodes>
      <leafValues>
        -1.8783260881900787e-01 1.9007973372936249e-01</leafValues></_>
    <_>
      <internalNodes>
        0 -1 89 167805146 -68501710 -1459519266 -182127663 598313182
        -21931551 -1838818216 1392985152</internalNodes>
      <leafValues>
        -3.0134874582290649e-01 9.1298930346965790e-02</leafValues></_>
    <_>
      <internalNodes>
        0 -1 621 772238047 785802038 773333758 110344086 1969031250
        822062369 1670372211 -13254057</internalNodes>
      <leafValues>
        -2.0518293976783752e-01 1.5518680214881897e-01</leafValues></_>
    <_>
      <internalNodes>
        0 -1 4780 -1136751013 512771882 -1235315779 688918586 2077252828
        -21488420 -1351602853 -1081020805</internalNodes>
      <leafValues>
        -1.4893618226051331e-01 2.1182246506214142e-01</leafValues></_>
    <_>
      <internalNodes>
        0 -1 2981 614509312 -1315070128 -1346311463 500524320 560486584
        -124139639 552009864 -1411575608</internalNodes>
      <leafValues>
        -2.7455204725265503e-01 1.1051494628190994e-01</leafValues></_>
    <_>
      <internalNodes>
        0 -1 7627 -538863693 -368296990 -37920968 -1649480472 83723749
        -1347651587 -1587192608 -805589590</internalNodes>
      <leafValues>
        -1.1465841531753540e-01 2.5792267918586731e-01</leafValues></_>
    <_>
      <internalNodes>
        0 -1 5614 1791855362 981629322 1046512026 -457769350 1096647060
        -1455668210 -420651368 -356582266</internalNodes>
      <leafValues>
        -1.9738413393497467e-01 1.6317647695541382e-01</leafValues></_>
    <_>
      <internalNodes>
        0 -1 3621 -612184192 522366336 884791096 495752536 -97189208
        -916055458 1481757322 462372940</internalNodes>
      <leafValues>
        -2.1577996015548706e-01 1.4901421964168549e-01</leafValues></_>
    <_>
      <internalNodes>
        0 -1 5912 -523771390 803917459 -857736416 -2096350538 1667007107
        1449007910 -428130816 -456867136</internalNodes>
      <leafValues>
        -2.3285093903541565e-01 1.4393399655818939e-01</leafValues></_>
    <_>
      <internalNodes>
        0 -1 2758 -756489506 1206859341 1937177519 1681913727
        -1889087448 -301078700 -629145827 -76290213</internalNodes>
      <leafValues>
        -1.2130663543939590e-01 2.5551322102546692e-01</leafValues></_>
    <_>
      <internalNodes>
        0 -1 3817 671097860 -1138852299 766864959 -1105366366 1682550580
        -1494357579 -320021255 3489894</internalNodes>
      <leafValues>
        -3.6107358336448669e-01 8.8201060891151428e-02</leafValues></_>
    <_>
      <internalNodes>
        0 -1 4037 769630983 871176573 1358962822 -847204303 2135908095
        977771158 -461365235 633438378</internalNodes>
      <leafValues>
        -2.1743273735046387e-01 1.4941059052944183e-01</leafValues></_>
    <_>
      <internalNodes>
        0 -1 3191 -899781515 523783997 -679313656 219945063 -733448111
        -1131523950 -489017492 -1204789451</internalNodes>
      <leafValues>
        -2.6291626691818237e-01 1.1037882417440414e-01</leafValues></_>
    <_>
      <internalNodes>
        0 -1 5694 -198001227 930100571 -822186347 -1190645964 1876296936
        935466622 2097039612 -1086631664</internalNodes>
      <leafValues>
        -1.5806287527084351e-01 1.9902448356151581e-01</leafValues></_>
    <_>
      <internalNodes>
        0 -1 4341 4 9756105 -698703914 719371245 -178512380 833806532
        -242844396 545266976</internalNodes>
      <leafValues>
        -4.6706566214561462e-01 6.6667228937149048e-02</leafValues></_>
    <_>
      <internalNodes>
        0 -1 7760 1784285188 840049467 -1973401427 855717695 754795828
        -336006766 1896656638 -1547393522</internalNodes>
      <leafValues>
        -2.0505958795547485e-01 1.5514378249645233e-01</leafValues></_>
    <_>
      <internalNodes>
        0 -1 5891 -25678661 1059797810 -1096811841 1063204647 165169733
        -102212 -1897382985 1223464488</internalNodes>
      <leafValues>
        -2.1059761941432953e-01 1.5479092299938202e-01</leafValues></_>
    <_>
      <internalNodes>
        0 -1 11 -228096354 -1416765749 -1442152489 -1384784326 872181235
        -1412743248 1974599011 1411507059</internalNodes>
      <leafValues>
        -1.7502853274345398e-01 1.8616540729999542e-01</leafValues></_>
    <_>
      <internalNodes>
        0 -1 3686 1854848662 294947508 -401991888 -855416230 276299988
        1787342140 1504201898 2097616654</internalNodes>
      <leafValues>
        -2.3103435337543488e-01 1.4151604473590851e-01</leafValues></_>
    <_>
      <internalNodes>
        0 -1 554 -2041270496 205975538 1111156778 212773028 1346429014
        1355740731 656922118 1078204181</internalNodes>
      <leafValues>
        -4.1973474621772766e-01 8.1827305257320404e-02</leafValues></_>
    <_>
      <internalNodes>
        0 -1 6436 342109364 522874800 -812766315 -1089413904 498077104
        1593740029 -613149256 -1707997078</internalNodes>
      <leafValues>
        -2.5891843438148499e-01 1.2727341055870056e-01</leafValues></_>
    <_>
      <internalNodes>
        0 -1 6648 -210007414 1516687233 112219800 -1291866456 1913889997
        367525364 -982952804 -163079262</internalNodes>
      <leafValues>
        -1.5469326078891754e-01 2.2246828675270081e-01</leafValues></_>
    <_>
      <internalNodes>
        0 -1 8063 -1363271887 -564515296 -674149091 -6515958 784481264
        -1351987105 -1799873954 -1079813762</internalNodes>
      <leafValues>
        -1.9053767621517181e-01 1.8622355163097382e-01</leafValues></_>
    <_>
      <internalNodes>
        0 -1 0 673891855 1001975535 -273793155 -1917846021 -261263953
        1843106175 -218138881 1933640547</internalNodes>
      <leafValues>
        -1.7922157049179077e-01 1.9336043298244476e-01</leafValues></_>
    <_>
      <internalNodes>
        0 -1 8455 -572522877 78640055 1744586052 -85681173 1157322192
        -1041369713 -1787041885 -654508145</internalNodes>
      <leafValues>
        -1.6678024828433990e-01 2.0808884501457214e-01</leafValues></_>
    <_>
      <internalNodes>
        0 -1 5244 470826180 947828031 1287499688 176865013 -417009353
        1825788533 1751351047 1358446581</internalNodes>
      <leafValues>
        -2.8657373785972595e-01 1.2144987285137177e-01</leafValues></_>
    <_>
      <internalNodes>
        0 -1 7136 2052608769 25840900 1066972602 -1591395172 1278879359
        1298328416 1943302768 13489852</internalNodes>
      <leafValues>
        -2.8532966971397400e-01 1.1793547868728638e-01</leafValues></_>
    <_>
      <internalNodes>
        0 -1 6357 -712588856 302304962 1078001234 -1252937837 264833242
        -138610304 -865310309 903220954</internalNodes>
      <leafValues>
        -2.1011070907115936e-01 1.6146723926067352e-01</leafValues></_>
    <_>
      <internalNodes>
        0 -1 6795 -899175680 6480854 -1426819040 750028916 1083134208
        1123137980 94331908 1276441710</internalNodes>
      <leafValues>
        -4.3849277496337891e-01 7.6601773500442505e-02</leafValues></_>
    <_>
      <internalNodes>
        0 -1 6780 -352932832 -757065871 -1049560612 858840624 85478796
        -848085163 -59523864 -872713386</internalNodes>
      <leafValues>
        -1.8260988593101501e-01 1.9514560699462891e-01</leafValues></_>
    <_>
      <internalNodes>
        0 -1 5094 -163053917 -1043532249 -2042638542 -1248876739
        -654338049 1345834030 -1829708592 -251681430</internalNodes>
      <leafValues>
        -1.3108824193477631e-01 2.7440696954727173e-01</leafValues></_>
    <_>
      <internalNodes>
        0 -1 7890 -1306478863 -1024706038 -134848513 -1633093086
        -1998113883 -290530081 1314579182 -873531999</internalNodes>
      <leafValues>
        -1.7182862758636475e-01 2.1126513183116913e-01</leafValues></_>
    <_>
      <internalNodes>
        0 -1 3708 -2086794214 443871162 681839373 232631123 -412863296
        1765963556 157318720 2136077942</internalNodes>
      <leafValues>
        -2.7970057725906372e-01 1.2113964557647705e-01</leafValues></_>
    <_>
      <internalNodes>
        0 -1 7145 1441649489 1514680177 1476279090 453705279 1803290556
        -89358465 1929247691 1575439667</internalNodes>
      <leafValues>
        -1.5900951623916626e-01 2.1845087409019470e-01</leafValues></_>
    <_>
      <internalNodes>
        0 -1 2490 1512319074 346164518 -1847095631 -672351936 559629493
        149610707 -2146631588 1651562566</internalNodes>
      <leafValues>
        -2.5506401062011719e-01 1.4268028736114502e-01</leafValues></_>
    <_>
      <internalNodes>
        0 -1 7354 -1472777167 822089554 -1621873164 -1355533096 81428656
        -1374783873 501298813 -1935095392</internalNodes>
      <leafValues>
        -2.4491611123085022e-01 1.4271309971809387e-01</leafValues></_>
    <_>
      <internalNodes>
        0 -1 787 1214077618 1102389111 -2108437213 531288134 1731801933
        1567879881 -113521940 1081370626</internalNodes>
      <leafValues>
        -3.1200465559959412e-01 1.1662376672029495e-01</leafValues></_>
    <_>
      <internalNodes>
        0 -1 4192 -999315942 1377865698 -1347193760 -618680724
        -956757861 246726360 -557403233 -356687449</internalNodes>
      <leafValues>
        -1.5602333843708038e-01 2.3383341729640961e-01</leafValues></_>
    <_>
      <internalNodes>
        0 -1 5386 529754624 -995609049 1192600989 1569924770 541139276
        -2009963748 645727285 11535507</internalNodes>
      <leafValues>
        -3.4875780344009399e-01 1.0301917046308517e-01</leafValues></_>
    <_>
      <internalNodes>
        0 -1 4132 -1757050198 -1675021270 1481679441 1683872836
        -45344464 -1083137097 2064955922 1263515923</internalNodes>
      <leafValues>
        -2.3222847282886505e-01 1.4941737055778503e-01</leafValues></_>
    <_>
      <internalNodes>
        0 -1 4205 341180021 1885105826 -721969127 -539647898 -67050096
        1988537020 1258140109 -1427332931</internalNodes>
      <leafValues>
        -1.4298859238624573e-01 2.6242619752883911e-01</leafValues></_>
    <_>
      <internalNodes>
        0 -1 8210 648159234 -2102901268 1462709507 -904488992 706647141
        1324068371 110566149 1172861285</internalNodes>
      <leafValues>
        -3.7972885370254517e-01 9.1614522039890289e-02</leafValues></_>
    <_>
      <internalNodes>
        0 -1 7069 -874015452 -98148511 -1086492720 -1724221084
        1382517929 1554572732 -1112251464 -938478726</internalNodes>
      <leafValues>
        -1.6149693727493286e-01 2.1556185185909271e-01</leafValues></_>
    <_>
      <internalNodes>
        0 -1 6423 1511878256 501234132 -1145877132 218064854 426789912
        788797441 -1754727172 -1621115791</internalNodes>
      <leafValues>
        -2.2481939196586609e-01 1.6305723786354065e-01</leafValues></_></weakClassifiers></stage9>
</opencv_storage>
