<?xml version="1.0"?>
<opencv_storage>
<stage14>
  <maxWeakCount>29</maxWeakCount>
  <stageThreshold>-1.0667008161544800e+00</stageThreshold>
  <weakClassifiers>
    <_>
      <internalNodes>
        0 -1 2178 -20051905 -94418156 -1072557731 -72125477 -70598028
        -81261819 -422387778 -14485633</internalNodes>
      <leafValues>
        -3.5835525393486023e-01 9.3667544424533844e-02</leafValues></_>
    <_>
      <internalNodes>
        0 -1 8028 -608316125 -233177363 -293601979 -973078626
        -1393579378 -1495030354 -2013279814 -2116039281</internalNodes>
      <leafValues>
        -1.7468644678592682e-01 2.8101933002471924e-01</leafValues></_>
    <_>
      <internalNodes>
        0 -1 2950 168464724 398398513 -957557323 -2048795030 584221104
        -1074356032 242025680 -1984088844</internalNodes>
      <leafValues>
        -2.5543829798698425e-01 1.8070288002490997e-01</leafValues></_>
    <_>
      <internalNodes>
        0 -1 2201 -163386385 -572492095 -1352401031 -1105177998
        1559181631 -537436329 -67166211 -1346937030</internalNodes>
      <leafValues>
        -1.8707393109798431e-01 2.4385394155979156e-01</leafValues></_>
    <_>
      <internalNodes>
        0 -1 7633 -2097225739 -1113973616 2138406397 -1079226708
        -922993479 -1365475548 511122924 -1413697384</internalNodes>
      <leafValues>
        -1.7294239997863770e-01 2.5294965505599976e-01</leafValues></_>
    <_>
      <internalNodes>
        0 -1 8134 -822089837 147455360 1746234141 -1455847209 -903890285
        1219281377 894423088 217558783</internalNodes>
      <leafValues>
        -2.4360819160938263e-01 1.8900643289089203e-01</leafValues></_>
    <_>
      <internalNodes>
        0 -1 2662 2063051895 1406618851 -1864702273 1577338950
        -894418352 -82495465 -199693394 -76420055</internalNodes>
      <leafValues>
        -2.0193886756896973e-01 2.1936593949794769e-01</leafValues></_>
    <_>
      <internalNodes>
        0 -1 7914 -334883499 1041892682 -1256281953 973080922 1653503712
        -1711656053 1861108586 -1437403618</internalNodes>
      <leafValues>
        -2.5630629062652588e-01 1.7694106698036194e-01</leafValues></_>
    <_>
      <internalNodes>
        0 -1 3625 906106082 1594818090 1731972371 894004912 1628300680
        -1658946056 -1322910561 1878994555</internalNodes>
      <leafValues>
        -2.0076334476470947e-01 2.2675120830535889e-01</leafValues></_>
    <_>
      <internalNodes>
        0 -1 2367 -1087266150 1566106240 588256845 2084534544 11406089
        751868147 1280256539 1180488242</internalNodes>
      <leafValues>
        -2.9789623618125916e-01 1.7208333313465118e-01</leafValues></_>
    <_>
      <internalNodes>
        0 -1 135 1185180874 237472706 -22376398 628350054 -615661349
        1125290516 -2111601768 1979935094</internalNodes>
      <leafValues>
        -3.3743968605995178e-01 1.1829070001840591e-01</leafValues></_>
    <_>
      <internalNodes>
        0 -1 6153 -832723167 765184430 -2045143779 -1342180614
        2006919689 747423945 1174040692 -1578108881</internalNodes>
      <leafValues>
        -2.8208789229393005e-01 1.8485254049301147e-01</leafValues></_>
    <_>
      <internalNodes>
        0 -1 2270 591283349 -1512351532 -1416525541 -302231100
        -1852899172 -342113593 -857338640 -1602206632</internalNodes>
      <leafValues>
        -3.0843445658683777e-01 1.6391719877719879e-01</leafValues></_>
    <_>
      <internalNodes>
        0 -1 6760 -294205544 1472075592 1064116276 -2053058 1577026997
        -852945316 -195697784 -185342558</internalNodes>
      <leafValues>
        -2.0089648663997650e-01 2.5014898180961609e-01</leafValues></_>
    <_>
      <internalNodes>
        0 -1 5694 -1037822476 993541694 -764733488 -1187503506
        -1462040408 1501696166 -286388775 -1149601414</internalNodes>
      <leafValues>
        -2.1848911046981812e-01 2.2417245805263519e-01</leafValues></_>
    <_>
      <internalNodes>
        0 -1 5912 -1038620374 1776918234 -1021714941 -368470494
        -405226611 1558752307 1657330665 -532483392</internalNodes>
      <leafValues>
        -2.3254743218421936e-01 2.2991329431533813e-01</leafValues></_>
    <_>
      <internalNodes>
        0 -1 7501 -520731375 1517369179 -1896923949 -1214059826
        -814992936 -1104242725 -1909191014 -211556230</internalNodes>
      <leafValues>
        -2.0472960174083710e-01 2.5723585486412048e-01</leafValues></_>
    <_>
      <internalNodes>
        0 -1 6188 2040010717 -1149583690 1073168181 -160433943
        1476374959 -833079477 -1699858981 -205233020</internalNodes>
      <leafValues>
        -1.9249165058135986e-01 2.6382175087928772e-01</leafValues></_>
    <_>
      <internalNodes>
        0 -1 4205 1347793058 1385475620 -1336737239 1820820390
        1544598672 1510844066 1348585740 440729643</internalNodes>
      <leafValues>
        -3.3346492052078247e-01 1.5563307702541351e-01</leafValues></_>
    <_>
      <internalNodes>
        0 -1 12 899844634 872206036 -901692077 1360235007 1649903745
        -1121357052 -1050850380 1176518727</internalNodes>
      <leafValues>
        -3.3868995308876038e-01 1.4511062204837799e-01</leafValues></_>
    <_>
      <internalNodes>
        0 -1 4634 1266939009 -352990675 -185612967 -1075054572
        -941117197 1089305975 -152101476 -536739</internalNodes>
      <leafValues>
        -1.6573511064052582e-01 3.0680051445960999e-01</leafValues></_>
    <_>
      <internalNodes>
        0 -1 8374 1371510545 -1821657585 -20971532 -295174414 1189865119
        741984240 1979090391 1173338435</internalNodes>
      <leafValues>
        -2.1056668460369110e-01 2.4242475628852844e-01</leafValues></_>
    <_>
      <internalNodes>
        0 -1 238 -218372028 2087402512 105021920 -1169283936 1622585175
        -166201273 1522922070 -597322513</internalNodes>
      <leafValues>
        -2.6797753572463989e-01 1.9896245002746582e-01</leafValues></_>
    <_>
      <internalNodes>
        0 -1 6627 -1361809877 -329109968 698300723 468802332 -2073580499
        1218606909 -1581967017 183857777</internalNodes>
      <leafValues>
        -3.1540638208389282e-01 1.5613362193107605e-01</leafValues></_>
    <_>
      <internalNodes>
        0 -1 1591 142764698 831029984 -32725576 227406656 -1981357108
        -41197563 687718620 203760834</internalNodes>
      <leafValues>
        -3.3038046956062317e-01 1.6709962487220764e-01</leafValues></_>
    <_>
      <internalNodes>
        0 -1 720 -360493237 -387103259 -189304474 1083523078 441075556
        -1957516681 1996842788 1308649526</internalNodes>
      <leafValues>
        -3.5033199191093445e-01 1.5330721437931061e-01</leafValues></_>
    <_>
      <internalNodes>
        0 -1 7950 -34115075 -163190390 -1350752927 -571478877 1962918785
        482228147 746056506 -552603941</internalNodes>
      <leafValues>
        -1.4893043041229248e-01 3.7862750887870789e-01</leafValues></_>
    <_>
      <internalNodes>
        0 -1 7768 1074701824 1540694740 -1660640878 856340096 268439776
        -293692693 1862803134 -931489176</internalNodes>
      <leafValues>
        -2.6392316818237305e-01 2.0618332922458649e-01</leafValues></_>
    <_>
      <internalNodes>
        0 -1 3813 876800 604934600 1175687844 13565180 2001234724
        891046104 879351344 24162804</internalNodes>
      <leafValues>
        -6.1793094873428345e-01 8.3322621881961823e-02</leafValues></_></weakClassifiers></stage14>
</opencv_storage>
