<?xml version="1.0"?>
<opencv_storage>
<stage11>
  <maxWeakCount>55</maxWeakCount>
  <stageThreshold>-9.9941682815551758e-01</stageThreshold>
  <weakClassifiers>
    <_>
      <internalNodes>
        0 -1 71 -235155857 -586156157 250604159 -243269633 -35651873
        -49977595 -1076887617 1920462047</internalNodes>
      <leafValues>
        -1.8811637163162231e-01 2.5453740358352661e-01</leafValues></_>
    <_>
      <internalNodes>
        0 -1 5786 1969217013 78879518 1065352031 -1649960965 -1517294081
        -1073741831 1421433952 -1447310178</internalNodes>
      <leafValues>
        -1.7066691815853119e-01 2.4189944565296173e-01</leafValues></_>
    <_>
      <internalNodes>
        0 -1 233 -84939101 -677118105 -1576075710 -1205142910 1886648117
        -8961921 -286801938 -446169269</internalNodes>
      <leafValues>
        -1.4558385312557220e-01 2.4750523269176483e-01</leafValues></_>
    <_>
      <internalNodes>
        0 -1 7844 294125025 -780864828 -413894827 -1820863146
        -1965166676 -1403537494 1305267147 -2131764019</internalNodes>
      <leafValues>
        -1.8526937067508698e-01 1.7323653399944305e-01</leafValues></_>
    <_>
      <internalNodes>
        0 -1 7630 -1086324751 -1707935086 -289637180 -1649437296
        -1909326351 -229668 156843517 -1651518320</internalNodes>
      <leafValues>
        -1.3404206931591034e-01 2.2541706264019012e-01</leafValues></_>
    <_>
      <internalNodes>
        0 -1 3584 2001857192 1376217309 301218219 -537938691 -112412495
        -1625706876 -89151301 671064622</internalNodes>
      <leafValues>
        -1.2379044294357300e-01 2.2968082129955292e-01</leafValues></_>
    <_>
      <internalNodes>
        0 -1 8372 1152717601 1607413675 932545317 2055062139 2060063751
        223391039 2029742901 1424783</internalNodes>
      <leafValues>
        -2.6550829410552979e-01 8.8775180280208588e-02</leafValues></_>
    <_>
      <internalNodes>
        0 -1 112 -2113789950 -610838967 549658930 -462166735 692555539
        245315441 -303682991 70008116</internalNodes>
      <leafValues>
        -3.3620783686637878e-01 1.0727954655885696e-01</leafValues></_>
    <_>
      <internalNodes>
        0 -1 2423 545661299 641729296 -1686618511 -1348492588 710780320
        -911746054 115081676 -824464024</internalNodes>
      <leafValues>
        -2.0271369814872742e-01 1.3746432960033417e-01</leafValues></_>
    <_>
      <internalNodes>
        0 -1 8413 -354434560 1120501675 -1469237600 1859962526
        1967074832 1154895665 -521832960 1151726455</internalNodes>
      <leafValues>
        -3.0084890127182007e-01 1.0833842307329178e-01</leafValues></_>
    <_>
      <internalNodes>
        0 -1 253 -117180014 1394617329 131113514 -375688351 -1739372847
        -47799451 -967375766 2052735091</internalNodes>
      <leafValues>
        -2.1962459385395050e-01 1.2693949043750763e-01</leafValues></_>
    <_>
      <internalNodes>
        0 -1 1007 -689242481 884538794 -2013567143 -1607152349
        1182993421 -1378971918 -622015761 -329261525</internalNodes>
      <leafValues>
        -1.2198653817176819e-01 2.3088970780372620e-01</leafValues></_>
    <_>
      <internalNodes>
        0 -1 1436 -1466940207 751501383 738718463 2117987661 -851256948
        -381927623 1732422257 -1153799300</internalNodes>
      <leafValues>
        -1.9706645607948303e-01 1.4475108683109283e-01</leafValues></_>
    <_>
      <internalNodes>
        0 -1 5968 -940585178 -149874713 1665240092 -675323925 -506886245
        441873137 -185625923 -138939953</internalNodes>
      <leafValues>
        -1.0279612243175507e-01 2.7667349576950073e-01</leafValues></_>
    <_>
      <internalNodes>
        0 -1 575 655615735 -1426452825 645009007 1110922988 1433414736
        -540553952 1815572095 -293077562</internalNodes>
      <leafValues>
        -1.6319274902343750e-01 1.8767599761486053e-01</leafValues></_>
    <_>
      <internalNodes>
        0 -1 5584 -128872806 -805018412 -516411142 -682865800 -773972564
        -16546190 -1868622440 1238739514</internalNodes>
      <leafValues>
        -1.9605885446071625e-01 1.5895424783229828e-01</leafValues></_>
    <_>
      <internalNodes>
        0 -1 2003 1241914487 1263537012 -299175970 2051592174
        -1116467706 -19709948 -557910894 -350102145</internalNodes>
      <leafValues>
        -1.7714302241802216e-01 1.7450474202632904e-01</leafValues></_>
    <_>
      <internalNodes>
        0 -1 7023 -575747958 -4134846 -995050305 -677953634 101034651
        -6619814 750537355 2098163343</internalNodes>
      <leafValues>
        -1.6569568216800690e-01 1.9660954177379608e-01</leafValues></_>
    <_>
      <internalNodes>
        0 -1 2950 -1975976780 -4631267 -415277283 -471228682 637718689
        -1096485130 -1924423488 -1947247394</internalNodes>
      <leafValues>
        -1.4212626218795776e-01 2.1257065236568451e-01</leafValues></_>
    <_>
      <internalNodes>
        0 -1 7506 -362284201 2060070453 1803107867 2097380010 -8955939
        -1438845038 525716734 -810562625</internalNodes>
      <leafValues>
        -1.0994736850261688e-01 2.9043257236480713e-01</leafValues></_>
    <_>
      <internalNodes>
        0 -1 5334 806636596 -1230238704 21773237 -1139901314 179524664
        -914654253 1551846037 548158984</internalNodes>
      <leafValues>
        -3.0149862170219421e-01 1.0647226870059967e-01</leafValues></_>
    <_>
      <internalNodes>
        0 -1 7516 -84990193 -763422433 -790725129 857470717 -1083239020
        -17058310 2124308474 -1573153</internalNodes>
      <leafValues>
        -1.1527671664953232e-01 2.7852904796600342e-01</leafValues></_>
    <_>
      <internalNodes>
        0 -1 8105 -892352112 1148371613 -1403259132 988450747
        -1998880640 1290324468 -1529900287 83490411</internalNodes>
      <leafValues>
        -2.3732537031173706e-01 1.3898120820522308e-01</leafValues></_>
    <_>
      <internalNodes>
        0 -1 4698 1114826760 1493204716 942698640 1566936685 -1874423418
        -398847481 -1416575314 533860926</internalNodes>
      <leafValues>
        -2.2668394446372986e-01 1.3817128539085388e-01</leafValues></_>
    <_>
      <internalNodes>
        0 -1 6261 -967335925 1036913547 1254998162 1650636387 1744543933
        -1599053349 -143121733 -465247744</internalNodes>
      <leafValues>
        -1.7746572196483612e-01 1.7798979580402374e-01</leafValues></_>
    <_>
      <internalNodes>
        0 -1 23 -1946155486 -1422071197 71664763 -1615469853 -1083274791
        -14564367 577613055 5534021</internalNodes>
      <leafValues>
        -2.9145094752311707e-01 1.0940176993608475e-01</leafValues></_>
    <_>
      <internalNodes>
        0 -1 2388 -760336538 -70600556 -1351141381 -4342688 996531169
        -1141310227 160236653 -290519349</internalNodes>
      <leafValues>
        -1.4091178774833679e-01 2.2217850387096405e-01</leafValues></_>
    <_>
      <internalNodes>
        0 -1 2401 -1290948678 -1786233822 -1246806861 -1709718446
        547788458 -1428900201 1566980474 1098691451</internalNodes>
      <leafValues>
        -1.9570894539356232e-01 1.6097168624401093e-01</leafValues></_>
    <_>
      <internalNodes>
        0 -1 8184 -1408331215 -1399131096 760994134 -593669232 202410009
        -1395983752 1271036949 -1944137419</internalNodes>
      <leafValues>
        -2.2851924598217010e-01 1.3353210687637329e-01</leafValues></_>
    <_>
      <internalNodes>
        0 -1 8 110577154 149345595 466966919 1853608351 -1830973586
        -1088578297 -1133872606 574742564</internalNodes>
      <leafValues>
        -3.0714821815490723e-01 9.5267094671726227e-02</leafValues></_>
    <_>
      <internalNodes>
        0 -1 3088 -234437512 459948728 -302449797 -13476862 1623212710
        -848531479 -823247170 -206878930</internalNodes>
      <leafValues>
        -1.4019934833049774e-01 2.2128264605998993e-01</leafValues></_>
    <_>
      <internalNodes>
        0 -1 7454 -1750363363 -22786141 -34717906 -345448828 1987974393
        678181863 -128746501 -834016193</internalNodes>
      <leafValues>
        -1.4407280087471008e-01 2.2673952579498291e-01</leafValues></_>
    <_>
      <internalNodes>
        0 -1 8188 11786625 -265422248 1867894773 -563116064 728944339
        -319571509 252932191 224352593</internalNodes>
      <leafValues>
        -1.8672579526901245e-01 1.7317348718643188e-01</leafValues></_>
    <_>
      <internalNodes>
        0 -1 1141 1727292262 -24746520 1659002007 -148840214 1430743460
        1799388128 -136558910 930548422</internalNodes>
      <leafValues>
        -2.2835502028465271e-01 1.3278043270111084e-01</leafValues></_>
    <_>
      <internalNodes>
        0 -1 1485 -315422203 -1767699199 -1902619370 2140351551
        1985096483 -637549546 -1505042441 1433069100</internalNodes>
      <leafValues>
        -2.0509590208530426e-01 1.5670998394489288e-01</leafValues></_>
    <_>
      <internalNodes>
        0 -1 2011 711974095 1347442207 716537532 147792938 -306305214
        980794400 1413733896 -93071661</internalNodes>
      <leafValues>
        -2.0327459275722504e-01 1.5824463963508606e-01</leafValues></_>
    <_>
      <internalNodes>
        0 -1 6412 -52394574 -23942086 1808252698 -471844922 -458864900
        -1984514195 -524443428 -311476653</internalNodes>
      <leafValues>
        -1.5028817951679230e-01 2.1406723558902740e-01</leafValues></_>
    <_>
      <internalNodes>
        0 -1 6626 -67165287 1438445392 230646635 -1344038093 466848095
        -1565951725 282927151 2027027348</internalNodes>
      <leafValues>
        -1.6896753013134003e-01 1.9760075211524963e-01</leafValues></_>
    <_>
      <internalNodes>
        0 -1 135 -2101457214 203328611 1449046258 -1462266252 -247883565
        1279351393 1218593720 -603763909</internalNodes>
      <leafValues>
        -2.1311229467391968e-01 1.5431486070156097e-01</leafValues></_>
    <_>
      <internalNodes>
        0 -1 5690 101098886 973397518 -2088354896 427481564 410463408
        819063233 1591935948 1765526309</internalNodes>
      <leafValues>
        -2.4891397356987000e-01 1.2699174880981445e-01</leafValues></_>
    <_>
      <internalNodes>
        0 -1 6072 749800746 619621621 777960270 -2117226296 953610045
        -916674014 178614805 807931228</internalNodes>
      <leafValues>
        -3.1723567843437195e-01 1.1228421330451965e-01</leafValues></_>
    <_>
      <internalNodes>
        0 -1 7666 -103291727 -269590161 -145792705 -286804099 1261958671
        -902261001 1387214322 -876872342</internalNodes>
      <leafValues>
        -1.3277560472488403e-01 2.5313594937324524e-01</leafValues></_>
    <_>
      <internalNodes>
        0 -1 8141 2045463296 77244364 148055328 223241930 -1032476544
        1135126548 1202016776 504091</internalNodes>
      <leafValues>
        -2.9053834080696106e-01 1.1289094388484955e-01</leafValues></_>
    <_>
      <internalNodes>
        0 -1 6654 -588584475 -1172075217 -269129841 -1314472093
        1351179476 -154167307 -122271016 -268569061</internalNodes>
      <leafValues>
        -1.3398481905460358e-01 2.4979487061500549e-01</leafValues></_>
    <_>
      <internalNodes>
        0 -1 1298 783445845 207382820 -1039745019 823136250 -857335692
        -1978788851 -1359987996 -281000416</internalNodes>
      <leafValues>
        -2.9588678479194641e-01 1.0917842388153076e-01</leafValues></_>
    <_>
      <internalNodes>
        0 -1 5857 -27331243 -1242842764 259633533 799457067 1660380927
        -270109242 1958567097 -1145846886</internalNodes>
      <leafValues>
        -1.2084048241376877e-01 2.7259108424186707e-01</leafValues></_>
    <_>
      <internalNodes>
        0 -1 6336 -898388470 859564693 878201350 -1212355378 1742045339
        1430598405 -278501716 -119299222</internalNodes>
      <leafValues>
        -1.7337946593761444e-01 1.9756086170673370e-01</leafValues></_>
    <_>
      <internalNodes>
        0 -1 2997 -728959616 -759686978 -613087132 -2048715120 168304017
        -1359398658 2072460296 1218520075</internalNodes>
      <leafValues>
        -2.4389623105525970e-01 1.4432241022586823e-01</leafValues></_>
    <_>
      <internalNodes>
        0 -1 7777 1110609584 387644192 1328219647 -1640981864
        -1396701056 -685043510 -1764685623 214384894</internalNodes>
      <leafValues>
        -2.5079649686813354e-01 1.3738335669040680e-01</leafValues></_>
    <_>
      <internalNodes>
        0 -1 4774 -388833292 -693622624 2049998046 2133872148 733746496
        -1294266498 -1692252598 -1149613448</internalNodes>
      <leafValues>
        -1.9991843402385712e-01 1.6618594527244568e-01</leafValues></_>
    <_>
      <internalNodes>
        0 -1 813 1625997445 -2032511496 -1089200694 -1597317486
        1261374272 919233308 2010861620 1141006124</internalNodes>
      <leafValues>
        -3.8438233733177185e-01 9.4612330198287964e-02</leafValues></_>
    <_>
      <internalNodes>
        0 -1 4041 656222778 -1474738437 1178890360 1291120244 1045452417
        2080450714 -329048471 240990836</internalNodes>
      <leafValues>
        -3.1669229269027710e-01 9.9713481962680817e-02</leafValues></_>
    <_>
      <internalNodes>
        0 -1 6660 367580608 -106417658 -239308869 -1685393853
        -1830479165 -1971962406 -296878409 1811932863</internalNodes>
      <leafValues>
        -1.7918074131011963e-01 1.8951322138309479e-01</leafValues></_>
    <_>
      <internalNodes>
        0 -1 6027 -96809373 1355879966 847539898 -1829592336 1344692673
        1928713728 -722152790 1096004514</internalNodes>
      <leafValues>
        -2.0161472260951996e-01 1.7027875781059265e-01</leafValues></_>
    <_>
      <internalNodes>
        0 -1 8270 78325520 754092554 -1852890379 -1314079408 -1532480863
        -313603536 572611656 147604377</internalNodes>
      <leafValues>
        -3.7143734097480774e-01 8.4090664982795715e-02</leafValues></_></weakClassifiers></stage11>
</opencv_storage>
