<?xml version="1.0"?>
<opencv_storage>
<stage4>
  <maxWeakCount>30</maxWeakCount>
  <stageThreshold>-1.1808794736862183e+00</stageThreshold>
  <weakClassifiers>
    <_>
      <internalNodes>
        0 -1 2051 1083852667 2137673727 1951421311 2134569851 2114853855
        -4462357 -272643073 -299867614</internalNodes>
      <leafValues>
        -2.9906955361366272e-01 2.6329007744789124e-01</leafValues></_>
    <_>
      <internalNodes>
        0 -1 8014 -642795648 -135530612 -704782923 -234883105 -387993938
        -1396720974 -1464340229 -1996497781</internalNodes>
      <leafValues>
        -2.2002294659614563e-01 3.4155556559562683e-01</leafValues></_>
    <_>
      <internalNodes>
        0 -1 9 -822098705 -203428065 -19070977 -1313473 -838926337
        -50368689 -202376193 -144457169</internalNodes>
      <leafValues>
        -1.4666642248630524e-01 4.4787240028381348e-01</leafValues></_>
    <_>
      <internalNodes>
        0 -1 6068 272373072 1058542676 1058326781 -1246226852 511184316
        993570572 1215454440 -1112268616</internalNodes>
      <leafValues>
        -3.7193873524665833e-01 1.4375600218772888e-01</leafValues></_>
    <_>
      <internalNodes>
        0 -1 424 -891310489 -566811102 -982612275 237520899 1901151604
        -888511471 -449329542 1865897555</internalNodes>
      <leafValues>
        -2.4851845204830170e-01 2.2525303065776825e-01</leafValues></_>
    <_>
      <internalNodes>
        0 -1 2662 -16798097 1914130219 -86366607 504774342 -805876652
        -548530926 -665411906 -83788937</internalNodes>
      <leafValues>
        -2.1883824467658997e-01 2.5497820973396301e-01</leafValues></_>
    <_>
      <internalNodes>
        0 -1 2365 -234620798 814355072 -732011 838706433 84410496
        -1901256741 1552269725 -4742389</internalNodes>
      <leafValues>
        -2.4411240220069885e-01 2.3035573959350586e-01</leafValues></_>
    <_>
      <internalNodes>
        0 -1 3807 1153148548 892836845 1335085821 -39985566 1508720893
        -554581023 631870124 1031903880</internalNodes>
      <leafValues>
        -2.5578078627586365e-01 2.3045760393142700e-01</leafValues></_>
    <_>
      <internalNodes>
        0 -1 8434 -139467262 39816829 -224937296 -625283180 -1057521856
        1843145143 -87887161 -251664385</internalNodes>
      <leafValues>
        -2.7155730128288269e-01 2.0328156650066376e-01</leafValues></_>
    <_>
      <internalNodes>
        0 -1 6294 -842530119 456664657 421786094 630145049 1041238436
        -13258712 1817835259 139413019</internalNodes>
      <leafValues>
        -2.8329443931579590e-01 2.0897687971591949e-01</leafValues></_>
    <_>
      <internalNodes>
        0 -1 280 -486871381 -392240542 -1495036318 -1561661466
        -1406917279 1935087990 -170673466 -1050169533</internalNodes>
      <leafValues>
        -2.7824541926383972e-01 2.0541410148143768e-01</leafValues></_>
    <_>
      <internalNodes>
        0 -1 161 -1966169438 153087542 35662116 1150316835 72100382
        -1898100186 745496834 74794577</internalNodes>
      <leafValues>
        -4.7740992903709412e-01 1.3291776180267334e-01</leafValues></_>
    <_>
      <internalNodes>
        0 -1 7924 1180845076 1485978432 500269055 1471168866 1519026168
        -380068485 -1976292354 -288741878</internalNodes>
      <leafValues>
        -2.6755684614181519e-01 2.1126952767372131e-01</leafValues></_>
    <_>
      <internalNodes>
        0 -1 5991 1967696816 497681988 608174864 613507280 -1400893784
        866395520 480250174 266156555</internalNodes>
      <leafValues>
        -3.6635646224021912e-01 1.6726359724998474e-01</leafValues></_>
    <_>
      <internalNodes>
        0 -1 2758 1224624779 -1889012969 -265233017 1681022893
        -1718466989 -1696679404 -563355971 -260899285</internalNodes>
      <leafValues>
        -2.4730366468429565e-01 2.4270305037498474e-01</leafValues></_>
    <_>
      <internalNodes>
        0 -1 5350 1594489860 -1918682843 942406963 -1659744326
        2017284325 -1203899583 -1001043745 2354402</internalNodes>
      <leafValues>
        -3.1058177351951599e-01 1.8562392890453339e-01</leafValues></_>
    <_>
      <internalNodes>
        0 -1 8002 -1421952205 -1438059052 -468854315 -9307032 748351156
        -1095702278 -1456092680 -1933978160</internalNodes>
      <leafValues>
        -2.6372846961021423e-01 2.1902050077915192e-01</leafValues></_>
    <_>
      <internalNodes>
        0 -1 7287 -270280168 1374321184 -1473417731 -147609997
        -584644728 -15831453 -1472639864 44024227</internalNodes>
      <leafValues>
        -2.3154060542583466e-01 2.5022515654563904e-01</leafValues></_>
    <_>
      <internalNodes>
        0 -1 8196 -2108430943 595066652 397771223 -1167600617
        -1482211479 -1482764443 362228849 -873740807</internalNodes>
      <leafValues>
        -2.3530088365077972e-01 2.3972111940383911e-01</leafValues></_>
    <_>
      <internalNodes>
        0 -1 8173 2071454499 -1971263730 138069904 132113390 470930080
        178998667 1343869185 -994050921</internalNodes>
      <leafValues>
        -2.4760566651821136e-01 2.2677525877952576e-01</leafValues></_>
    <_>
      <internalNodes>
        0 -1 7357 657898768 -1531920816 -1075949739 -1108754000
        169212848 -1456739655 -1940089646 -1382452072</internalNodes>
      <leafValues>
        -2.7362397313117981e-01 2.1148680150508881e-01</leafValues></_>
    <_>
      <internalNodes>
        0 -1 8407 -241719797 775601479 -380282911 -656951947 2106048960
        679768033 -100936892 -1062999121</internalNodes>
      <leafValues>
        -2.3898148536682129e-01 2.4190470576286316e-01</leafValues></_>
    <_>
      <internalNodes>
        0 -1 701 -889198009 1377444617 -553468902 783474770 2013791588
        1647455897 861237360 -62851230</internalNodes>
      <leafValues>
        -3.2268056273460388e-01 1.8365971744060516e-01</leafValues></_>
    <_>
      <internalNodes>
        0 -1 4154 1896071808 -1720992086 -1055653885 938072897 4306363
        -719290201 1006942393 1195874442</internalNodes>
      <leafValues>
        -2.5544124841690063e-01 2.2354111075401306e-01</leafValues></_>
    <_>
      <internalNodes>
        0 -1 1179 -64309551 -78723430 114016119 -275740640 -195767071
        -124688418 1710010094 2006144123</internalNodes>
      <leafValues>
        -1.9726890325546265e-01 2.9860791563987732e-01</leafValues></_>
    <_>
      <internalNodes>
        0 -1 1534 777285120 -1905239693 -24063105 -1037788449 -610780590
        -472503004 -963726640 -176631219</internalNodes>
      <leafValues>
        -3.2960021495819092e-01 1.8634504079818726e-01</leafValues></_>
    <_>
      <internalNodes>
        0 -1 5124 1178903050 339777124 1292415659 -1389018916 1715681942
        394406560 881261178 1395638583</internalNodes>
      <leafValues>
        -3.1724298000335693e-01 1.9458229839801788e-01</leafValues></_>
    <_>
      <internalNodes>
        0 -1 8034 -1409209086 -998529840 867649975 -114101932 65351039
        -1435733878 -2025462713 -641730364</internalNodes>
      <leafValues>
        -2.8118821978569031e-01 2.0592226088047028e-01</leafValues></_>
    <_>
      <internalNodes>
        0 -1 3291 1808951210 -1950356681 393469919 641341462 1805721420
        -460316430 1800977895 1701978240</internalNodes>
      <leafValues>
        -3.3396384119987488e-01 1.7879976332187653e-01</leafValues></_>
    <_>
      <internalNodes>
        0 -1 5694 -2146013872 929054254 -2072816664 -1726976176
        173018784 1749352698 1823885544 -1085778592</internalNodes>
      <leafValues>
        -3.5658189654350281e-01 1.5262147784233093e-01</leafValues></_></weakClassifiers></stage4>
</opencv_storage>
