<?xml version="1.0"?>
<opencv_storage>
<stage11>
  <maxWeakCount>56</maxWeakCount>
  <stageThreshold>-1.0381690263748169e+00</stageThreshold>
  <weakClassifiers>
    <_>
      <internalNodes>
        0 -1 17 1585398799 -679510179 -9470209 -1219003393 -161753345
        -2106467 -336596037 1912791039</internalNodes>
      <leafValues>
        -2.0450751483440399e-01 2.2578348219394684e-01</leafValues></_>
    <_>
      <internalNodes>
        0 -1 8014 -105908320 -105775105 -239730699 -1107822593
        -1196449025 -1564613954 -1128793446 -2132812325</internalNodes>
      <leafValues>
        -1.7382124066352844e-01 2.3564638197422028e-01</leafValues></_>
    <_>
      <internalNodes>
        0 -1 6867 -12617951 260218627 -1249386698 -616042761 -471115545
        227385294 905049329 -513802581</internalNodes>
      <leafValues>
        -1.9916409254074097e-01 1.7423167824745178e-01</leafValues></_>
    <_>
      <internalNodes>
        0 -1 1 -420746609 -388076609 -1192468553 -270338341 -1040194709
        -1430183668 1532796757 1884660599</internalNodes>
      <leafValues>
        -1.7156143486499786e-01 1.9088131189346313e-01</leafValues></_>
    <_>
      <internalNodes>
        0 -1 8157 1396699923 12759584 1541348177 -1644626484 771188262
        714179101 -1362535408 -824314954</internalNodes>
      <leafValues>
        -2.1589826047420502e-01 1.3180239498615265e-01</leafValues></_>
    <_>
      <internalNodes>
        0 -1 3502 -1710309967 -575132755 267618257 -541600259 705103521
        -271683302 499519876 -1107305221</internalNodes>
      <leafValues>
        -1.0428763180971146e-01 2.5363528728485107e-01</leafValues></_>
    <_>
      <internalNodes>
        0 -1 4779 -23446443 -592178883 -1986365061 764423181 -824288240
        -17153220 -1426849028 -1154347494</internalNodes>
      <leafValues>
        -2.2100779414176941e-01 1.2130536884069443e-01</leafValues></_>
    <_>
      <internalNodes>
        0 -1 4355 205858898 534515347 1692250487 -1870822431 2085468239
        435679516 1175831157 108274212</internalNodes>
      <leafValues>
        -3.1401279568672180e-01 1.1238548904657364e-01</leafValues></_>
    <_>
      <internalNodes>
        0 -1 1583 -87143424 -119450665 2062596316 -427023342 -886176256
        -595767758 -1102925104 -1408041860</internalNodes>
      <leafValues>
        -2.3675227165222168e-01 1.2312977761030197e-01</leafValues></_>
    <_>
      <internalNodes>
        0 -1 4221 -150502510 402956384 -1193976592 1953874997 56369566
        2039875123 -1960817990 1274244270</internalNodes>
      <leafValues>
        -1.9702565670013428e-01 1.4884041249752045e-01</leafValues></_>
    <_>
      <internalNodes>
        0 -1 7081 -1122591247 -1297422636 -1256396579 -1623645804
        -1960690699 -1678028359 1521621644 -1380378408</internalNodes>
      <leafValues>
        -1.8714521825313568e-01 1.5464998781681061e-01</leafValues></_>
    <_>
      <internalNodes>
        0 -1 7902 577445393 -1204409103 -1080770561 -1174241012
        763272244 -1698156552 -1152045474 -604515857</internalNodes>
      <leafValues>
        -1.4984829723834991e-01 1.9146239757537842e-01</leafValues></_>
    <_>
      <internalNodes>
        0 -1 5229 -495662281 -1339392259 662235870 1057795784 1197511909
        2018999695 -204516240 -67416042</internalNodes>
      <leafValues>
        -1.5417589247226715e-01 1.9150498509407043e-01</leafValues></_>
    <_>
      <internalNodes>
        0 -1 8095 -860895287 1074983133 -17956943 -1315458501 -564448632
        -1607344209 -1544091365 1441127379</internalNodes>
      <leafValues>
        -1.4119431376457214e-01 2.0712986588478088e-01</leafValues></_>
    <_>
      <internalNodes>
        0 -1 616 -2044228470 15660711 -835574622 -890834982 1898788644
        907244551 2050450000 -205261995</internalNodes>
      <leafValues>
        -2.2801403701305389e-01 1.3861963152885437e-01</leafValues></_>
    <_>
      <internalNodes>
        0 -1 84 -333216014 -132758718 -2030222593 -1100091497 -56836181
        -1713235515 1210231983 225526907</internalNodes>
      <leafValues>
        -2.1962933242321014e-01 1.2353312224149704e-01</leafValues></_>
    <_>
      <internalNodes>
        0 -1 744 3425802 107469639 -1160177729 687714407 1419186700
        1577921449 -298239466 537458740</internalNodes>
      <leafValues>
        -3.3956933021545410e-01 9.7112104296684265e-02</leafValues></_>
    <_>
      <internalNodes>
        0 -1 7516 -523894261 307101783 -1313942986 859596541 519642564
        -152009375 1837915851 -76583330</internalNodes>
      <leafValues>
        -1.5655966103076935e-01 1.8843385577201843e-01</leafValues></_>
    <_>
      <internalNodes>
        0 -1 7784 -806639952 -1716347888 1072348313 -1618891820
        1167721884 485469452 -1177714712 -1347460758</internalNodes>
      <leafValues>
        -1.5493372082710266e-01 1.9365023076534271e-01</leafValues></_>
    <_>
      <internalNodes>
        0 -1 6695 -550809350 -22796713 -681629801 480871664 -1402710895
        -574938361 -1874264328 158299071</internalNodes>
      <leafValues>
        -1.8576051294803619e-01 1.5834212303161621e-01</leafValues></_>
    <_>
      <internalNodes>
        0 -1 5868 -779312990 362782159 -1762137447 -1317225632 -43395606
        -205661185 -415306037 -487545696</internalNodes>
      <leafValues>
        -1.6076532006263733e-01 1.8522356450557709e-01</leafValues></_>
    <_>
      <internalNodes>
        0 -1 3513 779277927 714799970 -320986035 -813057182 629029927
        -1175547243 -950830748 -364596305</internalNodes>
      <leafValues>
        -1.9094170629978180e-01 1.5731225907802582e-01</leafValues></_>
    <_>
      <internalNodes>
        0 -1 336 1881859587 -609547934 -409047724 44214902 1448086789
        -590338511 1434863300 1349567206</internalNodes>
      <leafValues>
        -2.3287694156169891e-01 1.3996864855289459e-01</leafValues></_>
    <_>
      <internalNodes>
        0 -1 4216 -702658864 -1834440934 -1191144272 997460904
        1785204356 484079780 1272399051 -1296472558</internalNodes>
      <leafValues>
        -2.0208622515201569e-01 1.4396356046199799e-01</leafValues></_>
    <_>
      <internalNodes>
        0 -1 5158 -804739454 1343251470 -723124080 353594016 1367979232
        -70317550 49033405 592582246</internalNodes>
      <leafValues>
        -2.3396882414817810e-01 1.2874747812747955e-01</leafValues></_>
    <_>
      <internalNodes>
        0 -1 7359 -1009262846 107148648 -469190624 -858229744 1804666372
        81471026 1304773632 1152244754</internalNodes>
      <leafValues>
        -4.3493428826332092e-01 7.3575891554355621e-02</leafValues></_>
    <_>
      <internalNodes>
        0 -1 5669 -692663413 1930620222 914258801 -136164404 -874060546
        -294727841 1156415724 -1342716977</internalNodes>
      <leafValues>
        -1.1781305074691772e-01 2.6590397953987122e-01</leafValues></_>
    <_>
      <internalNodes>
        0 -1 826 213293730 -2052249797 -1638631365 -2143127757 786246718
        -456261826 -1385202059 1110974738</internalNodes>
      <leafValues>
        -2.9119071364402771e-01 1.0667924582958221e-01</leafValues></_>
    <_>
      <internalNodes>
        0 -1 4784 242488101 668779375 -1491800508 243776813 -745479617
        2062803415 770200146 1382602692</internalNodes>
      <leafValues>
        -2.6845055818557739e-01 1.1591712385416031e-01</leafValues></_>
    <_>
      <internalNodes>
        0 -1 6804 -1156444779 -1128659472 -1097097355 -1644485280
        -1466167604 924584157 -898752583 -1342548855</internalNodes>
      <leafValues>
        -1.8610803782939911e-01 1.6959950327873230e-01</leafValues></_>
    <_>
      <internalNodes>
        0 -1 1779 1661864343 -1314653406 -1258864779 521258656
        2087621340 872361621 -1083833606 -1277475674</internalNodes>
      <leafValues>
        -1.4558283984661102e-01 2.2003306448459625e-01</leafValues></_>
    <_>
      <internalNodes>
        0 -1 4888 1520322304 -1826034246 -82819203 -1646611870
        1032390886 1047768058 424768940 -1584535506</internalNodes>
      <leafValues>
        -1.9269219040870667e-01 1.6626021265983582e-01</leafValues></_>
    <_>
      <internalNodes>
        0 -1 1976 116001406 171181588 -1976413761 774420339 -1673046972
        -1732851580 2035580432 -883894224</internalNodes>
      <leafValues>
        -3.0796468257904053e-01 9.7302198410034180e-02</leafValues></_>
    <_>
      <internalNodes>
        0 -1 6467 2867384 -250322052 1600207730 -17892933 1595891818
        922149476 514021871 147209381</internalNodes>
      <leafValues>
        -2.4193775653839111e-01 1.3355436921119690e-01</leafValues></_>
    <_>
      <internalNodes>
        0 -1 6012 2016979074 617228053 -263032048 -2103428622 368055321
        241484096 1278642240 -770050834</internalNodes>
      <leafValues>
        -2.3242844641208649e-01 1.3525180518627167e-01</leafValues></_>
    <_>
      <internalNodes>
        0 -1 1851 -227674672 2063826474 1233766598 -1782199291 911921892
        828575092 1088923903 1298752045</internalNodes>
      <leafValues>
        -1.8680244684219360e-01 1.7052805423736572e-01</leafValues></_>
    <_>
      <internalNodes>
        0 -1 8012 1174562211 -1174543376 240839967 -1537730813
        1797594223 1336910589 -73577406 1144477012</internalNodes>
      <leafValues>
        -2.4072496592998505e-01 1.3023409247398376e-01</leafValues></_>
    <_>
      <internalNodes>
        0 -1 8450 2113899556 150136817 1151009760 -1529552503 932709666
        -2137400996 2066726208 -909639981</internalNodes>
      <leafValues>
        -2.0143729448318481e-01 1.5865448117256165e-01</leafValues></_>
    <_>
      <internalNodes>
        0 -1 771 1085411328 1783482930 -651576627 1156545049 -1771092964
        -642054472 1223931126 243548694</internalNodes>
      <leafValues>
        -2.7352085709571838e-01 1.1318357288837433e-01</leafValues></_>
    <_>
      <internalNodes>
        0 -1 1541 283036814 -296243294 -1640823046 567400670 1517733900
        2081805602 1896902508 895203161</internalNodes>
      <leafValues>
        -2.2548833489418030e-01 1.4409828186035156e-01</leafValues></_>
    <_>
      <internalNodes>
        0 -1 8419 -1395242494 720292263 -354567088 1854031716 1123404554
        189958871 1357079440 312818323</internalNodes>
      <leafValues>
        -2.9852080345153809e-01 1.0851653665304184e-01</leafValues></_>
    <_>
      <internalNodes>
        0 -1 1197 -957051585 -1959414311 1106733864 -269435016
        1500921411 -489179177 -134994818 -323656660</internalNodes>
      <leafValues>
        -1.5626831352710724e-01 2.1352131664752960e-01</leafValues></_>
    <_>
      <internalNodes>
        0 -1 3519 21948905 1478225446 -296996479 1039410048 1372880093
        -640412691 1241084893 1703523201</internalNodes>
      <leafValues>
        -1.8885955214500427e-01 1.6921178996562958e-01</leafValues></_>
    <_>
      <internalNodes>
        0 -1 2388 -1432211888 -2105390960 -1358884876 -1881438128
        470120416 -135305042 177046642 -1935191036</internalNodes>
      <leafValues>
        -2.5836613774299622e-01 1.2001744657754898e-01</leafValues></_>
    <_>
      <internalNodes>
        0 -1 5094 -523787646 1363452466 -998779146 890827526 -176164149
        1378430952 1585370844 -84558398</internalNodes>
      <leafValues>
        -1.5186166763305664e-01 2.0855833590030670e-01</leafValues></_>
    <_>
      <internalNodes>
        0 -1 641 -295752153 258363132 -837354447 850153918 -862093455
        -85505929 -1364267148 -52961708</internalNodes>
      <leafValues>
        -1.9161611795425415e-01 1.7172087728977203e-01</leafValues></_>
    <_>
      <internalNodes>
        0 -1 3563 -360152828 867571634 -1316759561 -2058488067 369264288
        -1107590481 -1590745874 -1401984745</internalNodes>
      <leafValues>
        -1.8888185918331146e-01 1.7580525577068329e-01</leafValues></_>
    <_>
      <internalNodes>
        0 -1 8217 -1346187343 -523981175 2132212071 -57972886
        -1500810039 -1581773078 -1113364703 -910197644</internalNodes>
      <leafValues>
        -1.7844861745834351e-01 1.8328481912612915e-01</leafValues></_>
    <_>
      <internalNodes>
        0 -1 7952 -299509712 -1322945518 -2038693941 -1188481697
        2003456244 1584414401 936421822 -1954460326</internalNodes>
      <leafValues>
        -1.6352654993534088e-01 2.0864626765251160e-01</leafValues></_>
    <_>
      <internalNodes>
        0 -1 7069 1404821499 -1150675013 511483760 -1724976252
        -1772765219 -894996483 2039866040 -1947207681</internalNodes>
      <leafValues>
        -1.1291684955358505e-01 2.9775097966194153e-01</leafValues></_>
    <_>
      <internalNodes>
        0 -1 7844 -607420945 -713265586 -2187433 397866687 1799221132
        -2140305562 1104326651 -678507413</internalNodes>
      <leafValues>
        -1.1231847852468491e-01 3.0460190773010254e-01</leafValues></_>
    <_>
      <internalNodes>
        0 -1 4723 858725436 67251948 943055875 -2000562701 1214387244
        1746202896 -24441310 72808528</internalNodes>
      <leafValues>
        -3.2395040988922119e-01 1.0897930711507797e-01</leafValues></_>
    <_>
      <internalNodes>
        0 -1 3649 -187520632 1312907542 -841448848 -1118284896
        -998722860 988045448 -226388198 1928325407</internalNodes>
      <leafValues>
        -2.2377990186214447e-01 1.4494265615940094e-01</leafValues></_>
    <_>
      <internalNodes>
        0 -1 4312 -422080508 -10030767 -316001539 839392054 -498512768
        -29411312 -9281806 -115194614</internalNodes>
      <leafValues>
        -1.8449719250202179e-01 1.8000237643718719e-01</leafValues></_>
    <_>
      <internalNodes>
        0 -1 5812 151257088 254290699 947797529 437533336 2097418552
        -1297704946 -1504575364 201334804</internalNodes>
      <leafValues>
        -5.2002865076065063e-01 6.4997136592864990e-02</leafValues></_>
    <_>
      <internalNodes>
        0 -1 5861 -217453829 1006018733 -1658929795 -1078030815
        -1368882783 -1344012371 1182506751 -171333986</internalNodes>
      <leafValues>
        -1.1921022832393646e-01 2.9482594132423401e-01</leafValues></_></weakClassifiers></stage11>
</opencv_storage>
