<?xml version="1.0"?>
<opencv_storage>
<stage13>
  <maxWeakCount>55</maxWeakCount>
  <stageThreshold>-1.0204730033874512e+00</stageThreshold>
  <weakClassifiers>
    <_>
      <internalNodes>
        0 -1 25306 -1956380675 -551118364 201285493 -539038340
        -1342768141 -1228947595 257949691 -1912873735</internalNodes>
      <leafValues>
        -1.8521527945995331e-01 2.3401188850402832e-01</leafValues></_>
    <_>
      <internalNodes>
        0 -1 221 2084229775 -579209361 -362615041 -546309641 -566626337
        -276859833 -43516225 -215752753</internalNodes>
      <leafValues>
        -1.3327130675315857e-01 2.9340821504592896e-01</leafValues></_>
    <_>
      <internalNodes>
        0 -1 27118 -738201853 -1016422865 -1375848623 -6823946
        2010072511 412576931 1908403907 -168821009</internalNodes>
      <leafValues>
        -1.0717387497425079e-01 3.0867126584053040e-01</leafValues></_>
    <_>
      <internalNodes>
        0 -1 16173 -148897833 638263839 -1087176713 -1118450709
        -872558344 -71422657 -192911649 -1075067229</internalNodes>
      <leafValues>
        -1.3432991504669189e-01 2.4681119620800018e-01</leafValues></_>
    <_>
      <internalNodes>
        0 -1 5668 -36394841 -661260065 53885521 -398498809 -565597385
        -1000786310 2068971371 1719628727</internalNodes>
      <leafValues>
        -2.0102876424789429e-01 1.4105384051799774e-01</leafValues></_>
    <_>
      <internalNodes>
        0 -1 6786 -86357795 -1863444899 -2110252099 -1082166769
        -89342636 -260633004 -354501730 -76309649</internalNodes>
      <leafValues>
        -1.1249822378158569e-01 2.3835383355617523e-01</leafValues></_>
    <_>
      <internalNodes>
        0 -1 481 -896015701 463809515 -1431671889 1319890799 575764263
        1467447109 -1913717504 1432868707</internalNodes>
      <leafValues>
        -1.2195930629968643e-01 2.1878744661808014e-01</leafValues></_>
    <_>
      <internalNodes>
        0 -1 24251 -1178953967 -2072971660 -1923417219 -1120011564
        189143761 -1094790743 713493741 -1915922196</internalNodes>
      <leafValues>
        -2.1902231872081757e-01 1.2295844405889511e-01</leafValues></_>
    <_>
      <internalNodes>
        0 -1 25903 185864212 292611173 2089069535 329389910 -1518730327
        -36724268 -1532609608 167784194</internalNodes>
      <leafValues>
        -2.9524758458137512e-01 1.1271128803491592e-01</leafValues></_>
    <_>
      <internalNodes>
        0 -1 16341 -234888277 -756746469 332330773 889694757 -606866033
        1190755552 -135417089 -238027029</internalNodes>
      <leafValues>
        -8.5147559642791748e-02 3.5907235741615295e-01</leafValues></_>
    <_>
      <internalNodes>
        0 -1 9096 -91583398 1425031796 1421113363 1059490545 -127270776
        2135649637 943907514 2077741638</internalNodes>
      <leafValues>
        -1.7198517918586731e-01 1.6867886483669281e-01</leafValues></_>
    <_>
      <internalNodes>
        0 -1 5268 1141564162 918486065 560878710 556855639 1089209597
        -1348249479 -1558193432 746864722</internalNodes>
      <leafValues>
        -2.4891565740108490e-01 1.2703189253807068e-01</leafValues></_>
    <_>
      <internalNodes>
        0 -1 11589 2654720 3287784 -1269622539 -1149671755 1412887793
        1252369335 366940545 -1445247760</internalNodes>
      <leafValues>
        -2.5502064824104309e-01 1.0105074197053909e-01</leafValues></_>
    <_>
      <internalNodes>
        0 -1 15493 -1002009418 423459260 -1946413290 2113416687
        -1508167964 -1891707020 -1427886430 -1343272310</internalNodes>
      <leafValues>
        -1.2343312054872513e-01 2.2542482614517212e-01</leafValues></_>
    <_>
      <internalNodes>
        0 -1 26885 746006321 -1406353736 -2013150883 -1921200968
        -1094049679 -901590073 208956725 -360948531</internalNodes>
      <leafValues>
        -2.5534513592720032e-01 1.1229103058576584e-01</leafValues></_>
    <_>
      <internalNodes>
        0 -1 14012 1380905162 985690959 60632283 -1181956157 -561250879
        1595731864 1808217821 -418544742</internalNodes>
      <leafValues>
        -1.4235413074493408e-01 2.0657704770565033e-01</leafValues></_>
    <_>
      <internalNodes>
        0 -1 26599 -386430972 1221901378 -274413787 679542592 2087883274
        1567090872 -1666822640 342078271</internalNodes>
      <leafValues>
        -2.7869898080825806e-01 9.6279531717300415e-02</leafValues></_>
    <_>
      <internalNodes>
        0 -1 22968 354834208 1505293968 1976955070 -444866188
        -1932300833 -1675096064 2040218110 134378509</internalNodes>
      <leafValues>
        -2.3890790343284607e-01 1.3435137271881104e-01</leafValues></_>
    <_>
      <internalNodes>
        0 -1 13171 -162328030 -2077841892 13713456 664642194 -827218040
        738752641 84966303 1473578987</internalNodes>
      <leafValues>
        -2.5347203016281128e-01 1.0691668093204498e-01</leafValues></_>
    <_>
      <internalNodes>
        0 -1 18356 1887955751 -184879177 1696183217 -1959757130
        1618818470 1695529533 -1345016108 -194710336</internalNodes>
      <leafValues>
        -1.7071831226348877e-01 1.7731299996376038e-01</leafValues></_>
    <_>
      <internalNodes>
        0 -1 751 1248724486 -7917906 -1372574701 645112322 107312420
        2047131749 1156031239 1682326127</internalNodes>
      <leafValues>
        -2.6712253689765930e-01 1.1274364590644836e-01</leafValues></_>
    <_>
      <internalNodes>
        0 -1 26010 -31027168 -1829085392 -1931422368 -108138896 5490332
        -2004234411 -659781396 -1917588949</internalNodes>
      <leafValues>
        -1.5457609295845032e-01 2.0065623521804810e-01</leafValues></_>
    <_>
      <internalNodes>
        0 -1 22915 2138960817 -1872579076 -386515750 1505689236
        1196760284 281313146 569939192 -1880171444</internalNodes>
      <leafValues>
        -1.6207858920097351e-01 1.9134970009326935e-01</leafValues></_>
    <_>
      <internalNodes>
        0 -1 15668 -1172175784 1541148850 885930495 -1655693868
        729681140 -286557684 167009692 -1475867032</internalNodes>
      <leafValues>
        -2.3419837653636932e-01 1.3909561932086945e-01</leafValues></_>
    <_>
      <internalNodes>
        0 -1 26431 -307392639 259496331 1529079888 1129106783 106889768
        -1972656417 -2028785001 -2121550517</internalNodes>
      <leafValues>
        -1.9428212940692902e-01 1.6017557680606842e-01</leafValues></_>
    <_>
      <internalNodes>
        0 -1 20495 -1039422910 311073041 -138886988 749403128 1205306432
        1291612900 -1266899946 -462304620</internalNodes>
      <leafValues>
        -2.1511141955852509e-01 1.5474504232406616e-01</leafValues></_>
    <_>
      <internalNodes>
        0 -1 7101 -1366646000 791035007 663010524 124483073 12231888
        779560176 264766464 1306185294</internalNodes>
      <leafValues>
        -2.7283880114555359e-01 1.1181418597698212e-01</leafValues></_>
    <_>
      <internalNodes>
        0 -1 13586 1452561584 -1088502577 -598616108 917806854
        -1223726236 1928333497 -835524371 -1557105504</internalNodes>
      <leafValues>
        -2.6313430070877075e-01 1.2635706365108490e-01</leafValues></_>
    <_>
      <internalNodes>
        0 -1 26410 753076227 -606347241 -1262134012 1826206703
        1024200307 1202928405 -1695252522 1083367094</internalNodes>
      <leafValues>
        -2.6026734709739685e-01 1.1369147896766663e-01</leafValues></_>
    <_>
      <internalNodes>
        0 -1 24081 1947768720 909224978 -1265495083 -915704062 952795272
        2011292848 -1566528882 590050578</internalNodes>
      <leafValues>
        -2.0137925446033478e-01 1.5605179965496063e-01</leafValues></_>
    <_>
      <internalNodes>
        0 -1 14286 -804358496 344179606 -441820574 963979970 1950421376
        -322785700 -862506950 1100302887</internalNodes>
      <leafValues>
        -2.3661211133003235e-01 1.3829632103443146e-01</leafValues></_>
    <_>
      <internalNodes>
        0 -1 5140 1073466062 -280103105 -162429090 1107783740 -872959161
        -279476138 1955808404 -211034789</internalNodes>
      <leafValues>
        -1.9818995893001556e-01 1.6212533414363861e-01</leafValues></_>
    <_>
      <internalNodes>
        0 -1 15296 1430315176 -1668644781 761739489 -509558276
        -2029754483 994947722 -1312938688 382215242</internalNodes>
      <leafValues>
        -2.3215559124946594e-01 1.4563223719596863e-01</leafValues></_>
    <_>
      <internalNodes>
        0 -1 13365 674043031 782709305 2048199978 645123135 2035673070
        -1693185825 2076327682 1467857973</internalNodes>
      <leafValues>
        -2.4338075518608093e-01 1.2326438724994659e-01</leafValues></_>
    <_>
      <internalNodes>
        0 -1 2355 -1354909143 -1938489534 -1304054925 1468857424
        -1932120961 1543301252 -1881168009 -1058198153</internalNodes>
      <leafValues>
        -1.7276650667190552e-01 1.9010908901691437e-01</leafValues></_>
    <_>
      <internalNodes>
        0 -1 22266 1581250611 -1918444752 -248513675 -1146505693
        213870503 -1377705990 1243237101 -823277877</internalNodes>
      <leafValues>
        -1.3689944148063660e-01 2.3274482786655426e-01</leafValues></_>
    <_>
      <internalNodes>
        0 -1 22063 -795197188 1733452368 -325431303 1992013051
        -573157511 -729368651 -695817813 1024179467</internalNodes>
      <leafValues>
        -1.8893758952617645e-01 1.6995811462402344e-01</leafValues></_>
    <_>
      <internalNodes>
        0 -1 20535 -301996784 841286805 855303412 -1217743768 350588120
        866329957 316528808 -878251311</internalNodes>
      <leafValues>
        -1.6309641301631927e-01 1.9261500239372253e-01</leafValues></_>
    <_>
      <internalNodes>
        0 -1 433 -425711998 -1556483797 79957511 1200658467 717589024
        -1624082208 -1570305123 1452307269</internalNodes>
      <leafValues>
        -2.7035051584243774e-01 1.1688260734081268e-01</leafValues></_>
    <_>
      <internalNodes>
        0 -1 18570 -1027103740 646185618 921575426 -1262487922
        1364081347 1268776819 -194620892 -1578655066</internalNodes>
      <leafValues>
        -2.0651213824748993e-01 1.5324223041534424e-01</leafValues></_>
    <_>
      <internalNodes>
        0 -1 25092 -1024324607 -634768015 -290789633 2032883254
        -1847534208 929181279 669247228 -1153118</internalNodes>
      <leafValues>
        -1.4440454542636871e-01 2.2167548537254333e-01</leafValues></_>
    <_>
      <internalNodes>
        0 -1 22935 697051509 1828279012 -393572819 1282364732 1369333331
        1601290745 398359351 84149544</internalNodes>
      <leafValues>
        -3.1563422083854675e-01 9.9738933145999908e-02</leafValues></_>
    <_>
      <internalNodes>
        0 -1 5535 -793753072 -1286047884 1006973275 -40812852 2134534740
        -370282 1664136844 -2037185440</internalNodes>
      <leafValues>
        -1.9063204526901245e-01 1.7199306190013885e-01</leafValues></_>
    <_>
      <internalNodes>
        0 -1 21020 712482702 781657121 -1936374587 -1633866221 854146193
        -95724821 -498016620 1437285</internalNodes>
      <leafValues>
        -2.4865280091762543e-01 1.3261802494525909e-01</leafValues></_>
    <_>
      <internalNodes>
        0 -1 23287 -255718807 -190952185 1312159204 -1282674576
        1165038933 1230038983 -365275684 -604544130</internalNodes>
      <leafValues>
        -1.4970701932907104e-01 2.1979147195816040e-01</leafValues></_>
    <_>
      <internalNodes>
        0 -1 12873 -1022052095 710069 -951206155 -330313856 1061596676
        1304939750 1465462292 -691750025</internalNodes>
      <leafValues>
        -2.5635674595832825e-01 1.2759611010551453e-01</leafValues></_>
    <_>
      <internalNodes>
        0 -1 8612 1884487566 -1089338478 -66680427 -1194843871 246616271
        -7118007 -352909544 817713677</internalNodes>
      <leafValues>
        -2.1361722052097321e-01 1.5407797694206238e-01</leafValues></_>
    <_>
      <internalNodes>
        0 -1 19770 -1033372225 -789960944 -1073843243 2134534896
        -512783152 1073444855 -1150453522 -1074830006</internalNodes>
      <leafValues>
        -1.2137134373188019e-01 2.8621834516525269e-01</leafValues></_>
    <_>
      <internalNodes>
        0 -1 18552 -95689804 819382442 -1370049877 -1467531216
        1259701345 -1924287295 -1970363427 432343762</internalNodes>
      <leafValues>
        -2.1313832700252533e-01 1.5937839448451996e-01</leafValues></_>
    <_>
      <internalNodes>
        0 -1 9665 584728804 -24935105 2080405786 120593823 2034893156
        -1180920131 -1619518830 841379602</internalNodes>
      <leafValues>
        -2.9020947217941284e-01 1.2089791148900986e-01</leafValues></_>
    <_>
      <internalNodes>
        0 -1 25233 2060442419 -2017677382 1034924304 771337424 141693829
        -860160080 596201329 -1908968421</internalNodes>
      <leafValues>
        -1.7675150930881500e-01 1.8657092750072479e-01</leafValues></_>
    <_>
      <internalNodes>
        0 -1 2484 2032885239 -1685923072 1862542633 -1729803245
        -1344840512 -297589282 1716766297 -1328682149</internalNodes>
      <leafValues>
        -1.5226386487483978e-01 2.2363561391830444e-01</leafValues></_>
    <_>
      <internalNodes>
        0 -1 16800 1101770486 218536828 1662812720 -1890558158
        1243429830 138419608 -192119256 -670444350</internalNodes>
      <leafValues>
        -2.0495101809501648e-01 1.6424815356731415e-01</leafValues></_>
    <_>
      <internalNodes>
        0 -1 27180 1877973515 1199568557 1995549470 912850810 -486771708
        -1521292491 1483205524 1347155930</internalNodes>
      <leafValues>
        -2.2293913364410400e-01 1.4671356976032257e-01</leafValues></_>
    <_>
      <internalNodes>
        0 -1 18636 2057818194 926437746 136044785 977803468 450500764
        -1108688999 492570806 2061456254</internalNodes>
      <leafValues>
        -2.0078998804092407e-01 1.6143561899662018e-01</leafValues></_></weakClassifiers></stage13>
</opencv_storage>
