<?xml version="1.0"?>
<opencv_storage>
<stage8>
  <maxWeakCount>25</maxWeakCount>
  <stageThreshold>-1.2856785058975220e+00</stageThreshold>
  <weakClassifiers>
    <_>
      <internalNodes>
        0 -1 4922 368961809 738106565 -1781530723 -11826917 -1156845068
        -1129603367 807645428 -50332753</internalNodes>
      <leafValues>
        -5.2103227376937866e-01 -3.9344262331724167e-02</leafValues></_>
    <_>
      <internalNodes>
        0 -1 18 1386611274 525822023 1775835994 2140387701 -764357697
        -880194016 -404842021 979631207</internalNodes>
      <leafValues>
        -3.2827815413475037e-01 1.8551608920097351e-01</leafValues></_>
    <_>
      <internalNodes>
        0 -1 5442 -4833781 252455682 -1392907049 -1348621557 -1614747183
        794405233 201368658 1190656715</internalNodes>
      <leafValues>
        -2.9207921028137207e-01 2.0341707766056061e-01</leafValues></_>
    <_>
      <internalNodes>
        0 -1 8196 -1490033231 -528745159 1341123442 -75605932 249924415
        259420109 516373887 -907029083</internalNodes>
      <leafValues>
        -1.8505798280239105e-01 3.0884248018264771e-01</leafValues></_>
    <_>
      <internalNodes>
        0 -1 1534 -297926144 1524526200 1221739512 1344772174 -541843952
        -20127200 -436928816 -76514442</internalNodes>
      <leafValues>
        -3.4933176636695862e-01 1.7494823038578033e-01</leafValues></_>
    <_>
      <internalNodes>
        0 -1 6827 286200176 468373781 -70223009 -14996980 2035223961
        -819773205 1552831483 153700372</internalNodes>
      <leafValues>
        -3.6468467116355896e-01 1.6862422227859497e-01</leafValues></_>
    <_>
      <internalNodes>
        0 -1 1098 776252939 -1059150226 1678715168 670516115 -471664078
        9203746 1984902967 1926191042</internalNodes>
      <leafValues>
        -3.9459720253944397e-01 1.5525998175144196e-01</leafValues></_>
    <_>
      <internalNodes>
        0 -1 194 52621266 -1357970688 751216214 -1653277712 1847763952
        1131751317 -287039290 1678860515</internalNodes>
      <leafValues>
        -3.7827727198600769e-01 1.6368798911571503e-01</leafValues></_>
    <_>
      <internalNodes>
        0 -1 7914 -824570087 384746858 -183343203 140520210 -1499502662
        618295977 -336666888 -89489862</internalNodes>
      <leafValues>
        -2.8957727551460266e-01 2.1610696613788605e-01</leafValues></_>
    <_>
      <internalNodes>
        0 -1 8016 1412766736 -191712551 1616961660 905098772 1900361209
        419268749 982818206 7112111</internalNodes>
      <leafValues>
        -3.7589076161384583e-01 1.6596204042434692e-01</leafValues></_>
    <_>
      <internalNodes>
        0 -1 7498 -593519432 -185445842 -1185262848 -1153311740
        -665646330 -1897116651 -1940322413 481162527</internalNodes>
      <leafValues>
        -2.8164815902709961e-01 2.1870554983615875e-01</leafValues></_>
    <_>
      <internalNodes>
        0 -1 3040 35432338 275792158 228395413 -37645098 104331701
        -1207149141 -733468499 -1964777463</internalNodes>
      <leafValues>
        -2.7409955859184265e-01 2.2472822666168213e-01</leafValues></_>
    <_>
      <internalNodes>
        0 -1 1198 -337131966 -1726167198 -187682860 -103231328
        -629582076 1879565830 -403224988 -715662011</internalNodes>
      <leafValues>
        -3.0210760235786438e-01 2.2431491315364838e-01</leafValues></_>
    <_>
      <internalNodes>
        0 -1 2118 1415201322 597002799 -687546244 -1320657330 415715537
        1526452912 1537694632 1446292488</internalNodes>
      <leafValues>
        -4.6986290812492371e-01 1.3814765214920044e-01</leafValues></_>
    <_>
      <internalNodes>
        0 -1 5031 1477372225 -686231089 285059903 -1412923388 -180132397
        1538303674 681390619 1624105759</internalNodes>
      <leafValues>
        -2.7624902129173279e-01 2.5013905763626099e-01</leafValues></_>
    <_>
      <internalNodes>
        0 -1 1030 -2040071257 -2026145085 1860891644 -876612188
        -1898999333 -16844809 912744184 -570435717</internalNodes>
      <leafValues>
        -1.9678328931331635e-01 3.4979078173637390e-01</leafValues></_>
    <_>
      <internalNodes>
        0 -1 699 1178298991 1252726797 1793585939 149472943 -336719036
        -1235623424 -74864554 -30213258</internalNodes>
      <leafValues>
        -3.0054134130477905e-01 2.3024152219295502e-01</leafValues></_>
    <_>
      <internalNodes>
        0 -1 5633 -645728086 -1154613982 -1212835182 -1657166193
        -1065560696 -60736244 75356283 794809083</internalNodes>
      <leafValues>
        -2.3869942128658295e-01 2.8471496701240540e-01</leafValues></_>
    <_>
      <internalNodes>
        0 -1 3062 1014277712 70624341 1154484010 728042576 -703320144
        -1812974936 -1707087247 257715969</internalNodes>
      <leafValues>
        -3.6940905451774597e-01 1.7805525660514832e-01</leafValues></_>
    <_>
      <internalNodes>
        0 -1 8429 -61895390 178977809 -1588956832 2934667 1319458328
        43694126 -203262380 1155715907</internalNodes>
      <leafValues>
        -4.7480469942092896e-01 1.3869379460811615e-01</leafValues></_>
    <_>
      <internalNodes>
        0 -1 5649 -243623236 2145139750 709421175 474051652 1002318424
        1070098472 678177727 502512943</internalNodes>
      <leafValues>
        -3.1459161639213562e-01 2.1406416594982147e-01</leafValues></_>
    <_>
      <internalNodes>
        0 -1 3502 715957297 -1644672940 -1128201473 559731291 196023189
        -369474446 231741008 -22067169</internalNodes>
      <leafValues>
        -2.7982914447784424e-01 2.4756297469139099e-01</leafValues></_>
    <_>
      <internalNodes>
        0 -1 8380 1895274529 1170776903 -1189820569 1985417135 866067487
        573168953 -1750132687 1903548691</internalNodes>
      <leafValues>
        -3.1906387209892273e-01 2.2554869949817657e-01</leafValues></_>
    <_>
      <internalNodes>
        0 -1 6760 -808003580 1046085888 -326815621 -235688612 1557630268
        -709683036 882737324 -723124594</internalNodes>
      <leafValues>
        -2.6739257574081421e-01 2.6615333557128906e-01</leafValues></_>
    <_>
      <internalNodes>
        0 -1 4251 9781248 78043970 -1564971357 147507159 -1625141131
        940861604 -1368508672 40949844</internalNodes>
      <leafValues>
        -6.4014470577239990e-01 1.1859695613384247e-01</leafValues></_></weakClassifiers></stage8>
</opencv_storage>
