<?xml version="1.0"?>
<opencv_storage>
<stage9>
  <maxWeakCount>52</maxWeakCount>
  <stageThreshold>-9.3509554862976074e-01</stageThreshold>
  <weakClassifiers>
    <_>
      <internalNodes>
        0 -1 73 -227553558 2012201955 -424780290 -1276119565 -67128361
        -43916 -691544065 -143396253</internalNodes>
      <leafValues>
        -2.0246879756450653e-01 2.4425341188907623e-01</leafValues></_>
    <_>
      <internalNodes>
        0 -1 8196 -1347426373 -243278723 1572856695 -76178561
        -2031829077 -1345445907 -1991246465 -536881667</internalNodes>
      <leafValues>
        -1.2864358723163605e-01 3.4831219911575317e-01</leafValues></_>
    <_>
      <internalNodes>
        0 -1 6092 449302613 1033618899 -69512737 -105073003 -773856794
        -90456075 -991140612 151143680</internalNodes>
      <leafValues>
        -2.7587914466857910e-01 1.4848016202449799e-01</leafValues></_>
    <_>
      <internalNodes>
        0 -1 9 -927931866 -1989208163 182122335 -11968641 -323158823
        1824071714 -1307648515 1914921039</internalNodes>
      <leafValues>
        -2.4473549425601959e-01 1.2773382663726807e-01</leafValues></_>
    <_>
      <internalNodes>
        0 -1 8373 -167790799 -637538633 -285345900 -923022617 1543501815
        268299431 -378165457 -2131365441</internalNodes>
      <leafValues>
        -1.2379124015569687e-01 2.6347646117210388e-01</leafValues></_>
    <_>
      <internalNodes>
        0 -1 2129 -88127457 1366387475 41605023 2047556973 -373576580
        -336642235 -292488209 -12910758</internalNodes>
      <leafValues>
        -1.2732148170471191e-01 2.4845787882804871e-01</leafValues></_>
    <_>
      <internalNodes>
        0 -1 2663 -17830273 915860143 921972509 838924919 1510028576
        -75000763 -30344353 -80613849</internalNodes>
      <leafValues>
        -2.0439794659614563e-01 1.7215619981288910e-01</leafValues></_>
    <_>
      <internalNodes>
        0 -1 3944 -428398047 793512709 -997086145 -1948486635 1081337139
        -41992206 544549495 545652639</internalNodes>
      <leafValues>
        -2.2641660273075104e-01 1.6528069972991943e-01</leafValues></_>
    <_>
      <internalNodes>
        0 -1 6698 -136057604 1553547477 1612199058 1616732945 -935264098
        -1154941957 -523265077 736748186</internalNodes>
      <leafValues>
        -2.0645092427730560e-01 1.6280530393123627e-01</leafValues></_>
    <_>
      <internalNodes>
        0 -1 166 -2146392446 1590567920 1156661809 -1795704575 193708991
        370139253 -460080389 1282741767</internalNodes>
      <leafValues>
        -2.7655422687530518e-01 1.1520072817802429e-01</leafValues></_>
    <_>
      <internalNodes>
        0 -1 7730 1348078712 -1159582949 519913215 691152779 -88067591
        -1196405323 -555143171 -72755490</internalNodes>
      <leafValues>
        -1.4600256085395813e-01 2.0864646136760712e-01</leafValues></_>
    <_>
      <internalNodes>
        0 -1 6668 -427310578 -750342193 -960265148 -163804473 1161692421
        1644621602 2127788878 -253370298</internalNodes>
      <leafValues>
        -1.7762491106987000e-01 1.7464214563369751e-01</leafValues></_>
    <_>
      <internalNodes>
        0 -1 8442 -169873915 1111813279 2054675236 -1602703896
        1933104384 12728178 -85235456 -789125633</internalNodes>
      <leafValues>
        -2.2826309502124786e-01 1.4032536745071411e-01</leafValues></_>
    <_>
      <internalNodes>
        0 -1 501 -87036241 -81285950 -1939601429 -444138938 1098051127
        -210670527 -701105537 -134236569</internalNodes>
      <leafValues>
        -1.3729009032249451e-01 2.3068216443061829e-01</leafValues></_>
    <_>
      <internalNodes>
        0 -1 4559 -228096077 -1280072440 -1390870211 -1481193558
        1936418501 1070740399 -640284897 -138676514</internalNodes>
      <leafValues>
        -1.3188628852367401e-01 2.4781712889671326e-01</leafValues></_>
    <_>
      <internalNodes>
        0 -1 2950 -1968515792 -1215552291 -1488986123 -1423180064
        572137857 -1880738188 261293200 -1955656511</internalNodes>
      <leafValues>
        -1.9422192871570587e-01 1.7000310122966766e-01</leafValues></_>
    <_>
      <internalNodes>
        0 -1 8002 -1425234123 -1427587162 2012905271 -23776143
        -2078782736 -1431246370 737677260 228181141</internalNodes>
      <leafValues>
        -2.4548844993114471e-01 1.2188061326742172e-01</leafValues></_>
    <_>
      <internalNodes>
        0 -1 3672 1601941504 -2063552856 873733137 367856237 102075544
        77727366 1195489134 1283326654</internalNodes>
      <leafValues>
        -2.2955051064491272e-01 1.4765387773513794e-01</leafValues></_>
    <_>
      <internalNodes>
        0 -1 6466 34304800 498260640 -318683529 -240127174 555507689
        -63800849 -579055463 1079082100</internalNodes>
      <leafValues>
        -2.7808076143264771e-01 1.1840388178825378e-01</leafValues></_>
    <_>
      <internalNodes>
        0 -1 6351 -25480649 1021900734 1220490083 229203965 1586385168
        -889481808 1836031510 1869781556</internalNodes>
      <leafValues>
        -2.1318282186985016e-01 1.5038992464542389e-01</leafValues></_>
    <_>
      <internalNodes>
        0 -1 7078 -2087790671 852672410 -1384149583 763571252 164426940
        -2018989733 940072148 -889564954</internalNodes>
      <leafValues>
        -1.8311777710914612e-01 1.7827382683753967e-01</leafValues></_>
    <_>
      <internalNodes>
        0 -1 7552 1317995186 -736711080 592600815 370254884 -1941033040
        -55116994 -932003430 1253005266</internalNodes>
      <leafValues>
        -2.0545366406440735e-01 1.5832835435867310e-01</leafValues></_>
    <_>
      <internalNodes>
        0 -1 4320 -95980037 1489643636 282729011 -508551366 255874432
        2042748500 -1133152166 -812258305</internalNodes>
      <leafValues>
        -1.4860445261001587e-01 2.2180962562561035e-01</leafValues></_>
    <_>
      <internalNodes>
        0 -1 6336 -395334654 334225463 609851318 -924138258 1960022439
        1109680807 1950868134 -534264974</internalNodes>
      <leafValues>
        -1.8918889760971069e-01 1.7000956833362579e-01</leafValues></_>
    <_>
      <internalNodes>
        0 -1 6780 -17962502 -68094610 -1153697378 -1287486678
        -1915881507 -1000472609 -302989318 -805568797</internalNodes>
      <leafValues>
        -1.1844965815544128e-01 2.9266947507858276e-01</leafValues></_>
    <_>
      <internalNodes>
        0 -1 4324 136841216 796961325 1308621354 47474430 -790407133
        2092710861 911296005 60709</internalNodes>
      <leafValues>
        -4.2629101872444153e-01 8.8198818266391754e-02</leafValues></_>
    <_>
      <internalNodes>
        0 -1 6688 -488135766 10659251 686463134 -305748226 -403921913
        1213689092 -606290728 -506658858</internalNodes>
      <leafValues>
        -1.9622404873371124e-01 1.6936062276363373e-01</leafValues></_>
    <_>
      <internalNodes>
        0 -1 5124 1948574338 876667420 1468019387 490064134 604657728
        72067772 802718228 1125065018</internalNodes>
      <leafValues>
        -2.7601772546768188e-01 1.2421394139528275e-01</leafValues></_>
    <_>
      <internalNodes>
        0 -1 8003 524263331 -1374947242 1506529089 -894373128
        -1276790922 -2005154151 151610950 -859965813</internalNodes>
      <leafValues>
        -2.1211127936840057e-01 1.5645267069339752e-01</leafValues></_>
    <_>
      <internalNodes>
        0 -1 4679 2034799232 421611010 -996811776 860981794 205664432
        1250903056 -263648612 38038194</internalNodes>
      <leafValues>
        -2.7766737341880798e-01 1.2349835783243179e-01</leafValues></_>
    <_>
      <internalNodes>
        0 -1 6788 -1067574256 1124087612 1057684477 862247314 24969536
        263012709 -2115081620 -1435011882</internalNodes>
      <leafValues>
        -2.2827646136283875e-01 1.4188757538795471e-01</leafValues></_>
    <_>
      <internalNodes>
        0 -1 7821 -1506753191 -637496887 -1095585330 -1115219210
        1137651117 -759800 -1452692645 -1914744419</internalNodes>
      <leafValues>
        -1.8782353401184082e-01 1.7778445780277252e-01</leafValues></_>
    <_>
      <internalNodes>
        0 -1 2017 -102814539 -105510698 1785388663 1818285228 -542422924
        -1656862178 -269435524 -902859402</internalNodes>
      <leafValues>
        -1.7300957441329956e-01 1.9560030102729797e-01</leafValues></_>
    <_>
      <internalNodes>
        0 -1 2566 -119044394 1501978330 545415321 -1074009405 -184175999
        1913853724 -522978610 1831288095</internalNodes>
      <leafValues>
        -1.6098973155021667e-01 2.0982114970684052e-01</leafValues></_>
    <_>
      <internalNodes>
        0 -1 8409 -770183927 407514140 -1834778857 2027561742 -213549365
        -1436253409 114497024 1231224674</internalNodes>
      <leafValues>
        -1.8484607338905334e-01 1.8166537582874298e-01</leafValues></_>
    <_>
      <internalNodes>
        0 -1 3064 -1973113596 -147575035 -105795851 389903236 1273597826
        -73470985 -1359241333 -118012369</internalNodes>
      <leafValues>
        -1.4781950414180756e-01 2.3137861490249634e-01</leafValues></_>
    <_>
      <internalNodes>
        0 -1 2144 1991957687 1945040495 -1293558097 43032113 2085897438
        -280657987 -50569256 -1686680978</internalNodes>
      <leafValues>
        -1.5687137842178345e-01 2.1181693673133850e-01</leafValues></_>
    <_>
      <internalNodes>
        0 -1 3179 1280974942 -1286073799 1394540373 169933946
        -1083804488 -108179342 1314263006 -1659799692</internalNodes>
      <leafValues>
        -2.4313493072986603e-01 1.3762326538562775e-01</leafValues></_>
    <_>
      <internalNodes>
        0 -1 5234 -353313099 1500835509 1072398200 -1075382570
        -1124202759 -1629721348 -2119564104 -1351730564</internalNodes>
      <leafValues>
        -1.5992434322834015e-01 2.1013945341110229e-01</leafValues></_>
    <_>
      <internalNodes>
        0 -1 6357 -1994136364 -800005274 -222429518 -1648759403
        -1828239208 1058884605 -1939460706 194496730</internalNodes>
      <leafValues>
        -1.9703321158885956e-01 1.7935116589069366e-01</leafValues></_>
    <_>
      <internalNodes>
        0 -1 3974 -329962398 1247950949 202201524 2039344934 2143299091
        92184733 1746186144 5049908</internalNodes>
      <leafValues>
        -3.2096913456916809e-01 1.1363767832517624e-01</leafValues></_>
    <_>
      <internalNodes>
        0 -1 198 642531406 1335945722 789574222 -1724660369 39241173
        238899569 -717509556 1194358564</internalNodes>
      <leafValues>
        -2.9422104358673096e-01 1.1943397670984268e-01</leafValues></_>
    <_>
      <internalNodes>
        0 -1 997 -183062879 305808624 611675415 995198327 619220642
        -1636539156 141435050 -1689781653</internalNodes>
      <leafValues>
        -1.8088471889495850e-01 1.9718877971172333e-01</leafValues></_>
    <_>
      <internalNodes>
        0 -1 5690 -1076908042 985015005 418331060 186957956 538451296
        873790826 -1952382568 1809788267</internalNodes>
      <leafValues>
        -2.0790992677211761e-01 1.6259062290191650e-01</leafValues></_>
    <_>
      <internalNodes>
        0 -1 7718 1188988119 -1876805977 -1644495089 -1846381148
        -1002545932 778708835 1790932473 -76026503</internalNodes>
      <leafValues>
        -1.5004099905490875e-01 2.2931940853595734e-01</leafValues></_>
    <_>
      <internalNodes>
        0 -1 5293 536882448 215364451 -1185422352 575450786 1217610077
        856444865 1825861384 2099712</internalNodes>
      <leafValues>
        -5.7062160968780518e-01 5.6881286203861237e-02</leafValues></_>
    <_>
      <internalNodes>
        0 -1 8407 -1064868062 8879459 -364027487 1355211662 879621442
        619669248 -1193778368 574617275</internalNodes>
      <leafValues>
        -2.7479997277259827e-01 1.2218901515007019e-01</leafValues></_>
    <_>
      <internalNodes>
        0 -1 2228 -1148050092 -1912332463 -1151200771 -1443007914
        -13419403 -1352740235 -89385812 -1375597288</internalNodes>
      <leafValues>
        -2.6677101850509644e-01 1.2845861911773682e-01</leafValues></_>
    <_>
      <internalNodes>
        0 -1 6720 -759715584 1005725521 1144927096 -1162091213 885995093
        -742213962 -436736390 -963778845</internalNodes>
      <leafValues>
        -1.8168982863426208e-01 1.9349640607833862e-01</leafValues></_>
    <_>
      <internalNodes>
        0 -1 558 1153900800 878017374 575032879 749079860 1919237073
        1881166547 2136868804 81038911</internalNodes>
      <leafValues>
        -3.3739513158798218e-01 1.0379211604595184e-01</leafValues></_>
    <_>
      <internalNodes>
        0 -1 5433 -235409450 186072829 -1368640345 -26288198 -403829607
        -634683971 1320177748 -1478128058</internalNodes>
      <leafValues>
        -1.7703391611576080e-01 2.0178598165512085e-01</leafValues></_>
    <_>
      <internalNodes>
        0 -1 6679 128921842 423330050 -857814113 -111126617 1854169029
        -275787847 -395549697 -137385669</internalNodes>
      <leafValues>
        -1.5341015160083771e-01 2.3446448147296906e-01</leafValues></_></weakClassifiers></stage9>
</opencv_storage>
