<?xml version="1.0"?>
<opencv_storage>
<stage15>
  <maxWeakCount>58</maxWeakCount>
  <stageThreshold>-9.7755587100982666e-01</stageThreshold>
  <weakClassifiers>
    <_>
      <internalNodes>
        0 -1 121 -696522065 -425201777 -490311829 -261959752 1885845325
        -161016209 -134743090 -210242577</internalNodes>
      <leafValues>
        -9.4625867903232574e-02 3.2407405972480774e-01</leafValues></_>
    <_>
      <internalNodes>
        0 -1 7392 60553665 -1998962352 -314664001 2140878560 1196292809
        -1897093057 1191704053 1232072800</internalNodes>
      <leafValues>
        -2.3450544476509094e-01 1.5594416856765747e-01</leafValues></_>
    <_>
      <internalNodes>
        0 -1 7902 -2110185961 -1196286843 -1118036097 707264808
        -1172153674 -1430556676 -551010741 -276831109</internalNodes>
      <leafValues>
        -1.7080090939998627e-01 1.9449938833713531e-01</leafValues></_>
    <_>
      <internalNodes>
        0 -1 4935 273285597 -612782179 2077491199 1431578940 -304300054
        -1157628163 1002854811 -2087268</internalNodes>
      <leafValues>
        -1.4849831163883209e-01 2.1538522839546204e-01</leafValues></_>
    <_>
      <internalNodes>
        0 -1 6432 -134244431 480012238 2000628732 1071551996 85303284
        524162805 1341148889 -1682183026</internalNodes>
      <leafValues>
        -1.6042634844779968e-01 1.9458979368209839e-01</leafValues></_>
    <_>
      <internalNodes>
        0 -1 1681 -788796741 -777903152 -186196827 -302548586
        -1342389046 -1889717713 -273809271 -1457</internalNodes>
      <leafValues>
        -9.1401502490043640e-02 2.8815805912017822e-01</leafValues></_>
    <_>
      <internalNodes>
        0 -1 8031 -572547709 -723789361 -260751856 -1660491203
        1434403039 682686938 1562376965 2220559</internalNodes>
      <leafValues>
        -1.8792209029197693e-01 1.6043797135353088e-01</leafValues></_>
    <_>
      <internalNodes>
        0 -1 5158 -581435774 286307573 80150674 856391170 1424954930
        -54507797 541853853 1029534055</internalNodes>
      <leafValues>
        -2.2340576350688934e-01 1.2163776904344559e-01</leafValues></_>
    <_>
      <internalNodes>
        0 -1 5239 -723379075 1521632881 -1699169583 534516720
        -1951506988 2025591641 -1120392040 -79009752</internalNodes>
      <leafValues>
        -1.5800485014915466e-01 1.8869264423847198e-01</leafValues></_>
    <_>
      <internalNodes>
        0 -1 6921 -1862608427 975423415 -551633101 -1282697873
        -320069387 -21426789 1787385288 -71875317</internalNodes>
      <leafValues>
        -1.5175026655197144e-01 2.0690225064754486e-01</leafValues></_>
    <_>
      <internalNodes>
        0 -1 5699 -1935139787 -1625534016 -1944113803 -2049143999
        -1685291844 -347335963 -881846054 -1903996989</internalNodes>
      <leafValues>
        -1.8029358983039856e-01 1.6442550718784332e-01</leafValues></_>
    <_>
      <internalNodes>
        0 -1 2739 1078360566 156989071 -599433253 505163833 -1026799708
        -88376809 957045705 778204682</internalNodes>
      <leafValues>
        -1.9668872654438019e-01 1.5374495089054108e-01</leafValues></_>
    <_>
      <internalNodes>
        0 -1 3318 -2009422781 -1622671208 1318463582 944015368
        1906067588 -283000395 -1669091352 -13140970</internalNodes>
      <leafValues>
        -1.6951130330562592e-01 1.7405411601066589e-01</leafValues></_>
    <_>
      <internalNodes>
        0 -1 8217 -2037729008 -825431164 1845918753 -322765463
        -1414060280 -1600877319 -84852111 -1044383643</internalNodes>
      <leafValues>
        -2.1862927079200745e-01 1.3114039599895477e-01</leafValues></_>
    <_>
      <internalNodes>
        0 -1 5442 -1619327446 996614963 -1802114310 -1426003399
        1825619232 -1388458901 224459377 1182051898</internalNodes>
      <leafValues>
        -2.2820089757442474e-01 1.2684418261051178e-01</leafValues></_>
    <_>
      <internalNodes>
        0 -1 8012 48259360 -623315461 1430408256 -758886073 2064124503
        1868189877 1604131959 1166083447</internalNodes>
      <leafValues>
        -2.7404156327247620e-01 1.1298900097608566e-01</leafValues></_>
    <_>
      <internalNodes>
        0 -1 8371 -1394631145 -1969871841 1020663537 -1900525164
        1245407892 -1346708961 1779820601 -862536040</internalNodes>
      <leafValues>
        -1.9743810594081879e-01 1.4550001919269562e-01</leafValues></_>
    <_>
      <internalNodes>
        0 -1 4596 1346685194 1410065601 1972709627 855192184 -518700641
        1833012911 767888137 313598663</internalNodes>
      <leafValues>
        -2.2140830755233765e-01 1.3802647590637207e-01</leafValues></_>
    <_>
      <internalNodes>
        0 -1 2842 -912789763 -1752496781 -497864705 -1755645905
        -654624971 -277253019 -397232995 -1183613860</internalNodes>
      <leafValues>
        -1.3161517679691315e-01 2.2003157436847687e-01</leafValues></_>
    <_>
      <internalNodes>
        0 -1 7381 1498808600 890182439 -128227831 -16499959 -864632687
        1549268385 -151680081 1122029360</internalNodes>
      <leafValues>
        -2.4483755230903625e-01 1.1854730546474457e-01</leafValues></_>
    <_>
      <internalNodes>
        0 -1 4196 1089458252 479124827 1501581153 1038689167 4817820
        1625624910 -289592979 821910284</internalNodes>
      <leafValues>
        -2.1124860644340515e-01 1.3971389830112457e-01</leafValues></_>
    <_>
      <internalNodes>
        0 -1 533 1726393966 1928570470 1751345678 188787746 811816038
        1409463073 -447327211 1081431828</internalNodes>
      <leafValues>
        -3.1208181381225586e-01 1.0267128795385361e-01</leafValues></_>
    <_>
      <internalNodes>
        0 -1 1301 1583049407 1042441339 -34817057 705461110 1608064498
        -1107335854 -1703896101 -45940910</internalNodes>
      <leafValues>
        -1.5103074908256531e-01 1.9954490661621094e-01</leafValues></_>
    <_>
      <internalNodes>
        0 -1 5564 -1000805302 -1107755156 -1504892359 -762372012
        -1764882048 1700239922 -2147316022 1396417231</internalNodes>
      <leafValues>
        -2.0510762929916382e-01 1.4555285871028900e-01</leafValues></_>
    <_>
      <internalNodes>
        0 -1 3144 34227026 -1364537790 1083206185 -319985468 -545398976
        2146187776 -143115449 249685568</internalNodes>
      <leafValues>
        -2.5207418203353882e-01 1.2891064584255219e-01</leafValues></_>
    <_>
      <internalNodes>
        0 -1 4119 1842286371 649256738 1965772213 -1449609735 286196243
        754653630 456613908 -388632723</internalNodes>
      <leafValues>
        -2.3913836479187012e-01 1.2224817276000977e-01</leafValues></_>
    <_>
      <internalNodes>
        0 -1 6964 -256645457 1367695407 1785718517 -1509971509
        -700620060 1320537805 -512203026 -443286846</internalNodes>
      <leafValues>
        -1.2218854576349258e-01 2.5089237093925476e-01</leafValues></_>
    <_>
      <internalNodes>
        0 -1 8154 393173947 -1179063595 -1749981423 -596382156
        -1904594887 -676397068 225808059 -1616270685</internalNodes>
      <leafValues>
        -1.4003445208072662e-01 2.2235932946205139e-01</leafValues></_>
    <_>
      <internalNodes>
        0 -1 6201 1836556880 548215570 -57620187 1504414620 2008955388
        -876697233 1437736233 658754142</internalNodes>
      <leafValues>
        -2.0497779548168182e-01 1.5920397639274597e-01</leafValues></_>
    <_>
      <internalNodes>
        0 -1 27 1244791816 -165101048 194484687 616298131 273538744
        -81219534 -1740709600 67159312</internalNodes>
      <leafValues>
        -3.2695508003234863e-01 1.0065726935863495e-01</leafValues></_>
    <_>
      <internalNodes>
        0 -1 2950 171499441 1605473541 727538173 -1325018448 573790097
        -1079582467 -1977199276 -1893475311</internalNodes>
      <leafValues>
        -2.0124083757400513e-01 1.6373719274997711e-01</leafValues></_>
    <_>
      <internalNodes>
        0 -1 6420 -545921196 -392008025 -1225246348 -1208714376
        1895747876 -1638424713 -1208286776 -1362634197</internalNodes>
      <leafValues>
        -1.4248804748058319e-01 2.1634460985660553e-01</leafValues></_>
    <_>
      <internalNodes>
        0 -1 5244 138951907 162459919 1980729476 795828727 -945704347
        1223816007 1635215910 94911473</internalNodes>
      <leafValues>
        -2.7026930451393127e-01 1.1467110365629196e-01</leafValues></_>
    <_>
      <internalNodes>
        0 -1 5618 1524093600 869447876 612415649 -351021198 552785052
        1575512744 -823765114 915826320</internalNodes>
      <leafValues>
        -2.1686880290508270e-01 1.4814437925815582e-01</leafValues></_>
    <_>
      <internalNodes>
        0 -1 5269 151407616 -1605745024 -2066624882 -2138126166
        1437339456 387617059 92898340 43180704</internalNodes>
      <leafValues>
        -4.2104819416999817e-01 8.2687154412269592e-02</leafValues></_>
    <_>
      <internalNodes>
        0 -1 7081 -51210767 -1172672844 -1090601874 532318420 776190937
        -1107559063 522468797 -1377877272</internalNodes>
      <leafValues>
        -1.6333903372287750e-01 1.9321860373020172e-01</leafValues></_>
    <_>
      <internalNodes>
        0 -1 5669 -158403673 2025648702 645032946 892001042 -2005490216
        171892573 1286144477 -551202</internalNodes>
      <leafValues>
        -1.3125760853290558e-01 2.4169582128524780e-01</leafValues></_>
    <_>
      <internalNodes>
        0 -1 1436 -714025257 -46541 1745846015 1847066055 -696853937
        -1174618517 1514709426 -217072673</internalNodes>
      <leafValues>
        -1.0187221318483353e-01 3.0880331993103027e-01</leafValues></_>
    <_>
      <internalNodes>
        0 -1 7995 -1975533803 -1632350566 -1857346799 -135489148
        -1934342696 -939243589 134817880 -1444972380</internalNodes>
      <leafValues>
        -2.0719754695892334e-01 1.5843173861503601e-01</leafValues></_>
    <_>
      <internalNodes>
        0 -1 196 -1708775070 -569804784 -2074015731 778203655 1557981692
        1765118260 1687554283 1013203569</internalNodes>
      <leafValues>
        -2.7435481548309326e-01 1.1965340375900269e-01</leafValues></_>
    <_>
      <internalNodes>
        0 -1 5651 -236459884 -217746486 584874557 -1253776034 924208000
        -698084422 -1091883380 857168162</internalNodes>
      <leafValues>
        -1.9774730503559113e-01 1.6013000905513763e-01</leafValues></_>
    <_>
      <internalNodes>
        0 -1 6421 514858492 475398904 -1044187059 934553548 314130360
        519981060 -128839720 -1375842668</internalNodes>
      <leafValues>
        -2.9213756322860718e-01 1.1874382942914963e-01</leafValues></_>
    <_>
      <internalNodes>
        0 -1 8409 -1057813496 5116592 274026548 -1224808290 122757163
        -1716330410 431702540 288652898</internalNodes>
      <leafValues>
        -2.7998644113540649e-01 1.1626781523227692e-01</leafValues></_>
    <_>
      <internalNodes>
        0 -1 5700 -120810571 -1204623116 -85201475 -1786137551
        1217676596 1033283332 -60748421 -878171622</internalNodes>
      <leafValues>
        -1.6974872350692749e-01 2.0172505080699921e-01</leafValues></_>
    <_>
      <internalNodes>
        0 -1 7968 -1005877095 -1215326477 -168958224 -710261326
        212569534 -358806284 -2097378052 -542379825</internalNodes>
      <leafValues>
        -1.1033533513545990e-01 2.9653656482696533e-01</leafValues></_>
    <_>
      <internalNodes>
        0 -1 3689 -628679146 -515221818 904074275 -337686303 134655657
        1392753180 1027844315 1931660132</internalNodes>
      <leafValues>
        -1.9613380730152130e-01 1.7094488441944122e-01</leafValues></_>
    <_>
      <internalNodes>
        0 -1 1917 1079779460 5609716 -321714418 36141229 306861316
        1620065216 170305312 67531606</internalNodes>
      <leafValues>
        -5.0133728981018066e-01 6.8837329745292664e-02</leafValues></_>
    <_>
      <internalNodes>
        0 -1 5952 -187176026 1308478023 -178106776 -773137822
        -1016651341 1616174080 1998453696 -520746097</internalNodes>
      <leafValues>
        -1.6494540870189667e-01 1.9625024497509003e-01</leafValues></_>
    <_>
      <internalNodes>
        0 -1 8042 1569244586 1886078188 61594512 952750678 -1260451181
        -2098613876 -486850425 1172527371</internalNodes>
      <leafValues>
        -2.1022972464561462e-01 1.5634000301361084e-01</leafValues></_>
    <_>
      <internalNodes>
        0 -1 736 -1912586103 -905662349 177712461 -310430961 -1462175848
        -828827381 -1695795269 1327539267</internalNodes>
      <leafValues>
        -1.9913484156131744e-01 1.7288482189178467e-01</leafValues></_>
    <_>
      <internalNodes>
        0 -1 3820 102763140 598325033 -1329801558 578718719 1004667458
        2098091030 1864904704 37494256</internalNodes>
      <leafValues>
        -4.1720253229141235e-01 7.7545367181301117e-02</leafValues></_>
    <_>
      <internalNodes>
        0 -1 7726 -743977763 1391702879 498696076 923417138 -1770087287
        -29041665 -131410246 -1209141613</internalNodes>
      <leafValues>
        -1.3109345734119415e-01 2.5606790184974670e-01</leafValues></_>
    <_>
      <internalNodes>
        0 -1 3239 34612996 -1085379596 1378267611 1051202989 2031167944
        -120497063 1029393024 69354080</internalNodes>
      <leafValues>
        -4.2634007334709167e-01 8.1446282565593719e-02</leafValues></_>
    <_>
      <internalNodes>
        0 -1 7208 -1031829537 2080317763 980367347 -248318261 -189207879
        -354463756 803161554 -72629009</internalNodes>
      <leafValues>
        -1.0129249095916748e-01 3.5187545418739319e-01</leafValues></_>
    <_>
      <internalNodes>
        0 -1 185 2000847538 667463995 -2140566986 1164622964 1919028881
        1472242753 947226663 1150411603</internalNodes>
      <leafValues>
        -2.4370217323303223e-01 1.4128372073173523e-01</leafValues></_>
    <_>
      <internalNodes>
        0 -1 7791 -1008730223 -1149077744 238758365 -575218896 642631933
        -1680271876 -1086617204 -344198949</internalNodes>
      <leafValues>
        -1.2130664288997650e-01 2.7728128433227539e-01</leafValues></_>
    <_>
      <internalNodes>
        0 -1 7537 -598114303 -780233582 -190611623 -1784666694
        -767322982 -1140930613 -1943855910 262398495</internalNodes>
      <leafValues>
        -1.5882448852062225e-01 2.0676825940608978e-01</leafValues></_>
    <_>
      <internalNodes>
        0 -1 2463 1895997460 1006649296 -409207661 -1140867071
        1124827345 -903097539 -1390096444 2022500614</internalNodes>
      <leafValues>
        -2.1136008203029633e-01 1.5614701807498932e-01</leafValues></_></weakClassifiers></stage15>
</opencv_storage>
