<?xml version="1.0"?>
<opencv_storage>
<stage12>
  <maxWeakCount>53</maxWeakCount>
  <stageThreshold>-8.6490583419799805e-01</stageThreshold>
  <weakClassifiers>
    <_>
      <internalNodes>
        0 -1 17 1583305775 -33554563 -9437445 -203457858 -159392003
        -68611 -336791109 1879244719</internalNodes>
      <leafValues>
        -1.5392732620239258e-01 2.9263842105865479e-01</leafValues></_>
    <_>
      <internalNodes>
        0 -1 169 2073681868 1003084278 -177079346 1606701548 817611757
        1470620357 331889356 2012716029</internalNodes>
      <leafValues>
        -2.7532553672790527e-01 1.5028902888298035e-01</leafValues></_>
    <_>
      <internalNodes>
        0 -1 8028 -4194909 -754991121 -134418987 -709115905 -1963022673
        -1561397842 -536880390 -908075569</internalNodes>
      <leafValues>
        -1.1775486171245575e-01 3.1325176358222961e-01</leafValues></_>
    <_>
      <internalNodes>
        0 -1 11 -498644274 23061203 1624692687 556366806 -683740205
        -1362447647 -690629188 1394722323</internalNodes>
      <leafValues>
        -2.4167108535766602e-01 1.1718910187482834e-01</leafValues></_>
    <_>
      <internalNodes>
        0 -1 105 -2078242302 1084763450 -1468592794 1213710195 215551791
        -1526887619 687212134 82052097</internalNodes>
      <leafValues>
        -3.7785965204238892e-01 9.7901605069637299e-02</leafValues></_>
    <_>
      <internalNodes>
        0 -1 7157 1975512961 -2105483512 -1785860649 -1254583526
        675094503 -2006591095 1957369297 1099601150</internalNodes>
      <leafValues>
        -1.8661436438560486e-01 1.8298108875751495e-01</leafValues></_>
    <_>
      <internalNodes>
        0 -1 1443 844878031 -1476830309 -316704004 1084456807
        -1837674426 -549070 -134221155 -545531282</internalNodes>
      <leafValues>
        -1.6219428181648254e-01 2.0467998087406158e-01</leafValues></_>
    <_>
      <internalNodes>
        0 -1 7934 1684146513 1528776010 -176278177 808485130 -1303897060
        -1355834798 -119488790 -1410830550</internalNodes>
      <leafValues>
        -1.9300676882266998e-01 1.6095881164073944e-01</leafValues></_>
    <_>
      <internalNodes>
        0 -1 8375 1954524160 1289640957 -1766656491 -716378022
        1997951426 -1462107988 -782291932 4782162</internalNodes>
      <leafValues>
        -2.4016796052455902e-01 1.3131158053874969e-01</leafValues></_>
    <_>
      <internalNodes>
        0 -1 3532 -2012483279 -1215176672 -1178270603 -1087031067
        348336292 -1379158099 481714641 -579887284</internalNodes>
      <leafValues>
        -1.7497240006923676e-01 1.7156285047531128e-01</leafValues></_>
    <_>
      <internalNodes>
        0 -1 1415 919040 366673398 -243150633 103447867 -1942927516
        -1735569637 -292824072 136597512</internalNodes>
      <leafValues>
        -3.3276900649070740e-01 8.4993198513984680e-02</leafValues></_>
    <_>
      <internalNodes>
        0 -1 7718 1793721397 413152906 -1198592129 263724059 1680623773
        -1408063723 41827705 -931168695</internalNodes>
      <leafValues>
        -1.8648032844066620e-01 1.6287606954574585e-01</leafValues></_>
    <_>
      <internalNodes>
        0 -1 456 239250082 35926528 751184480 646729922 1154447186
        872702865 895874864 1617386243</internalNodes>
      <leafValues>
        -3.4386792778968811e-01 1.0552536696195602e-01</leafValues></_>
    <_>
      <internalNodes>
        0 -1 7187 -1729111849 2073231372 -1456574957 167317024 144230552
        -1708615442 1604313 1115396905</internalNodes>
      <leafValues>
        -2.0613940060138702e-01 1.5077959001064301e-01</leafValues></_>
    <_>
      <internalNodes>
        0 -1 4595 -2104819317 505913138 1329859183 -442946351 392028311
        968898276 -681997095 -171058989</internalNodes>
      <leafValues>
        -1.5487664937973022e-01 2.1012483537197113e-01</leafValues></_>
    <_>
      <internalNodes>
        0 -1 3064 -1306492874 -577839380 229095101 -1088330500
        1366132352 -929543689 -1981409800 -121699261</internalNodes>
      <leafValues>
        -1.5535460412502289e-01 2.0647197961807251e-01</leafValues></_>
    <_>
      <internalNodes>
        0 -1 4223 -187376717 1461415911 2127894041 -1209009550
        1412800896 -993339344 -70863734 357766071</internalNodes>
      <leafValues>
        -1.6195668280124664e-01 1.9188414514064789e-01</leafValues></_>
    <_>
      <internalNodes>
        0 -1 1992 -1503164865 304225876 -1502553494 2292874 -137345436
        2068040226 -538961684 -615456442</internalNodes>
      <leafValues>
        -2.0331904292106628e-01 1.5593607723712921e-01</leafValues></_>
    <_>
      <internalNodes>
        0 -1 7850 -2133597 -92569168 1551451478 -105389064 799485811
        -924524801 1333475126 -840448580</internalNodes>
      <leafValues>
        -1.5378950536251068e-01 2.1216501295566559e-01</leafValues></_>
    <_>
      <internalNodes>
        0 -1 6804 740070833 -545511024 -1345987911 -1078910736
        -1952681307 -1074805333 -1964368402 -1934477252</internalNodes>
      <leafValues>
        -1.8570050597190857e-01 1.7474655807018280e-01</leafValues></_>
    <_>
      <internalNodes>
        0 -1 2326 -703595313 -40835669 -1077150204 1569576401 216932553
        -118510311 -2002864661 1727717599</internalNodes>
      <leafValues>
        -1.3734796643257141e-01 2.3677797615528107e-01</leafValues></_>
    <_>
      <internalNodes>
        0 -1 645 1646751485 -1026656055 753614350 87046950 1607534804
        -382311325 2113789670 -82492816</internalNodes>
      <leafValues>
        -1.8466845154762268e-01 1.7439626157283783e-01</leafValues></_>
    <_>
      <internalNodes>
        0 -1 7828 -1039250142 687902080 256269051 1280232027 38402925
        -358420080 1322317831 1147872448</internalNodes>
      <leafValues>
        -2.7301719784736633e-01 1.2136778980493546e-01</leafValues></_>
    <_>
      <internalNodes>
        0 -1 7760 -1010434016 819341656 1175585497 321417755 2089828668
        -1107496207 -33255634 -1425574134</internalNodes>
      <leafValues>
        -2.1286278963088989e-01 1.4778053760528564e-01</leafValues></_>
    <_>
      <internalNodes>
        0 -1 1154 -1923371461 -2111112192 773139137 -957469322
        1245974497 -797683472 955672643 1817826633</internalNodes>
      <leafValues>
        -2.1129134297370911e-01 1.5430301427841187e-01</leafValues></_>
    <_>
      <internalNodes>
        0 -1 2824 -241893531 703056551 -8439145 -1208946367 -127978975
        -153882100 -620888143 -6393026</internalNodes>
      <leafValues>
        -1.2706591188907623e-01 2.5633630156517029e-01</leafValues></_>
    <_>
      <internalNodes>
        0 -1 4220 -987303918 352611840 -1294083759 -1719719404
        1384122240 2139173519 1551091914 1606120466</internalNodes>
      <leafValues>
        -2.1652956306934357e-01 1.4920297265052795e-01</leafValues></_>
    <_>
      <internalNodes>
        0 -1 6704 -135534678 398716579 -1146588032 2147350450 1668108974
        1405896742 1593480906 -737020473</internalNodes>
      <leafValues>
        -1.4928729832172394e-01 2.1949590742588043e-01</leafValues></_>
    <_>
      <internalNodes>
        0 -1 489 377267503 149081014 664582947 -863573197 1478802518
        855443427 -140546434 -1010379780</internalNodes>
      <leafValues>
        -1.9054836034774780e-01 1.7560419440269470e-01</leafValues></_>
    <_>
      <internalNodes>
        0 -1 7289 1762360472 488350280 610910731 1034525536 -1916523372
        -1575431903 -1429263718 1073462442</internalNodes>
      <leafValues>
        -2.0447713136672974e-01 1.6498659551143646e-01</leafValues></_>
    <_>
      <internalNodes>
        0 -1 7725 -1764144060 2055130237 -1089886971 268464644
        -521376636 165956811 731519822 -77144318</internalNodes>
      <leafValues>
        -2.1413256227970123e-01 1.5909662842750549e-01</leafValues></_>
    <_>
      <internalNodes>
        0 -1 5314 138080544 -44038095 2038502394 -37523651 1726209233
        -539284584 1562843357 -2068350884</internalNodes>
      <leafValues>
        -2.1326869726181030e-01 1.6352243721485138e-01</leafValues></_>
    <_>
      <internalNodes>
        0 -1 4559 -1880694511 -1558134656 -271112396 668887438 855590129
        1517428969 1503593361 -1062216648</internalNodes>
      <leafValues>
        -2.0160332322120667e-01 1.7369455099105835e-01</leafValues></_>
    <_>
      <internalNodes>
        0 -1 8114 1719008256 548451260 1085434912 537920089 13144157
        1185223064 -1106173440 1085401611</internalNodes>
      <leafValues>
        -3.5972797870635986e-01 8.8350549340248108e-02</leafValues></_>
    <_>
      <internalNodes>
        0 -1 1485 -38022113 -158266320 -2006264326 1057990266 -958595789
        -1115792377 -156047365 -115671364</internalNodes>
      <leafValues>
        -1.3077211380004883e-01 2.5945794582366943e-01</leafValues></_>
    <_>
      <internalNodes>
        0 -1 728 701359855 -305454938 670039871 -896778280 -1174373004
        -60590112 -151490538 -48777578</internalNodes>
      <leafValues>
        -1.7574152350425720e-01 1.9310820102691650e-01</leafValues></_>
    <_>
      <internalNodes>
        0 -1 5932 -918167385 -474242773 1826947216 -198785038 -165248139
        821768743 2043851469 -427442989</internalNodes>
      <leafValues>
        -1.5545150637626648e-01 2.2191606462001801e-01</leafValues></_>
    <_>
      <internalNodes>
        0 -1 4732 965822774 -1244418282 72659927 -1288308639 -563929252
        265344178 822894091 421322822</internalNodes>
      <leafValues>
        -2.2485218942165375e-01 1.5747082233428955e-01</leafValues></_>
    <_>
      <internalNodes>
        0 -1 948 1477631682 -1156873181 1888160403 -2135587586
        1241916914 -1663271106 4202638 1847608858</internalNodes>
      <leafValues>
        -2.4435925483703613e-01 1.3906298577785492e-01</leafValues></_>
    <_>
      <internalNodes>
        0 -1 4578 407175686 426195472 304536312 147045112 293025961
        -876270556 973207765 1114026596</internalNodes>
      <leafValues>
        -2.9163581132888794e-01 1.2149812281131744e-01</leafValues></_>
    <_>
      <internalNodes>
        0 -1 7594 1584914994 335485451 1966433073 1472945168 -499363156
        2106965984 -1139468598 -979241533</internalNodes>
      <leafValues>
        -1.6373682022094727e-01 2.1689140796661377e-01</leafValues></_>
    <_>
      <internalNodes>
        0 -1 135 -1039368502 1598025699 2096140722 -135047371 -244340547
        -143632780 -1586542646 -163361793</internalNodes>
      <leafValues>
        -1.6752891242504120e-01 2.0731076598167419e-01</leafValues></_>
    <_>
      <internalNodes>
        0 -1 1188 1454675874 -1535212078 1107169282 1721893255 6583956
        -1840167467 -299131818 10374673</internalNodes>
      <leafValues>
        -2.9466563463211060e-01 1.1629164963960648e-01</leafValues></_>
    <_>
      <internalNodes>
        0 -1 6280 -243015509 1958263450 -2089166251 -202461489
        -939660629 1957087166 -161624146 -134359072</internalNodes>
      <leafValues>
        -1.2170093506574631e-01 2.9020690917968750e-01</leafValues></_>
    <_>
      <internalNodes>
        0 -1 4824 939014413 -872728820 899152809 -388077057 -1377256133
        -276533940 -34191 1038771177</internalNodes>
      <leafValues>
        -2.0421542227268219e-01 1.6801908612251282e-01</leafValues></_>
    <_>
      <internalNodes>
        0 -1 7634 1396664243 -1354793022 1631534357 -840433876
        2121641639 -1666574338 2113810425 -838999617</internalNodes>
      <leafValues>
        -1.4401210844516754e-01 2.4834644794464111e-01</leafValues></_>
    <_>
      <internalNodes>
        0 -1 7768 -693661688 -681695653 1429371053 -150087505 -302062436
        -100542663 2135218938 -339007813</internalNodes>
      <leafValues>
        -1.2052042037248611e-01 2.8585931658744812e-01</leafValues></_>
    <_>
      <internalNodes>
        0 -1 1541 250536170 -829982042 -339251014 1757593870 1846711557
        1698448197 1986027616 542370648</internalNodes>
      <leafValues>
        -3.4363418817520142e-01 9.8798178136348724e-02</leafValues></_>
    <_>
      <internalNodes>
        0 -1 6437 2093504272 -1566038976 650406768 -1926489992
        1759006965 753172648 212669440 144327813</internalNodes>
      <leafValues>
        -3.1531983613967896e-01 1.1073969304561615e-01</leafValues></_>
    <_>
      <internalNodes>
        0 -1 6160 335558845 -635169269 177907086 -1645363313 2041928149
        -1115946177 -873781369 602160400</internalNodes>
      <leafValues>
        -2.4876731634140015e-01 1.3994795083999634e-01</leafValues></_>
    <_>
      <internalNodes>
        0 -1 6380 -759068640 380780032 -537741200 -1946583940 75358244
        1487415575 -1563535896 -221384526</internalNodes>
      <leafValues>
        -2.0735839009284973e-01 1.6518732905387878e-01</leafValues></_>
    <_>
      <internalNodes>
        0 -1 6906 637535276 574825020 855677180 321323693 -1409022284
        -419553147 80250033 750060084</internalNodes>
      <leafValues>
        -3.8948789238929749e-01 9.1056272387504578e-02</leafValues></_>
    <_>
      <internalNodes>
        0 -1 5479 -544301054 263469468 667740707 -1583056946 409974434
        1729017878 465451043 -1538851576</internalNodes>
      <leafValues>
        -2.2806744277477264e-01 1.5388558804988861e-01</leafValues></_></weakClassifiers></stage12>
</opencv_storage>
