<?xml version="1.0"?>
<opencv_storage>
<stage19>
  <maxWeakCount>59</maxWeakCount>
  <stageThreshold>-9.2838436365127563e-01</stageThreshold>
  <weakClassifiers>
    <_>
      <internalNodes>
        0 -1 1 -287592769 -791020141 -355803705 -1714736185 1096540635
        -2000608915 -211828878 1901404983</internalNodes>
      <leafValues>
        -2.0024216175079346e-01 1.5723061561584473e-01</leafValues></_>
    <_>
      <internalNodes>
        0 -1 770 1444052427 1360197967 2111667679 2141352383 -71874507
        -117491377 -47517714 -288336354</internalNodes>
      <leafValues>
        -1.6814728081226349e-01 1.7456384003162384e-01</leafValues></_>
    <_>
      <internalNodes>
        0 -1 1017 -53241362 -212545259 1163362 -674689350 -463215625
        1362794679 1503730878 815846266</internalNodes>
      <leafValues>
        -2.6096490025520325e-01 1.0604782402515411e-01</leafValues></_>
    <_>
      <internalNodes>
        0 -1 8409 -588776311 788172725 -83944147 -185453538 1864181419
        -1367894017 483859456 -573049001</internalNodes>
      <leafValues>
        -1.0360731184482574e-01 2.4241524934768677e-01</leafValues></_>
    <_>
      <internalNodes>
        0 -1 7814 772744496 781121008 -421894864 -303263044 201594032
        -1922240775 137392208 -1932800307</internalNodes>
      <leafValues>
        -2.5075861811637878e-01 9.2295110225677490e-02</leafValues></_>
    <_>
      <internalNodes>
        0 -1 1241 993505019 511766082 1325736189 -1938488682 -659161227
        -505811982 -931634817 -25305356</internalNodes>
      <leafValues>
        -1.6902118921279907e-01 1.4976839721202850e-01</leafValues></_>
    <_>
      <internalNodes>
        0 -1 5712 119297613 -1910685957 928103879 210601695 736711705
        973661947 1500267303 1248618821</internalNodes>
      <leafValues>
        -1.7576004564762115e-01 1.5692466497421265e-01</leafValues></_>
    <_>
      <internalNodes>
        0 -1 6720 -240668758 1482210045 1283569664 -1384389238
        1849722549 1096085478 -436995476 -135792956</internalNodes>
      <leafValues>
        -1.7825841903686523e-01 1.3631823658943176e-01</leafValues></_>
    <_>
      <internalNodes>
        0 -1 8211 -1431516768 -354371394 -74190820 -1702834088 70652041
        -664928005 772568828 -1397565647</internalNodes>
      <leafValues>
        -1.9894151389598846e-01 1.3280250132083893e-01</leafValues></_>
    <_>
      <internalNodes>
        0 -1 3822 537534516 1003894289 -385833661 1032813442 -845628772
        -778365598 1590068938 69214738</internalNodes>
      <leafValues>
        -3.3911544084548950e-01 7.5300276279449463e-02</leafValues></_>
    <_>
      <internalNodes>
        0 -1 7740 -126476585 -98688437 -72814593 319694219 -1787519032
        -1443453036 -10474755 -74825665</internalNodes>
      <leafValues>
        -1.1985550075769424e-01 2.0986682176589966e-01</leafValues></_>
    <_>
      <internalNodes>
        0 -1 3024 -1786406696 -1382898158 -330769996 1618118736
        214249391 -1576260120 1697851147 529189302</internalNodes>
      <leafValues>
        -2.1904213726520538e-01 1.0927312821149826e-01</leafValues></_>
    <_>
      <internalNodes>
        0 -1 644 1088785959 -383736793 243458814 182106794 1400317506
        2117881361 725872368 -221876923</internalNodes>
      <leafValues>
        -1.9315476715564728e-01 1.4327219128608704e-01</leafValues></_>
    <_>
      <internalNodes>
        0 -1 5480 -1041259889 -664472890 1890545251 1576467688 661623223
        1310129420 1988004506 -1013453046</internalNodes>
      <leafValues>
        -1.2729743123054504e-01 2.1120350062847137e-01</leafValues></_>
    <_>
      <internalNodes>
        0 -1 5874 844185669 513615705 -1049041121 1185868304 -251860502
        -340391489 1278885932 -51191552</internalNodes>
      <leafValues>
        -1.6926629841327667e-01 1.5683647990226746e-01</leafValues></_>
    <_>
      <internalNodes>
        0 -1 6064 281971764 -50848173 -557014297 -1155776528 -34386256
        537996512 -1790751606 -1349886660</internalNodes>
      <leafValues>
        -1.7391024529933929e-01 1.4798460900783539e-01</leafValues></_>
    <_>
      <internalNodes>
        0 -1 3049 -1736280478 1347533681 -1578422143 -1654090415
        -2069717555 -11343428 -723733491 1404759556</internalNodes>
      <leafValues>
        -2.0003938674926758e-01 1.2019827216863632e-01</leafValues></_>
    <_>
      <internalNodes>
        0 -1 6436 -1149207344 -1651764496 798922751 951635184
        -1981251751 -1171669786 -646619560 -1946608904</internalNodes>
      <leafValues>
        -1.6887654364109039e-01 1.5435506403446198e-01</leafValues></_>
    <_>
      <internalNodes>
        0 -1 7056 1605316403 -583598145 628768615 -865304992 -595048221
        -1879558148 -840961318 -657850915</internalNodes>
      <leafValues>
        -1.2040016800165176e-01 2.1692685782909393e-01</leafValues></_>
    <_>
      <internalNodes>
        0 -1 7376 84236133 -549802310 1056763355 -552796942 -1645742472
        -1414551637 -1677739017 1984952660</internalNodes>
      <leafValues>
        -1.4927235245704651e-01 1.6914771497249603e-01</leafValues></_>
    <_>
      <internalNodes>
        0 -1 8189 -1901529416 1423294189 -926074429 -881742804
        -1440778397 1402642913 -389845633 516132889</internalNodes>
      <leafValues>
        -1.9201362133026123e-01 1.3593982160091400e-01</leafValues></_>
    <_>
      <internalNodes>
        0 -1 7621 641641216 -939377660 -1379469997 -1278583998 850816565
        -1785452061 1973188056 -399773342</internalNodes>
      <leafValues>
        -2.0195537805557251e-01 1.2994405627250671e-01</leafValues></_>
    <_>
      <internalNodes>
        0 -1 7784 -648366088 -1157381100 -59050979 -950457423 -983554664
        -244634948 -38732087 -806361430</internalNodes>
      <leafValues>
        -1.0103606432676315e-01 2.4581760168075562e-01</leafValues></_>
    <_>
      <internalNodes>
        0 -1 6597 1506494174 255797819 -1751662657 -1622692943
        -1354712001 -1224757323 -431631724 -900346119</internalNodes>
      <leafValues>
        -1.5759547054767609e-01 1.6793169081211090e-01</leafValues></_>
    <_>
      <internalNodes>
        0 -1 608 618924034 -1573239050 2022264155 140273472 1157919779
        45163232 885414240 1715633200</internalNodes>
      <leafValues>
        -3.6345517635345459e-01 8.8987335562705994e-02</leafValues></_>
    <_>
      <internalNodes>
        0 -1 8361 1957677875 97170082 -2119205104 1272749600 33220663
        -1399486440 -1209507623 -931334756</internalNodes>
      <leafValues>
        -1.6628824174404144e-01 1.6283622384071350e-01</leafValues></_>
    <_>
      <internalNodes>
        0 -1 7270 -755948928 922041069 -1051417178 -1294490102
        -1298922044 923139668 -1167448417 -423234653</internalNodes>
      <leafValues>
        -1.6892784833908081e-01 1.6164425015449524e-01</leafValues></_>
    <_>
      <internalNodes>
        0 -1 7424 350981264 -565388565 2016759563 835035648 584091899
        1110481998 -622494211 29637732</internalNodes>
      <leafValues>
        -2.3091323673725128e-01 1.2041381746530533e-01</leafValues></_>
    <_>
      <internalNodes>
        0 -1 6347 -143763808 228410937 948515001 22253059 -1905653936
        258486848 -983199210 921501090</internalNodes>
      <leafValues>
        -2.3123872280120850e-01 1.1828012019395828e-01</leafValues></_>
    <_>
      <internalNodes>
        0 -1 6994 1945887242 -81662081 -1620122434 1697019566 -975320143
        675574243 1723067068 -34299078</internalNodes>
      <leafValues>
        -1.5068140625953674e-01 1.8525110185146332e-01</leafValues></_>
    <_>
      <internalNodes>
        0 -1 5114 -655515133 1279553437 -1104097328 -201331532
        1966208731 1521535900 1476348725 -907611521</internalNodes>
      <leafValues>
        -1.2750670313835144e-01 2.0612066984176636e-01</leafValues></_>
    <_>
      <internalNodes>
        0 -1 4679 1350755840 939646495 -982528751 -1275985109 1145856419
        1508316824 -198392165 441736194</internalNodes>
      <leafValues>
        -2.3531688749790192e-01 1.1044053733348846e-01</leafValues></_>
    <_>
      <internalNodes>
        0 -1 7652 2131748789 1598286600 1190676241 -1381771277
        -369627809 259632991 119498023 1139752707</internalNodes>
      <leafValues>
        -1.2732504308223724e-01 2.1454171836376190e-01</leafValues></_>
    <_>
      <internalNodes>
        0 -1 6536 1436489649 1049948374 -71275715 358272305 722471673
        1247491801 -1887801729 377174514</internalNodes>
      <leafValues>
        -1.6570705175399780e-01 1.7058055102825165e-01</leafValues></_>
    <_>
      <internalNodes>
        0 -1 4824 300423941 770365332 101084985 1620946387 1583380603
        -291458868 -201625824 300167788</internalNodes>
      <leafValues>
        -2.4811288714408875e-01 1.2211644649505615e-01</leafValues></_>
    <_>
      <internalNodes>
        0 -1 7546 -1306574712 920528199 -1928811329 -1467304023
        816939226 -15449803 -1611892085 -1507497217</internalNodes>
      <leafValues>
        -1.7566445469856262e-01 1.6533309221267700e-01</leafValues></_>
    <_>
      <internalNodes>
        0 -1 7447 -75324752 1915547288 -1007880787 -577933357 402208765
        -1938276914 347423172 762048766</internalNodes>
      <leafValues>
        -1.5860193967819214e-01 1.8384997546672821e-01</leafValues></_>
    <_>
      <internalNodes>
        0 -1 2842 -1619009061 -1245372955 -482803907 -136320209
        -390530556 -278299115 -1152125288 -11043416</internalNodes>
      <leafValues>
        -1.1630318313837051e-01 2.4047750234603882e-01</leafValues></_>
    <_>
      <internalNodes>
        0 -1 746 1382436063 949559656 -1333727045 -47841027 -407807044
        -878868314 869881557 1981827559</internalNodes>
      <leafValues>
        -1.9897919893264771e-01 1.5897171199321747e-01</leafValues></_>
    <_>
      <internalNodes>
        0 -1 1443 575718056 576278149 1516830342 1080413725 406266950
        1600586310 1231274516 914084199</internalNodes>
      <leafValues>
        -2.8404253721237183e-01 1.0757939517498016e-01</leafValues></_>
    <_>
      <internalNodes>
        0 -1 1632 2147471359 556451682 804381820 -56644011 -1711430748
        -1451280411 -1345583968 -2065733669</internalNodes>
      <leafValues>
        -1.4859698712825775e-01 1.9204641878604889e-01</leafValues></_>
    <_>
      <internalNodes>
        0 -1 7627 -365684845 -818147599 -843063395 791378092 205460916
        212137205 -596828951 -1936516609</internalNodes>
      <leafValues>
        -1.5482994914054871e-01 1.8175466358661652e-01</leafValues></_>
    <_>
      <internalNodes>
        0 -1 782 6293522 496931728 613357384 1700279061 1271127350
        733701394 -28422240 1078210080</internalNodes>
      <leafValues>
        -3.7976703047752380e-01 7.3993854224681854e-02</leafValues></_>
    <_>
      <internalNodes>
        0 -1 7776 1208988768 72617106 -282242060 -1074644929 -1728027236
        -1946897187 -216883266 -21420073</internalNodes>
      <leafValues>
        -1.6338099539279938e-01 1.7939358949661255e-01</leafValues></_>
    <_>
      <internalNodes>
        0 -1 7803 574497040 -1290792816 249035214 513554482 218972308
        -1985558504 714867264 211838000</internalNodes>
      <leafValues>
        -4.0100082755088806e-01 7.8390814363956451e-02</leafValues></_>
    <_>
      <internalNodes>
        0 -1 7271 -267933022 -90982568 103798506 2108459926 2122021848
        -219781776 -1387488530 -138739126</internalNodes>
      <leafValues>
        -1.4015486836433411e-01 2.1137067675590515e-01</leafValues></_>
    <_>
      <internalNodes>
        0 -1 4572 1549787267 -1891113730 390053659 417175411 -1528886076
        -619969387 1327013882 -219235663</internalNodes>
      <leafValues>
        -1.3450701534748077e-01 2.1936987340450287e-01</leafValues></_>
    <_>
      <internalNodes>
        0 -1 416 1965007782 613314640 -2071941166 -487609437 459618854
        589655376 -419567130 71821063</internalNodes>
      <leafValues>
        -2.4939323961734772e-01 1.1901021748781204e-01</leafValues></_>
    <_>
      <internalNodes>
        0 -1 4688 276211846 1716904772 272691912 -580923714 661265227
        10150544 -285153446 1817615143</internalNodes>
      <leafValues>
        -2.2727431356906891e-01 1.2916114926338196e-01</leafValues></_>
    <_>
      <internalNodes>
        0 -1 5139 -716030534 361996922 1564133402 1675184640 2015345028
        -902447458 1096696984 1555984040</internalNodes>
      <leafValues>
        -1.8225890398025513e-01 1.5817821025848389e-01</leafValues></_>
    <_>
      <internalNodes>
        0 -1 8460 640312833 -1967460134 -721363885 -1737056320
        1885216544 -1466181179 528131904 -1932339240</internalNodes>
      <leafValues>
        -2.5668638944625854e-01 1.1765368282794952e-01</leafValues></_>
    <_>
      <internalNodes>
        0 -1 2147 940759821 2086723656 369170583 -1194423776 316215696
        1234757871 -2038415071 915031628</internalNodes>
      <leafValues>
        -2.4219326674938202e-01 1.1554360389709473e-01</leafValues></_>
    <_>
      <internalNodes>
        0 -1 2283 -476987130 -1644151184 -1064217449 -341742991 77220925
        -1183702017 -914092969 -379621726</internalNodes>
      <leafValues>
        -1.7980627715587616e-01 1.7054556310176849e-01</leafValues></_>
    <_>
      <internalNodes>
        0 -1 6129 -703020794 420200467 -783181164 -1385447656 -323205710
        955293683 -733708156 1095897298</internalNodes>
      <leafValues>
        -2.2823251783847809e-01 1.2877145409584045e-01</leafValues></_>
    <_>
      <internalNodes>
        0 -1 7537 1968739504 1345209872 500923157 578990361 555817668
        -1555254122 1815632872 1554436783</internalNodes>
      <leafValues>
        -2.1847586333751678e-01 1.2978555262088776e-01</leafValues></_>
    <_>
      <internalNodes>
        0 -1 5094 -138149969 -696950095 1744703318 1541996426
        -1031806531 209186508 -67379489 -6035874</internalNodes>
      <leafValues>
        -8.3911158144474030e-02 3.3636066317558289e-01</leafValues></_>
    <_>
      <internalNodes>
        0 -1 7958 1332697403 496065322 2133425684 -1624376268 1146725314
        -1193178114 -848839893 -848301320</internalNodes>
      <leafValues>
        -1.3221751153469086e-01 2.2020301222801208e-01</leafValues></_>
    <_>
      <internalNodes>
        0 -1 1948 638274270 -869770906 1822478854 -999735936 1364340790
        1223950518 -598306980 1749367792</internalNodes>
      <leafValues>
        -2.4837078154087067e-01 1.1444386839866638e-01</leafValues></_>
    <_>
      <internalNodes>
        0 -1 720 -499512197 -868864871 -694848754 1153194718 752174661
        -71796650 -1180204297 -1081860860</internalNodes>
      <leafValues>
        -1.9469903409481049e-01 1.4955666661262512e-01</leafValues></_></weakClassifiers></stage19>
</opencv_storage>
