<?xml version="1.0"?>
<opencv_storage>
<stage5>
  <maxWeakCount>41</maxWeakCount>
  <stageThreshold>-1.0587091445922852e+00</stageThreshold>
  <weakClassifiers>
    <_>
      <internalNodes>
        0 -1 18 -748728754 -547893385 2113191775 1595408247 -598529
        -954412 -71974913 1896021587</internalNodes>
      <leafValues>
        -2.3863635957241058e-01 3.1410703063011169e-01</leafValues></_>
    <_>
      <internalNodes>
        0 -1 8014 -776997118 -537401713 -776470699 -570952033 -522191873
        -1027804244 -1159202401 -2130737777</internalNodes>
      <leafValues>
        -1.9764181971549988e-01 3.3700913190841675e-01</leafValues></_>
    <_>
      <internalNodes>
        0 -1 2800 -589410177 -8422553 -30023937 993258847 -25234880
        -12880060 -466706690 -78450053</internalNodes>
      <leafValues>
        -1.7914792895317078e-01 3.0665963888168335e-01</leafValues></_>
    <_>
      <internalNodes>
        0 -1 7215 -663038723 327288582 -4661261 -1214211573 -1402174212
        -1403384285 -276242690 -341050385</internalNodes>
      <leafValues>
        -2.0034401118755341e-01 2.6884302496910095e-01</leafValues></_>
    <_>
      <internalNodes>
        0 -1 1514 -534338882 -748232010 2146889662 -270472798 1844780542
        -1610684417 -1342218786 -373205008</internalNodes>
      <leafValues>
        -1.9338136911392212e-01 2.5613597035408020e-01</leafValues></_>
    <_>
      <internalNodes>
        0 -1 1675 -771566734 1535831844 -2035324423 -408916964 437234872
        969731812 205521098 -369376549</internalNodes>
      <leafValues>
        -1.9624245166778564e-01 2.3072575032711029e-01</leafValues></_>
    <_>
      <internalNodes>
        0 -1 3045 2013315104 1932664552 -1147234255 2064633088 707059949
        -381773085 1791448201 1618464338</internalNodes>
      <leafValues>
        -2.2125819325447083e-01 2.0106302201747894e-01</leafValues></_>
    <_>
      <internalNodes>
        0 -1 1010 -1949439453 -1940457210 -2108900743 1544846960
        -1902172145 -1436669540 1321154483 1825402739</internalNodes>
      <leafValues>
        -2.6788592338562012e-01 1.5825425088405609e-01</leafValues></_>
    <_>
      <internalNodes>
        0 -1 7816 196082289 -1977558352 1039782772 -1347791296 105500413
        -1886721936 1563662676 -912406032</internalNodes>
      <leafValues>
        -2.1889846026897430e-01 2.0598141849040985e-01</leafValues></_>
    <_>
      <internalNodes>
        0 -1 8443 -40915453 44734398 1859471632 141082604 1290893824
        307951853 -835629568 -924455001</internalNodes>
      <leafValues>
        -2.4330054223537445e-01 1.7324897646903992e-01</leafValues></_>
    <_>
      <internalNodes>
        0 -1 7768 243924992 857607764 -1809535491 856836226 -1067702380
        522027805 -25666886 -867113982</internalNodes>
      <leafValues>
        -2.5345546007156372e-01 1.8011625111103058e-01</leafValues></_>
    <_>
      <internalNodes>
        0 -1 535 -1369452833 1525197087 43268858 202960564 1163156564
        732441142 -78365092 -655533</internalNodes>
      <leafValues>
        -2.2181516885757446e-01 2.0085707306861877e-01</leafValues></_>
    <_>
      <internalNodes>
        0 -1 6004 -639441792 287846036 -531436896 1027835170 1145324552
        -1453050750 1619002412 552294794</internalNodes>
      <leafValues>
        -2.8204643726348877e-01 1.6342385113239288e-01</leafValues></_>
    <_>
      <internalNodes>
        0 -1 5699 -1806035467 527579472 -1094767363 496900981
        -1431285260 988349244 466885870 -26595576</internalNodes>
      <leafValues>
        -2.5233960151672363e-01 1.8020199239253998e-01</leafValues></_>
    <_>
      <internalNodes>
        0 -1 7443 1504678016 -126857297 932584960 -1728016630 882770113
        711741627 -68210568 4454602</internalNodes>
      <leafValues>
        -2.8530779480934143e-01 1.6404166817665100e-01</leafValues></_>
    <_>
      <internalNodes>
        0 -1 7914 74056980 578821444 -62211049 167774998 206967924
        167655855 539639064 -1971290880</internalNodes>
      <leafValues>
        -4.3150264024734497e-01 9.0631492435932159e-02</leafValues></_>
    <_>
      <internalNodes>
        0 -1 3815 1366550544 849384994 -638748713 -1758837806 2093426175
        2142089385 -895375351 684039176</internalNodes>
      <leafValues>
        -2.6434639096260071e-01 1.6739894449710846e-01</leafValues></_>
    <_>
      <internalNodes>
        0 -1 176 -830484825 -1057255443 -520814633 -218383435 2011674429
        2002239487 -79694106 -134752513</internalNodes>
      <leafValues>
        -1.5253449976444244e-01 2.9615607857704163e-01</leafValues></_>
    <_>
      <internalNodes>
        0 -1 6780 -529569752 -1829759629 -1171082348 -1867506658
        1197278400 208747062 -836932 -876907946</internalNodes>
      <leafValues>
        -2.3148743808269501e-01 1.9460609555244446e-01</leafValues></_>
    <_>
      <internalNodes>
        0 -1 2636 2128039511 1953507276 -1561240530 360774503
        -1187230220 1337358176 2063363646 -9339010</internalNodes>
      <leafValues>
        -2.0030361413955688e-01 2.2459089756011963e-01</leafValues></_>
    <_>
      <internalNodes>
        0 -1 7528 -740844656 283551186 969398289 1092088883 -932214140
        -862331750 1186668939 9173039</internalNodes>
      <leafValues>
        -2.3957090079784393e-01 1.9163292646408081e-01</leafValues></_>
    <_>
      <internalNodes>
        0 -1 6465 -1551902846 828370868 -369385793 -683287103 580009351
        -3081577 -912271003 -2064137755</internalNodes>
      <leafValues>
        -2.1577388048171997e-01 2.1494993567466736e-01</leafValues></_>
    <_>
      <internalNodes>
        0 -1 3073 1919345024 302464256 -1364403752 2097752320 1296533161
        362147003 -248718709 80564426</internalNodes>
      <leafValues>
        -2.6332080364227295e-01 1.7791086435317993e-01</leafValues></_>
    <_>
      <internalNodes>
        0 -1 7633 -1909842508 -1398643544 -1227534863 -1951958760
        35138276 -1405517836 484728024 -1392550672</internalNodes>
      <leafValues>
        -2.8896832466125488e-01 1.5137231349945068e-01</leafValues></_>
    <_>
      <internalNodes>
        0 -1 4647 1091232960 424087020 177977502 -207744002 1923109313
        1871779072 2023104606 349771837</internalNodes>
      <leafValues>
        -2.8096365928649902e-01 1.6618777811527252e-01</leafValues></_>
    <_>
      <internalNodes>
        0 -1 5341 1375718901 -2110575044 -1427113793 799428382
        -1130627842 -1127748104 -1528563712 -381946694</internalNodes>
      <leafValues>
        -1.8244759738445282e-01 2.5615251064300537e-01</leafValues></_>
    <_>
      <internalNodes>
        0 -1 3508 -527439060 1010360113 669097885 -1350520979 368969269
        -1382574703 1051344667 -874128008</internalNodes>
      <leafValues>
        -2.0787100493907928e-01 2.1378414332866669e-01</leafValues></_>
    <_>
      <internalNodes>
        0 -1 118 1107828770 -1899041113 614016536 425374354 1019433
        -2111962980 -221103573 5583907</internalNodes>
      <leafValues>
        -4.1310787200927734e-01 1.1596757173538208e-01</leafValues></_>
    <_>
      <internalNodes>
        0 -1 5199 -892357070 570963722 -272190284 -1278859706 -292993796
        1701203302 613953920 -67672974</internalNodes>
      <leafValues>
        -2.2816206514835358e-01 1.9992312788963318e-01</leafValues></_>
    <_>
      <internalNodes>
        0 -1 8370 -1360291293 -1501517552 -1445496844 -262612218
        2080169904 -1436255133 657452501 -1941833494</internalNodes>
      <leafValues>
        -2.3631395399570465e-01 1.9220910966396332e-01</leafValues></_>
    <_>
      <internalNodes>
        0 -1 7023 -970732856 -32976832 888159992 -752848482 25504168
        1040869695 -1062387558 564071054</internalNodes>
      <leafValues>
        -2.3919674754142761e-01 1.9611409306526184e-01</leafValues></_>
    <_>
      <internalNodes>
        0 -1 2541 -456715774 74497893 998828317 -445859709 -294357648
        549430552 1806174720 748973643</internalNodes>
      <leafValues>
        -3.5708540678024292e-01 1.2263683229684830e-01</leafValues></_>
    <_>
      <internalNodes>
        0 -1 417 -963656125 -1343083904 -1594005309 -1407009944
        1958178725 -42502810 2116324597 -511710297</internalNodes>
      <leafValues>
        -1.8446105718612671e-01 2.5102263689041138e-01</leafValues></_>
    <_>
      <internalNodes>
        0 -1 1534 -22852027 -5030823 -1393372353 -876727556 -738488766
        -1348522698 -955712034 -27591761</internalNodes>
      <leafValues>
        -1.6681593656539917e-01 2.8008922934532166e-01</leafValues></_>
    <_>
      <internalNodes>
        0 -1 1366 1851133555 -120070466 251426554 1818263162 -1909498572
        -1641522604 -828625600 -131704493</internalNodes>
      <leafValues>
        -2.5439959764480591e-01 1.7882831394672394e-01</leafValues></_>
    <_>
      <internalNodes>
        0 -1 2459 820283416 -686141743 -561099467 -308118512 -305113090
        -1897265649 1722899421 75563091</internalNodes>
      <leafValues>
        -2.7768689393997192e-01 1.6584396362304688e-01</leafValues></_>
    <_>
      <internalNodes>
        0 -1 1406 37800448 -1213336323 -426518129 216200517 1455247284
        1362852094 -588355332 2096106016</internalNodes>
      <leafValues>
        -3.2646718621253967e-01 1.3802835345268250e-01</leafValues></_>
    <_>
      <internalNodes>
        0 -1 5629 -544234398 -167247999 -554678864 531026506 -521902391
        205290929 -823978547 -1567240074</internalNodes>
      <leafValues>
        -2.0178875327110291e-01 2.2688278555870056e-01</leafValues></_>
    <_>
      <internalNodes>
        0 -1 6432 -704972676 2089713424 2097868176 -1178804316 51840688
        173703409 -409989672 -1095604184</internalNodes>
      <leafValues>
        -2.1381419897079468e-01 2.2263184189796448e-01</leafValues></_>
    <_>
      <internalNodes>
        0 -1 7978 1122485041 646056872 128520209 1359735434 1131236755
        163464196 1834312708 -1058087472</internalNodes>
      <leafValues>
        -2.6921629905700684e-01 1.6898998618125916e-01</leafValues></_>
    <_>
      <internalNodes>
        0 -1 5124 -799032616 1078240454 -264920419 -1389262648
        -1073558312 -655733049 931320848 1328522142</internalNodes>
      <leafValues>
        -2.2269830107688904e-01 2.1188400685787201e-01</leafValues></_></weakClassifiers></stage5>
</opencv_storage>
