<?xml version="1.0"?>
<opencv_storage>
<stage12>
  <maxWeakCount>56</maxWeakCount>
  <stageThreshold>-9.7713232040405273e-01</stageThreshold>
  <weakClassifiers>
    <_>
      <internalNodes>
        0 -1 2178 -41857 -8434862 -1191784577 -8422433 -184550316
        -17074411 -283705601 -13895809</internalNodes>
      <leafValues>
        -1.4490641653537750e-01 3.0057659745216370e-01</leafValues></_>
    <_>
      <internalNodes>
        0 -1 7101 565177825 -1409642171 -1248100933 -342895654 195215355
        -805306761 -682927851 -1049103168</internalNodes>
      <leafValues>
        -2.0878669619560242e-01 1.7960558831691742e-01</leafValues></_>
    <_>
      <internalNodes>
        0 -1 280 -135273809 -253759505 -26759349 -1158683745 2004317991
        2003271543 -16505 -143137073</internalNodes>
      <leafValues>
        -1.4364391565322876e-01 2.4449683725833893e-01</leafValues></_>
    <_>
      <internalNodes>
        0 -1 7902 -1506075119 -88727380 -2195469 -1138753240 -1547813186
        -1460769923 -1008423365 -891560974</internalNodes>
      <leafValues>
        -1.9583581387996674e-01 1.6128118336200714e-01</leafValues></_>
    <_>
      <internalNodes>
        0 -1 8374 -807428079 -2114784345 -615514731 -324540198
        1376213269 227775909 -237041678 79028359</internalNodes>
      <leafValues>
        -1.7217455804347992e-01 1.7784138023853302e-01</leafValues></_>
    <_>
      <internalNodes>
        0 -1 3621 -796473344 454913447 -138649735 354275578 169051872
        -907972546 -255210422 711133278</internalNodes>
      <leafValues>
        -1.9126068055629730e-01 1.6602724790573120e-01</leafValues></_>
    <_>
      <internalNodes>
        0 -1 7850 -616615133 -638657888 2109723761 -174070788
        -1884903501 -2010188041 -549734481 -571485956</internalNodes>
      <leafValues>
        -1.4624598622322083e-01 2.2992856800556183e-01</leafValues></_>
    <_>
      <internalNodes>
        0 -1 64 -292623153 -823203634 -425410659 -862471129 519940393
        1189419571 1190525575 -754639073</internalNodes>
      <leafValues>
        -1.2430319190025330e-01 2.2039237618446350e-01</leafValues></_>
    <_>
      <internalNodes>
        0 -1 6800 -16622156 1020804264 -273531792 163082800 315703025
        280559096 226758092 -1414580160</internalNodes>
      <leafValues>
        -2.2467964887619019e-01 1.2504491209983826e-01</leafValues></_>
    <_>
      <internalNodes>
        0 -1 4505 -2103786825 -104998311 -782502561 955263440 -592961113
        -105434702 2123721145 -364241148</internalNodes>
      <leafValues>
        -1.7617316544055939e-01 1.7074705660343170e-01</leafValues></_>
    <_>
      <internalNodes>
        0 -1 8188 10568449 2001591632 -939793577 1246065778 795523155
        -273173607 1192975711 6243401</internalNodes>
      <leafValues>
        -1.9970703125000000e-01 1.5701736509799957e-01</leafValues></_>
    <_>
      <internalNodes>
        0 -1 154 243608859 752942355 -2077415915 -663441549 -1428607345
        -1440108494 1021209707 217409329</internalNodes>
      <leafValues>
        -2.6229164004325867e-01 9.0548463165760040e-02</leafValues></_>
    <_>
      <internalNodes>
        0 -1 2981 35694384 -1213163950 -476069159 1326006368 537399016
        -1214583911 483072716 -1983184760</internalNodes>
      <leafValues>
        -2.2162650525569916e-01 1.4143137633800507e-01</leafValues></_>
    <_>
      <internalNodes>
        0 -1 3247 1348085818 853535219 -305026369 -1530112193 -468638235
        1588073171 -126355259 118893066</internalNodes>
      <leafValues>
        -2.4477785825729370e-01 1.1357029527425766e-01</leafValues></_>
    <_>
      <internalNodes>
        0 -1 6720 -240145489 528393781 1755619718 -1285126286 1582798563
        -1068192092 -270536514 -135273301</internalNodes>
      <leafValues>
        -1.0683265328407288e-01 2.7061051130294800e-01</leafValues></_>
    <_>
      <internalNodes>
        0 -1 7057 -48061835 1351256880 -189082828 352775904 -1801767028
        -985127433 -671176712 -1996535905</internalNodes>
      <leafValues>
        -1.4622811973094940e-01 1.9754731655120850e-01</leafValues></_>
    <_>
      <internalNodes>
        0 -1 4769 677549630 -690483325 -367331652 980609074 2113162004
        399795841 1324125022 -1441038542</internalNodes>
      <leafValues>
        -2.0363457500934601e-01 1.4291492104530334e-01</leafValues></_>
    <_>
      <internalNodes>
        0 -1 5952 -1034951805 -881465322 592385578 -203107230 1566715281
        617038822 1435106705 -253448258</internalNodes>
      <leafValues>
        -1.5771993994712830e-01 1.8404409289360046e-01</leafValues></_>
    <_>
      <internalNodes>
        0 -1 2144 -893724178 2078733946 -1094189314 102399161 -254541802
        -143524676 956194200 -545845666</internalNodes>
      <leafValues>
        -1.6734758019447327e-01 1.8187615275382996e-01</leafValues></_>
    <_>
      <internalNodes>
        0 -1 4779 -1099292815 -56355616 -1359323265 962078910
        -1095235184 -553768413 -306567522 -76404170</internalNodes>
      <leafValues>
        -1.8707016110420227e-01 1.5527416765689850e-01</leafValues></_>
    <_>
      <internalNodes>
        0 -1 5158 -650054238 823438508 1346830515 -1256199646 1104985505
        -557751856 -2100559441 881293634</internalNodes>
      <leafValues>
        -1.9155085086822510e-01 1.4760139584541321e-01</leafValues></_>
    <_>
      <internalNodes>
        0 -1 6368 -479230194 1542012843 1182115330 -1781795210
        1754030935 1492285425 367463817 -536877482</internalNodes>
      <leafValues>
        -1.3722771406173706e-01 2.1287505328655243e-01</leafValues></_>
    <_>
      <internalNodes>
        0 -1 3817 -452943755 -1650510569 -1997980997 -86634336
        1148844469 99051537 -856686885 -1942622081</internalNodes>
      <leafValues>
        -1.7497047781944275e-01 1.6908681392669678e-01</leafValues></_>
    <_>
      <internalNodes>
        0 -1 3616 -301825152 -1735876216 -1006695443 -541217819
        -2127653971 2107832047 1263752159 -85237237</internalNodes>
      <leafValues>
        -1.3017831742763519e-01 2.2879414260387421e-01</leafValues></_>
    <_>
      <internalNodes>
        0 -1 377 -358700365 -919872881 680454388 -295915836 1184195445
        -325494377 -288035084 -265948713</internalNodes>
      <leafValues>
        -1.6660082340240479e-01 1.7212688922882080e-01</leafValues></_>
    <_>
      <internalNodes>
        0 -1 1825 -1415870764 831642166 -1647290191 -1369459934
        2135203056 -271564063 610670592 1616563192</internalNodes>
      <leafValues>
        -2.1360509097576141e-01 1.3023315370082855e-01</leafValues></_>
    <_>
      <internalNodes>
        0 -1 6261 1683398827 2031073707 74924567 2038429299 2038408383
        -1242225053 -976726161 -263085568</internalNodes>
      <leafValues>
        -1.3906012475490570e-01 2.0447432994842529e-01</leafValues></_>
    <_>
      <internalNodes>
        0 -1 4640 2077200042 253812481 -153005766 -1081529584 508655813
        -574006553 -1436710434 512193242</internalNodes>
      <leafValues>
        -1.9720156490802765e-01 1.4703033864498138e-01</leafValues></_>
    <_>
      <internalNodes>
        0 -1 2914 780814001 -1275317495 -1298219016 -1623205524
        376508209 -1761618319 707526680 -1996501123</internalNodes>
      <leafValues>
        -1.7792356014251709e-01 1.6300845146179199e-01</leafValues></_>
    <_>
      <internalNodes>
        0 -1 1551 2048651728 -1028560192 -1884644094 -638940971
        -2099264065 -22548027 -5898499 737133642</internalNodes>
      <leafValues>
        -1.5467515587806702e-01 1.9012065231800079e-01</leafValues></_>
    <_>
      <internalNodes>
        0 -1 1382 -227391659 -1818381478 -423447721 -269474447
        -758731786 -1433293147 -98933861 757743712</internalNodes>
      <leafValues>
        -2.1344016492366791e-01 1.4274917542934418e-01</leafValues></_>
    <_>
      <internalNodes>
        0 -1 276 -2065859038 1543643084 77070588 -170592609 1317455299
        168719141 -232360082 278181749</internalNodes>
      <leafValues>
        -2.9105490446090698e-01 1.0466028749942780e-01</leafValues></_>
    <_>
      <internalNodes>
        0 -1 6231 -688329213 406880516 26285966 822271592 2120297965
        -661509461 1404525614 1229977636</internalNodes>
      <leafValues>
        -2.0298326015472412e-01 1.5363340079784393e-01</leafValues></_>
    <_>
      <internalNodes>
        0 -1 5704 87315237 -1377612431 1100319020 247280372 2141402997
        1915155359 1999142477 77862396</internalNodes>
      <leafValues>
        -2.9532191157341003e-01 1.0165741294622421e-01</leafValues></_>
    <_>
      <internalNodes>
        0 -1 343 -80839478 793282145 -1472060599 1716228647 365396471
        -333060494 1424295566 1749119319</internalNodes>
      <leafValues>
        -2.0403112471103668e-01 1.5291099250316620e-01</leafValues></_>
    <_>
      <internalNodes>
        0 -1 1923 -630206209 -39158030 709832571 86627878 2122309373
        -811176763 -744234886 -797858</internalNodes>
      <leafValues>
        -1.0962980240583420e-01 2.9027843475341797e-01</leafValues></_>
    <_>
      <internalNodes>
        0 -1 16 616498688 770218511 -1649287586 -330672939 1507921940
        1008716057 1277031268 276218238</internalNodes>
      <leafValues>
        -3.8280585408210754e-01 8.3039596676826477e-02</leafValues></_>
    <_>
      <internalNodes>
        0 -1 4709 -361574870 1532796272 -1260864430 -1211915226 40639714
        478283184 -1375983366 1508854546</internalNodes>
      <leafValues>
        -1.9162097573280334e-01 1.5738147497177124e-01</leafValues></_>
    <_>
      <internalNodes>
        0 -1 7967 789520160 674548360 1331253072 -1783101440 802129235
        -1705974944 -1905386448 416087978</internalNodes>
      <leafValues>
        -2.7936464548110962e-01 1.1933470517396927e-01</leafValues></_>
    <_>
      <internalNodes>
        0 -1 6425 1779766834 -1664137296 -928271202 -856957700
        -1953021904 1039797227 1827618626 -590252315</internalNodes>
      <leafValues>
        -2.2406069934368134e-01 1.3644436001777649e-01</leafValues></_>
    <_>
      <internalNodes>
        0 -1 5124 1932962504 369403460 580767930 628195426 952260080
        1825401508 819221428 1191415845</internalNodes>
      <leafValues>
        -2.7497434616088867e-01 1.1263578385114670e-01</leafValues></_>
    <_>
      <internalNodes>
        0 -1 6068 -1739576940 -1131932204 2108463065 496573481
        -562558020 -1614926196 1044252702 -1411237800</internalNodes>
      <leafValues>
        -2.1917213499546051e-01 1.5303686261177063e-01</leafValues></_>
    <_>
      <internalNodes>
        0 -1 7673 -77632798 -490474910 1968391009 -198865962 533237185
        1328352316 1721198439 1166005174</internalNodes>
      <leafValues>
        -2.3004646599292755e-01 1.3398189842700958e-01</leafValues></_>
    <_>
      <internalNodes>
        0 -1 6931 -549183271 -779212547 1725688313 -676410632 -822952226
        -540604017 -190430484 -493126810</internalNodes>
      <leafValues>
        -1.2622731924057007e-01 2.4493278563022614e-01</leafValues></_>
    <_>
      <internalNodes>
        0 -1 7399 -2104819296 -1843467680 -738156912 548303457
        1544247047 203723754 293788090 1564914789</internalNodes>
      <leafValues>
        -2.7528461813926697e-01 1.1318247765302658e-01</leafValues></_>
    <_>
      <internalNodes>
        0 -1 3807 250324420 -1521546314 1468513797 545314448 1024270761
        -271326771 903940801 838936064</internalNodes>
      <leafValues>
        -2.7634778618812561e-01 1.1979755759239197e-01</leafValues></_>
    <_>
      <internalNodes>
        0 -1 8152 -65546318 -1641401847 -335748263 -607389379 1899989151
        -1613472271 -328418068 -1420569205</internalNodes>
      <leafValues>
        -1.3200613856315613e-01 2.5461897253990173e-01</leafValues></_>
    <_>
      <internalNodes>
        0 -1 1374 1724845615 -22413038 168056434 1860197001 -1688508348
        1113342548 1825601878 -714916078</internalNodes>
      <leafValues>
        -2.5372639298439026e-01 1.3379649817943573e-01</leafValues></_>
    <_>
      <internalNodes>
        0 -1 1583 -1907733360 -130911211 -695043624 -1374617036
        741127508 -564183438 -1344098160 -1104096179</internalNodes>
      <leafValues>
        -2.4228166043758392e-01 1.2550374865531921e-01</leafValues></_>
    <_>
      <internalNodes>
        0 -1 3015 2074591363 6605961 1024276789 -1484274288 1433895587
        -343478219 302695440 -925699179</internalNodes>
      <leafValues>
        -1.8504357337951660e-01 1.7209385335445404e-01</leafValues></_>
    <_>
      <internalNodes>
        0 -1 4192 -716755390 1881149374 -313233128 -544219956 1241115325
        1975300080 1133360059 -1465283814</internalNodes>
      <leafValues>
        -1.5086796879768372e-01 2.1382550895214081e-01</leafValues></_>
    <_>
      <internalNodes>
        0 -1 3415 -765528377 1362217863 1065106199 -1937968329
        1079846027 -308758543 -18232476 -842036453</internalNodes>
      <leafValues>
        -1.2408530712127686e-01 2.6502376794815063e-01</leafValues></_>
    <_>
      <internalNodes>
        0 -1 6420 1599375174 -533559380 2004758740 1940093858 549493100
        -1940533385 -167896872 -1414078450</internalNodes>
      <leafValues>
        -1.7577719688415527e-01 1.8757076561450958e-01</leafValues></_>
    <_>
      <internalNodes>
        0 -1 569 -1897733402 1011534500 717402118 1644865098 1656882688
        654341623 1948460292 1649759046</internalNodes>
      <leafValues>
        -3.9677751064300537e-01 8.7653391063213348e-02</leafValues></_>
    <_>
      <internalNodes>
        0 -1 8434 -486543838 1344657141 -1374237933 -625676810 674960136
        -934184665 2145121146 -1577341577</internalNodes>
      <leafValues>
        -1.8574854731559753e-01 1.7146469652652740e-01</leafValues></_>
    <_>
      <internalNodes>
        0 -1 6025 -827025152 504954410 1477220502 1009878592 -1446365032
        -1607781576 10948921 191062048</internalNodes>
      <leafValues>
        -2.6463681459426880e-01 1.2166553735733032e-01</leafValues></_></weakClassifiers></stage12>
</opencv_storage>
