<?xml version="1.0"?>
<opencv_storage>
<stage18>
  <maxWeakCount>29</maxWeakCount>
  <stageThreshold>-1.0920636653900146e+00</stageThreshold>
  <weakClassifiers>
    <_>
      <internalNodes>
        0 -1 16 1384596237 -16888353 -572664042 -87967403 -124199893
        -1105485093 -84954372 -768935190</internalNodes>
      <leafValues>
        -3.6213332414627075e-01 4.1269842535257339e-02</leafValues></_>
    <_>
      <internalNodes>
        0 -1 4465 1548067272 639442819 -595019777 -182988394 -365050425
        2073817399 1960858784 570763286</internalNodes>
      <leafValues>
        -3.2549551129341125e-01 1.2534347176551819e-01</leafValues></_>
    <_>
      <internalNodes>
        0 -1 6280 -1062494170 2060328490 801718521 -504509740 1390211366
        1740103122 1958078340 -792337984</internalNodes>
      <leafValues>
        -2.2819775342941284e-01 1.8296737968921661e-01</leafValues></_>
    <_>
      <internalNodes>
        0 -1 417 -750000461 -404050014 -50419087 -467604640 1563311797
        -547111068 -1771715088 -513544713</internalNodes>
      <leafValues>
        -1.4404438436031342e-01 2.7631339430809021e-01</leafValues></_>
    <_>
      <internalNodes>
        0 -1 7829 -1882509920 -84798757 -721071728 -124074732 199471011
        -1588332136 -1918122865 1167185044</internalNodes>
      <leafValues>
        -2.7497312426567078e-01 1.6449278593063354e-01</leafValues></_>
    <_>
      <internalNodes>
        0 -1 3081 1363425736 -1659103280 655689933 -542427127 1368701344
        -244782419 -1143948851 1338129051</internalNodes>
      <leafValues>
        -2.0304141938686371e-01 2.1441966295242310e-01</leafValues></_>
    <_>
      <internalNodes>
        0 -1 8456 1066089495 748727220 -590123024 -2103544206 1564155744
        -1940723661 1564168500 -2007728672</internalNodes>
      <leafValues>
        -3.3723664283752441e-01 1.2483802437782288e-01</leafValues></_>
    <_>
      <internalNodes>
        0 -1 2491 1946311218 1415739282 -1486840047 -471744428
        1527021738 -1299351383 -1179483906 69812306</internalNodes>
      <leafValues>
        -2.6051440834999084e-01 1.7107322812080383e-01</leafValues></_>
    <_>
      <internalNodes>
        0 -1 4780 -26290594 483414370 -958492066 823657554 1275350108
        -607117168 -1506790324 -1700635013</internalNodes>
      <leafValues>
        -2.6580682396888733e-01 1.5878890454769135e-01</leafValues></_>
    <_>
      <internalNodes>
        0 -1 4702 -213390832 -1908496338 549744757 13699198 -1550149080
        164632744 865462547 1182235022</internalNodes>
      <leafValues>
        -2.5590667128562927e-01 1.9433662295341492e-01</leafValues></_>
    <_>
      <internalNodes>
        0 -1 3532 -1978949327 -1974414496 -1782086091 -1281100491
        922571940 -1681340035 439730388 -1912606018</internalNodes>
      <leafValues>
        -2.3428295552730560e-01 1.8308553099632263e-01</leafValues></_>
    <_>
      <internalNodes>
        0 -1 4324 103287947 624694303 889290746 548773631 -1681302691
        1788480168 1030300161 268469173</internalNodes>
      <leafValues>
        -3.6079198122024536e-01 1.2985888123512268e-01</leafValues></_>
    <_>
      <internalNodes>
        0 -1 5736 387334125 337127165 927984845 -353519889 1660282679
        1089482463 1153910773 326909432</internalNodes>
      <leafValues>
        -3.2041504979133606e-01 1.1987291276454926e-01</leafValues></_>
    <_>
      <internalNodes>
        0 -1 1690 -1094628812 412666132 457253755 2102459491 546769160
        -1977765763 -1545262362 1232415284</internalNodes>
      <leafValues>
        -3.0400049686431885e-01 1.6309583187103271e-01</leafValues></_>
    <_>
      <internalNodes>
        0 -1 7930 -34618159 1534705063 1874753045 1999220635 -190294904
        -55444107 1759802890 -1545109625</internalNodes>
      <leafValues>
        -1.6984020173549652e-01 2.8708180785179138e-01</leafValues></_>
    <_>
      <internalNodes>
        0 -1 914 1386569174 -1171196448 -1159267660 -1008607632
        -1500541730 12451598 -4352814 406572106</internalNodes>
      <leafValues>
        -2.0232962071895599e-01 2.3556162416934967e-01</leafValues></_>
    <_>
      <internalNodes>
        0 -1 5158 -631701878 1095140881 -1868691402 894639750 1527932320
        1237592919 -2119421784 860174954</internalNodes>
      <leafValues>
        -3.0396410822868347e-01 1.4086766541004181e-01</leafValues></_>
    <_>
      <internalNodes>
        0 -1 2807 1318767823 887771352 1871763560 1616163026 1142587915
        2037516357 1725444082 1695745872</internalNodes>
      <leafValues>
        -3.2339382171630859e-01 1.5157119929790497e-01</leafValues></_>
    <_>
      <internalNodes>
        0 -1 454 25020422 -1739463316 1286341926 194267746 -802080476
        1883246752 507838079 1653482075</internalNodes>
      <leafValues>
        -3.8593992590904236e-01 1.1523854732513428e-01</leafValues></_>
    <_>
      <internalNodes>
        0 -1 7960 -389035776 419628490 279650590 896897226 1129126341
        -862484083 -1566159652 -1403868146</internalNodes>
      <leafValues>
        -2.4168118834495544e-01 1.9205684959888458e-01</leafValues></_>
    <_>
      <internalNodes>
        0 -1 5326 771891528 698252944 -1266183447 -428989444 -280966569
        1739637284 1374696311 954482956</internalNodes>
      <leafValues>
        -3.5273358225822449e-01 1.4044053852558136e-01</leafValues></_>
    <_>
      <internalNodes>
        0 -1 4251 43974656 111571280 651720227 -1404350522 1061182774
        2119206086 -1233456620 616582448</internalNodes>
      <leafValues>
        -5.1113146543502808e-01 9.4429440796375275e-02</leafValues></_>
    <_>
      <internalNodes>
        0 -1 4174 1498672264 1989208764 1767512147 1512770064
        -1219311726 -340710969 -1097887591 1531886048</internalNodes>
      <leafValues>
        -2.3064632713794708e-01 2.0204320549964905e-01</leafValues></_>
    <_>
      <internalNodes>
        0 -1 8428 -35659981 -1845893130 -268664897 -1121435659
        2142449335 750759358 1065045150 -822743113</internalNodes>
      <leafValues>
        -1.4635811746120453e-01 3.5252451896667480e-01</leafValues></_>
    <_>
      <internalNodes>
        0 -1 4779 -1162736172 -1719991644 1255701651 521178868
        -1164555824 985566266 -209421400 -76522412</internalNodes>
      <leafValues>
        -2.6391926407814026e-01 1.9650506973266602e-01</leafValues></_>
    <_>
      <internalNodes>
        0 -1 5689 -226841892 1882587632 -684286085 -101796246 1987742437
        1768232696 -2135000836 -1967200181</internalNodes>
      <leafValues>
        -2.0964646339416504e-01 2.4627348780632019e-01</leafValues></_>
    <_>
      <internalNodes>
        0 -1 8186 729482551 -1493942536 -278462884 -1623069207
        -1416356127 -335661349 618417307 -1915751189</internalNodes>
      <leafValues>
        -1.8484343588352203e-01 2.7954238653182983e-01</leafValues></_>
    <_>
      <internalNodes>
        0 -1 2863 855342018 1584289979 -68879253 -1358122173 349000933
        -1350590731 -286263969 -1796353478</internalNodes>
      <leafValues>
        -2.1323902904987335e-01 2.4108134210109711e-01</leafValues></_>
    <_>
      <internalNodes>
        0 -1 8401 -656741216 -289220241 404191456 -624672773 2000526447
        365924737 1608737815 -530716178</internalNodes>
      <leafValues>
        -2.3892284929752350e-01 2.1546389162540436e-01</leafValues></_></weakClassifiers></stage18>
</opencv_storage>
