<?xml version="1.0"?>
<opencv_storage>
<stage10>
  <maxWeakCount>31</maxWeakCount>
  <stageThreshold>-1.0775911808013916e+00</stageThreshold>
  <weakClassifiers>
    <_>
      <internalNodes>
        0 -1 7377 52946305 -1817455649 -1210190415 -543180813 1248902069
        -822373643 1211061749 1172526532</internalNodes>
      <leafValues>
        -3.2484075427055359e-01 1.5500986576080322e-01</leafValues></_>
    <_>
      <internalNodes>
        0 -1 280 -269049173 1761266667 -2074732370 -1566129330 846426229
        1919384087 -5011900 -708317433</internalNodes>
      <leafValues>
        -2.8304189443588257e-01 1.9392341375350952e-01</leafValues></_>
    <_>
      <internalNodes>
        0 -1 2669 -126332803 -285213033 2075914135 -671273545 -55246849
        -33833033 -41030 -81625282</internalNodes>
      <leafValues>
        -2.1253570914268494e-01 2.4359144270420074e-01</leafValues></_>
    <_>
      <internalNodes>
        0 -1 8395 -563089887 -1057215185 100388501 -260219657 -705832029
        13090491 -1241594876 -991169377</internalNodes>
      <leafValues>
        -1.3939277827739716e-01 3.1660652160644531e-01</leafValues></_>
    <_>
      <internalNodes>
        0 -1 2259 1387264038 842088469 806363384 -1783464762 465886687
        94086079 -459243800 1610719242</internalNodes>
      <leafValues>
        -3.5723698139190674e-01 1.2371858954429626e-01</leafValues></_>
    <_>
      <internalNodes>
        0 -1 6068 271588120 486815120 2134018678 959454488 524029360
        -1686626290 684085692 -1348981704</internalNodes>
      <leafValues>
        -3.7737745046615601e-01 9.6037603914737701e-02</leafValues></_>
    <_>
      <internalNodes>
        0 -1 8141 -75903744 149345952 -2140946688 -1604191925 1222222344
        15607232 1449989664 12691534</internalNodes>
      <leafValues>
        -3.8993099331855774e-01 1.2204680591821671e-01</leafValues></_>
    <_>
      <internalNodes>
        0 -1 6698 -516328196 -248412636 -691196455 1975248592
        -2123295013 -1183940781 551762362 956427915</internalNodes>
      <leafValues>
        -2.0404639840126038e-01 2.2630447149276733e-01</leafValues></_>
    <_>
      <internalNodes>
        0 -1 1366 1660308759 1247722846 -119472195 69999870 -87079871
        -55934928 -673686160 -65573101</internalNodes>
      <leafValues>
        -2.8157854080200195e-01 1.5569941699504852e-01</leafValues></_>
    <_>
      <internalNodes>
        0 -1 4573 913252890 925477790 1966164061 75880556 1494288947
        -2094945778 507595008 1111880471</internalNodes>
      <leafValues>
        -2.8519380092620850e-01 1.7006434500217438e-01</leafValues></_>
    <_>
      <internalNodes>
        0 -1 27 187305038 890749259 77512127 2133442295 -1168814644
        -240137474 -1527530450 471884816</internalNodes>
      <leafValues>
        -3.0984780192375183e-01 1.5508054196834564e-01</leafValues></_>
    <_>
      <internalNodes>
        0 -1 6320 -190209402 1076280086 750519494 -1760834906
        -1128580983 1221848549 -926291256 -488314912</internalNodes>
      <leafValues>
        -2.1410594880580902e-01 2.1770673990249634e-01</leafValues></_>
    <_>
      <internalNodes>
        0 -1 6618 -648677901 -1827516658 2147118335 -1088198788
        1990854325 -293992906 1873298174 1798025199</internalNodes>
      <leafValues>
        -2.0057211816310883e-01 2.5635424256324768e-01</leafValues></_>
    <_>
      <internalNodes>
        0 -1 3069 -897145664 872983058 -1793395850 -1257996176
        -1103290148 -830049698 598002830 1094008886</internalNodes>
      <leafValues>
        -2.7146142721176147e-01 1.9036062061786652e-01</leafValues></_>
    <_>
      <internalNodes>
        0 -1 2773 -94184521 -46203073 -1485129025 -1204749699 -176939817
        -16941065 1610505915 -566918</internalNodes>
      <leafValues>
        -1.6900293529033661e-01 2.9928365349769592e-01</leafValues></_>
    <_>
      <internalNodes>
        0 -1 4660 -211443536 195273346 -174203333 2069212332 309172408
        2034182106 -1264712422 2146953435</internalNodes>
      <leafValues>
        -2.0331296324729919e-01 2.3928196728229523e-01</leafValues></_>
    <_>
      <internalNodes>
        0 -1 7746 -931674859 996205369 1614566975 957386034 1551353240
        -86016065 -496724994 -354432125</internalNodes>
      <leafValues>
        -1.6401560604572296e-01 2.8536564111709595e-01</leafValues></_>
    <_>
      <internalNodes>
        0 -1 7082 1341109749 675968944 418895921 -1074966548 -1935862032
        -1395679762 2046107452 -923935495</internalNodes>
      <leafValues>
        -2.1777306497097015e-01 2.1917855739593506e-01</leafValues></_>
    <_>
      <internalNodes>
        0 -1 2011 -886058897 907278566 113306781 -1404030454 -437294524
        -366272460 422369800 -1405881770</internalNodes>
      <leafValues>
        -2.5895366072654724e-01 1.8344065546989441e-01</leafValues></_>
    <_>
      <internalNodes>
        0 -1 5912 -880287477 -510943589 -344344029 -1214087494
        2002559909 810539581 2112778184 -35129722</internalNodes>
      <leafValues>
        -1.4909258484840393e-01 3.0939817428588867e-01</leafValues></_>
    <_>
      <internalNodes>
        0 -1 2458 579504688 -421483539 -1518766918 -1213484620 469704622
        433213707 -740165474 -324050780</internalNodes>
      <leafValues>
        -2.3960299789905548e-01 2.0920519530773163e-01</leafValues></_>
    <_>
      <internalNodes>
        0 -1 8086 -1098148515 -1163511964 -1203536069 -1534843094
        -1600186539 -1601443795 -1537130502 -492111758</internalNodes>
      <leafValues>
        -2.2502672672271729e-01 2.1903532743453979e-01</leafValues></_>
    <_>
      <internalNodes>
        0 -1 4774 1526639645 -22017541 -97092770 2032205466 -1816257300
        -562080547 -683743589 -1365542790</internalNodes>
      <leafValues>
        -1.6347320377826691e-01 2.9781225323677063e-01</leafValues></_>
    <_>
      <internalNodes>
        0 -1 120 -1371624789 -1396531793 1855103410 -421008166
        1664852575 776407903 -604112987 1442709339</internalNodes>
      <leafValues>
        -2.6800999045372009e-01 1.8393108248710632e-01</leafValues></_>
    <_>
      <internalNodes>
        0 -1 63 8651264 -822867553 551227456 -2065061139 -1492050834
        203817792 1549020021 1319220</internalNodes>
      <leafValues>
        -5.9882956743240356e-01 9.9130652844905853e-02</leafValues></_>
    <_>
      <internalNodes>
        0 -1 7730 -1071510419 468593427 2134839031 1965268756 977609413
        -530030785 -629846449 -73796334</internalNodes>
      <leafValues>
        -1.9574020802974701e-01 2.6206213235855103e-01</leafValues></_>
    <_>
      <internalNodes>
        0 -1 7989 595058483 -2141281310 1558447873 -584204829 96422118
        1319763844 -38807326 -924450926</internalNodes>
      <leafValues>
        -2.1886727213859558e-01 2.3441414535045624e-01</leafValues></_>
    <_>
      <internalNodes>
        0 -1 6688 -360208730 840089454 1122420760 -714671170 -420378552
        482787229 -570462580 -493359170</internalNodes>
      <leafValues>
        -1.9603109359741211e-01 2.6606616377830505e-01</leafValues></_>
    <_>
      <internalNodes>
        0 -1 6604 -958533969 932963399 -394049546 -589071050 -823238689
        -1813292402 -1260687152 -186615932</internalNodes>
      <leafValues>
        -2.3839594423770905e-01 2.1855585277080536e-01</leafValues></_>
    <_>
      <internalNodes>
        0 -1 5621 -630070276 -598489978 -1514525771 1573365903
        -716831240 1197466856 -61490710 1453807658</internalNodes>
      <leafValues>
        -2.0563004910945892e-01 2.5100618600845337e-01</leafValues></_>
    <_>
      <internalNodes>
        0 -1 7187 -649081601 1931318594 -1678942193 494750992 -435451649
        -93815254 1276188603 -207486982</internalNodes>
      <leafValues>
        -1.4798933267593384e-01 3.6438685655593872e-01</leafValues></_></weakClassifiers></stage10>
</opencv_storage>
