<?xml version="1.0"?>
<opencv_storage>
<stage4>
  <maxWeakCount>18</maxWeakCount>
  <stageThreshold>-1.2340250015258789e+00</stageThreshold>
  <weakClassifiers>
    <_>
      <internalNodes>
        0 -1 11 -362116414 -247649209 1620146015 -1149240777 -1746942221
        -842852815 -1142694417 1936945763</internalNodes>
      <leafValues>
        -4.5835515856742859e-01 1.5749190747737885e-01</leafValues></_>
    <_>
      <internalNodes>
        0 -1 2172 1606388736 829282620 -1396038648 -36730290 1097596414
        2091554963 -334632244 1960833722</internalNodes>
      <leafValues>
        -4.1472586989402771e-01 2.0342674851417542e-01</leafValues></_>
    <_>
      <internalNodes>
        0 -1 7399 -838352480 -604049429 -42166859 -676073007 1489880526
        -1941321811 1369904543 1174385813</internalNodes>
      <leafValues>
        -2.8581601381301880e-01 2.7060517668724060e-01</leafValues></_>
    <_>
      <internalNodes>
        0 -1 6795 -841764096 15257491 -435184843 -47318279 1282235588
        207701424 1793655104 -844629281</internalNodes>
      <leafValues>
        -2.9422411322593689e-01 2.7751147747039795e-01</leafValues></_>
    <_>
      <internalNodes>
        0 -1 2178 -319943657 -541638129 -703804673 -71926197 1757677668
        -1077978299 -296588080 -277676185</internalNodes>
      <leafValues>
        -2.9235172271728516e-01 2.5849440693855286e-01</leafValues></_>
    <_>
      <internalNodes>
        0 -1 8419 -191107326 546766255 -592605614 -456730885 -1000386732
        1100659303 -257345728 -218367241</internalNodes>
      <leafValues>
        -3.0300021171569824e-01 2.6868882775306702e-01</leafValues></_>
    <_>
      <internalNodes>
        0 -1 7248 -1041718056 -243120556 1777064733 1392869408
        1691701131 -380876369 1752408810 136793279</internalNodes>
      <leafValues>
        -3.6878323554992676e-01 2.2495931386947632e-01</leafValues></_>
    <_>
      <internalNodes>
        0 -1 507 2112614007 -1104460175 -1007096137 717172283 1813278945
        1864703808 1968601887 1802990151</internalNodes>
      <leafValues>
        -2.6318615674972534e-01 2.8385841846466064e-01</leafValues></_>
    <_>
      <internalNodes>
        0 -1 4779 -1136116675 -1076756308 -1378756353 999307965
        1871382896 -10990566 -4060484 -93303206</internalNodes>
      <leafValues>
        -2.9486697912216187e-01 2.5508314371109009e-01</leafValues></_>
    <_>
      <internalNodes>
        0 -1 3903 1195879424 219746055 -1273901347 -473406063 -782111070
        -650346533 72677051 16641599</internalNodes>
      <leafValues>
        -3.9518263936042786e-01 1.7023725807666779e-01</leafValues></_>
    <_>
      <internalNodes>
        0 -1 3022 -268254496 489349456 722039170 2009019745 -905448040
        1259397307 705133066 1464586003</internalNodes>
      <leafValues>
        -3.0992853641510010e-01 2.4861742556095123e-01</leafValues></_>
    <_>
      <internalNodes>
        0 -1 7864 674232177 246343328 -1217014832 -1891706090 95364477
        1277158826 67012081 -838861327</internalNodes>
      <leafValues>
        -3.2007205486297607e-01 2.3102781176567078e-01</leafValues></_>
    <_>
      <internalNodes>
        0 -1 7357 725038096 -1233878160 834413053 -541791583 169097616
        1073646504 -1944841252 -1913970340</internalNodes>
      <leafValues>
        -3.2182839512825012e-01 2.4263183772563934e-01</leafValues></_>
    <_>
      <internalNodes>
        0 -1 5057 2085069186 1942479604 636630643 -6600534 1516497083
        -231225689 572687083 1778886866</internalNodes>
      <leafValues>
        -2.6381787657737732e-01 2.8430446982383728e-01</leafValues></_>
    <_>
      <internalNodes>
        0 -1 64 -1366380913 720137711 1055301464 -487100550 1283452787
        1744155411 1308488686 -164244137</internalNodes>
      <leafValues>
        -2.6874956488609314e-01 2.8098750114440918e-01</leafValues></_>
    <_>
      <internalNodes>
        0 -1 5952 -942674297 -755528753 -1485430913 -727655606
        -1258431579 1691672437 -136908927 -1057100108</internalNodes>
      <leafValues>
        -2.5111922621726990e-01 3.1508427858352661e-01</leafValues></_>
    <_>
      <internalNodes>
        0 -1 2394 34769696 448168614 1766143389 -1219186096 604349568
        -1113017849 837666188 -855686785</internalNodes>
      <leafValues>
        -3.2114747166633606e-01 2.5897043943405151e-01</leafValues></_>
    <_>
      <internalNodes>
        0 -1 8449 1794772611 775741 -431770812 551842771 1449011974
        1813248829 -834477808 -51643077</internalNodes>
      <leafValues>
        -3.3351904153823853e-01 2.3117949068546295e-01</leafValues></_></weakClassifiers></stage4>
</opencv_storage>
