<?xml version="1.0"?>
<opencv_storage>
<stage14>
  <maxWeakCount>29</maxWeakCount>
  <stageThreshold>-1.1550426483154297e+00</stageThreshold>
  <weakClassifiers>
    <_>
      <internalNodes>
        0 -1 1443 -220211457 -11415083 -646447137 1385995351 -1194330097
        -10526898 -52703265 -8664081</internalNodes>
      <leafValues>
        -3.9070984721183777e-01 1.1822947114706039e-01</leafValues></_>
    <_>
      <internalNodes>
        0 -1 8188 -1952187103 2043207272 -541868041 -67795016 1858056943
        -19945539 247192563 -689994460</internalNodes>
      <leafValues>
        -1.9830723106861115e-01 2.4654221534729004e-01</leafValues></_>
    <_>
      <internalNodes>
        0 -1 8408 -993008093 147782067 -173698479 -54795624 -215388359
        213878411 -1053867920 1090379330</internalNodes>
      <leafValues>
        -2.5165909528732300e-01 1.7927096784114838e-01</leafValues></_>
    <_>
      <internalNodes>
        0 -1 8108 -213889676 273288651 1268054301 -1138343260
        -1233494888 -1076110421 -222555538 -90506969</internalNodes>
      <leafValues>
        -2.1714097261428833e-01 2.0590446889400482e-01</leafValues></_>
    <_>
      <internalNodes>
        0 -1 6804 556439697 -1665924812 -1313043239 -1645665004
        -1529078280 -1685409092 -1912583720 -1917187504</internalNodes>
      <leafValues>
        -2.2757752239704132e-01 2.1369579434394836e-01</leafValues></_>
    <_>
      <internalNodes>
        0 -1 3502 -1867639679 -1661189068 383224473 -1073753283 65480580
        -336809150 1474779268 -17836819</internalNodes>
      <leafValues>
        -2.2967375814914703e-01 2.0091721415519714e-01</leafValues></_>
    <_>
      <internalNodes>
        0 -1 5619 -749745576 894218796 1345327538 25045296 1358993064
        184451560 144474214 668279803</internalNodes>
      <leafValues>
        -2.7217367291450500e-01 1.7473077774047852e-01</leafValues></_>
    <_>
      <internalNodes>
        0 -1 8169 456596151 687800104 931069747 1036873648 -1954568670
        -453132290 1468863822 -846338182</internalNodes>
      <leafValues>
        -2.0831587910652161e-01 2.2837755084037781e-01</leafValues></_>
    <_>
      <internalNodes>
        0 -1 423 1290658455 2133681698 -1611518681 -859083198 -547146175
        -193894811 -446431281 -461908125</internalNodes>
      <leafValues>
        -2.1963280439376831e-01 2.2227737307548523e-01</leafValues></_>
    <_>
      <internalNodes>
        0 -1 1040 -41549837 2127638789 1874843893 1972718693 -293806088
        -545652807 787227339 -10568013</internalNodes>
      <leafValues>
        -1.4345566928386688e-01 3.6276701092720032e-01</leafValues></_>
    <_>
      <internalNodes>
        0 -1 4016 644034048 1174475520 -1541370971 -1389328500
        1359087706 1226060516 70314042 8874503</internalNodes>
      <leafValues>
        -4.5785051584243774e-01 1.0156106948852539e-01</leafValues></_>
    <_>
      <internalNodes>
        0 -1 7023 -310060858 1964040396 -683166120 363151058 626342908
        1071359881 1423133866 588236987</internalNodes>
      <leafValues>
        -2.4736180901527405e-01 1.9863957166671753e-01</leafValues></_>
    <_>
      <internalNodes>
        0 -1 6595 2118384119 -1014821614 -1518338126 -14860781 234094744
        -356554839 2120553671 -1146156416</internalNodes>
      <leafValues>
        -1.7104697227478027e-01 2.9863551259040833e-01</leafValues></_>
    <_>
      <internalNodes>
        0 -1 8128 -354768547 2019998945 1870069243 -1654460485
        -1313059251 -1149339784 -1091385382 -139838557</internalNodes>
      <leafValues>
        -1.7388652265071869e-01 2.9310905933380127e-01</leafValues></_>
    <_>
      <internalNodes>
        0 -1 8394 -688028895 -527017075 -744754896 -2000689084
        1945045094 1696676259 1906706804 1706798957</internalNodes>
      <leafValues>
        -3.0533704161643982e-01 1.6779039800167084e-01</leafValues></_>
    <_>
      <internalNodes>
        0 -1 3190 577408596 1577467764 1066651430 -1126645538 908231237
        1229007371 -555724044 -1205773789</internalNodes>
      <leafValues>
        -2.9056119918823242e-01 1.7513668537139893e-01</leafValues></_>
    <_>
      <internalNodes>
        0 -1 2331 2146039797 -1740636310 -836354219 -1345735137
        -1367717667 -1367898116 -33686065 -1094715441</internalNodes>
      <leafValues>
        -1.4597584307193756e-01 3.7520286440849304e-01</leafValues></_>
    <_>
      <internalNodes>
        0 -1 7441 -1022927050 506500641 -610774656 993710907 -1836595922
        134779043 1166883451 1141839064</internalNodes>
      <leafValues>
        -3.1316855549812317e-01 1.6842654347419739e-01</leafValues></_>
    <_>
      <internalNodes>
        0 -1 3526 88148486 595954805 2522545 753919088 -701288891
        627591995 1287911843 544473648</internalNodes>
      <leafValues>
        -4.4343152642250061e-01 1.2318576127290726e-01</leafValues></_>
    <_>
      <internalNodes>
        0 -1 5644 -520773594 1048107412 -188447460 2029435648 1661656370
        1086884490 102304733 -398036066</internalNodes>
      <leafValues>
        -2.7609705924987793e-01 2.0591057837009430e-01</leafValues></_>
    <_>
      <internalNodes>
        0 -1 6285 -867440101 544458123 705273767 -1405214907 275337054
        1981623220 -324529028 -161156287</internalNodes>
      <leafValues>
        -2.8660535812377930e-01 1.8739973008632660e-01</leafValues></_>
    <_>
      <internalNodes>
        0 -1 2228 581061702 -1408099247 -2096836355 -1983947308
        -890274860 -276673392 175984124 -1393555372</internalNodes>
      <leafValues>
        -3.8219943642616272e-01 1.3859301805496216e-01</leafValues></_>
    <_>
      <internalNodes>
        0 -1 281 -483414869 584129167 1929884191 585410124 -512432319
        -450751839 -1343459427 1567991799</internalNodes>
      <leafValues>
        -2.3877891898155212e-01 2.2221530973911285e-01</leafValues></_>
    <_>
      <internalNodes>
        0 -1 2941 -236992171 -110253320 1357754750 -1077465421
        -541089538 -523436561 861765087 -7433793</internalNodes>
      <leafValues>
        -1.2056472152471542e-01 4.4212865829467773e-01</leafValues></_>
    <_>
      <internalNodes>
        0 -1 2986 -370437743 -13755726 -16786184 435672864 -1911684701
        -159548041 340744537 -1427526563</internalNodes>
      <leafValues>
        -2.1413195133209229e-01 2.5166359543800354e-01</leafValues></_>
    <_>
      <internalNodes>
        0 -1 7076 -1972385278 91632402 -600947786 -104717902 1292190162
        -1231976395 1087168760 -545526085</internalNodes>
      <leafValues>
        -2.5321400165557861e-01 2.1706336736679077e-01</leafValues></_>
    <_>
      <internalNodes>
        0 -1 8 1103815753 474436022 -1617997721 -610469489 -1768392516
        -47860893 -2098270305 845282402</internalNodes>
      <leafValues>
        -2.2655555605888367e-01 2.4594657123088837e-01</leafValues></_>
    <_>
      <internalNodes>
        0 -1 3704 -867443046 1594263040 710543408 794542420 947397534
        -25122750 139335770 1289449706</internalNodes>
      <leafValues>
        -2.7076375484466553e-01 2.0451080799102783e-01</leafValues></_>
    <_>
      <internalNodes>
        0 -1 4640 -859340150 -2092532930 -778857198 -1511740782
        2118400211 -305549187 -1513893758 873616347</internalNodes>
      <leafValues>
        -2.7923774719238281e-01 2.0155334472656250e-01</leafValues></_></weakClassifiers></stage14>
</opencv_storage>
