<?xml version="1.0"?>
<opencv_storage>
<stage4>
  <maxWeakCount>7</maxWeakCount>
  <stageThreshold>-1.7029865980148315e+00</stageThreshold>
  <weakClassifiers>
    <_>
      <internalNodes>
        0 -1 75779 -239602689 -247990373 -254030449 -10325 -773851697
        -173027441 -572535413 -4198449</internalNodes>
      <leafValues>
        -6.3337773084640503e-01 5.4553490877151489e-01</leafValues></_>
    <_>
      <internalNodes>
        0 -1 87743 -273457 -34604081 1400091305 -203709489 -637800753
        2132499207 -209718529 -134217745</internalNodes>
      <leafValues>
        -3.9574828743934631e-01 5.3134167194366455e-01</leafValues></_>
    <_>
      <internalNodes>
        0 -1 89280 -572523049 261086669 151555362 218414988 -639726395
        233671933 679652498 102419661</internalNodes>
      <leafValues>
        -8.0140942335128784e-01 2.4592353403568268e-01</leafValues></_>
    <_>
      <internalNodes>
        0 -1 79359 -857405607 -10682695 -1895888323 -137644107
        -805913089 -84890894 -251201 -112085103</internalNodes>
      <leafValues>
        -4.1878947615623474e-01 4.5020878314971924e-01</leafValues></_>
    <_>
      <internalNodes>
        0 -1 89210 -18886684 1454369739 -999493659 262916911 1585387459
        261048735 185552267 252645275</internalNodes>
      <leafValues>
        -7.6025635004043579e-01 2.6656839251518250e-01</leafValues></_>
    <_>
      <internalNodes>
        0 -1 86432 -593493888 -109832003 849214975 -1846446081
        -1910462336 -286924879 -1175798020 -1314505478</internalNodes>
      <leafValues>
        -5.0160986185073853e-01 3.4930071234703064e-01</leafValues></_>
    <_>
      <internalNodes>
        0 -1 74569 1286082576 1965172768 -574400643 2068283697
        -1260231430 -1122817263 1145636046 -1106695873</internalNodes>
      <leafValues>
        -3.9753291010856628e-01 4.7067692875862122e-01</leafValues></_></weakClassifiers></stage4>
</opencv_storage>
