<?xml version="1.0"?>
<opencv_storage>
<stage15>
  <maxWeakCount>10</maxWeakCount>
  <stageThreshold>-1.6335892677307129e+00</stageThreshold>
  <weakClassifiers>
    <_>
      <internalNodes>
        0 -1 87094 -576857089 -570600451 -1714733377 -2232213 -542531585
        -72886355 -1076905285 -4473861</internalNodes>
      <leafValues>
        -5.6335616111755371e-01 4.0932643413543701e-01</leafValues></_>
    <_>
      <internalNodes>
        0 -1 83864 -2017148310 -3151122 2070910355 -16790081 -953805824
        -503884570 1397815269 -144415498</internalNodes>
      <leafValues>
        -5.5689096450805664e-01 2.2606764733791351e-01</leafValues></_>
    <_>
      <internalNodes>
        0 -1 87823 -1887457067 -3183019 214048999 -553681155 -301999425
        -1157058944 -227028802 -1089998353</internalNodes>
      <leafValues>
        -3.6717623472213745e-01 3.7218368053436279e-01</leafValues></_>
    <_>
      <internalNodes>
        0 -1 89280 -572555835 -1383112737 218730375 17377161 -1667396153
        802156463 747286007 18378703</internalNodes>
      <leafValues>
        -7.7198976278305054e-01 1.6723021864891052e-01</leafValues></_>
    <_>
      <internalNodes>
        0 -1 88022 -572522784 532302362 -1290019592 -1075475162
        -1039408136 1063190539 2129534200 -1146163542</internalNodes>
      <leafValues>
        -5.7978105545043945e-01 2.5002694129943848e-01</leafValues></_>
    <_>
      <internalNodes>
        0 -1 75780 -545788225 2137496238 -986533958 -4319202 1010101181
        550849503 2109571839 -187316050</internalNodes>
      <leafValues>
        -3.8425385951995850e-01 3.5766363143920898e-01</leafValues></_>
    <_>
      <internalNodes>
        0 -1 83558 -654336044 -2072527061 -389099681 -170526794
        -1394952017 -286193146 -1422442992 -488462535</internalNodes>
      <leafValues>
        -3.6784547567367554e-01 3.4531837701797485e-01</leafValues></_>
    <_>
      <internalNodes>
        0 -1 90628 -2103723422 -1278278742 -1371229654 -1078199157
        2008790753 746356804 -214306595 1944909551</internalNodes>
      <leafValues>
        -5.6167608499526978e-01 2.3604235053062439e-01</leafValues></_>
    <_>
      <internalNodes>
        0 -1 78799 -271618182 -1551906937 -1318810625 70168127
        -1251617340 -940183988 -420196419 -273695813</internalNodes>
      <leafValues>
        -3.1540089845657349e-01 3.9951643347740173e-01</leafValues></_>
    <_>
      <internalNodes>
        0 -1 60273 434577610 1533924847 1811488900 1535077320 -161228034
        408183446 -2032539428 1798037212</internalNodes>
      <leafValues>
        -4.4512909650802612e-01 2.7130046486854553e-01</leafValues></_></weakClassifiers></stage15>
</opencv_storage>
