<?xml version="1.0"?>
<opencv_storage>
<stage13>
  <maxWeakCount>10</maxWeakCount>
  <stageThreshold>-1.3905888795852661e+00</stageThreshold>
  <weakClassifiers>
    <_>
      <internalNodes>
        0 -1 87971 -1073750081 -1143873604 771751935 -572653573
        -71843925 -1310832 972767145 -5127</internalNodes>
      <leafValues>
        -6.3958126306533813e-01 2.0246154069900513e-01</leafValues></_>
    <_>
      <internalNodes>
        0 -1 78901 -202899457 -252051542 -663290593 -1156665458
        -168303523 -134393063 1174277647 -33619985</internalNodes>
      <leafValues>
        -3.6445707082748413e-01 4.0368387103080750e-01</leafValues></_>
    <_>
      <internalNodes>
        0 -1 79494 1591565531 -755929487 -1933672449 -558402383
        -1376492918 -196941 -1907974183 -72369206</internalNodes>
      <leafValues>
        -2.6097747683525085e-01 4.9626594781875610e-01</leafValues></_>
    <_>
      <internalNodes>
        0 -1 89070 -541140482 465289198 -1894019252 -563237143 -8434083
        1584365564 461311768 -1342210469</internalNodes>
      <leafValues>
        -3.3322352170944214e-01 3.9989113807678223e-01</leafValues></_>
    <_>
      <internalNodes>
        0 -1 74560 -805524453 -1095767553 -111304941 -10016905
        1308605951 -1929382289 -285409605 -64618921</internalNodes>
      <leafValues>
        -3.0254051089286804e-01 4.3837091326713562e-01</leafValues></_>
    <_>
      <internalNodes>
        0 -1 89211 -553779329 -1939149841 964484468 407909614 -20971876
        2122235882 2046043952 1154513267</internalNodes>
      <leafValues>
        -6.8852567672729492e-01 1.8895947933197021e-01</leafValues></_>
    <_>
      <internalNodes>
        0 -1 84977 487347276 364658522 1270110134 1523220213 -566725260
        2046686036 -84099672 -1098228292</internalNodes>
      <leafValues>
        -4.2056110501289368e-01 3.3259490132331848e-01</leafValues></_>
    <_>
      <internalNodes>
        0 -1 56337 -12980879 -14878210 594685403 -872603675 -21914881
        -1090778128 -1157655815 -1716283274</internalNodes>
      <leafValues>
        -2.8708782792091370e-01 4.6021389961242676e-01</leafValues></_>
    <_>
      <internalNodes>
        0 -1 86646 2030936066 -564149155 -1635995905 -2130955 -102168528
        -252322269 573814946 -1594811707</internalNodes>
      <leafValues>
        -4.1230207681655884e-01 3.2493785023689270e-01</leafValues></_>
    <_>
      <internalNodes>
        0 -1 89336 -1146109953 75953135 -922076414 311468 -1430537221
        -1165828209 36420335 5299137</internalNodes>
      <leafValues>
        -7.9012483358383179e-01 1.8343205749988556e-01</leafValues></_></weakClassifiers></stage13>
</opencv_storage>
