<?xml version="1.0"?>
<opencv_storage>
<stage9>
  <maxWeakCount>10</maxWeakCount>
  <stageThreshold>-1.4453730583190918e+00</stageThreshold>
  <weakClassifiers>
    <_>
      <internalNodes>
        0 -1 76235 -310382593 -163841 -306246849 -8745 -28835841
        -23793737 -9217 -525385</internalNodes>
      <leafValues>
        -6.1651378870010376e-01 3.5317149758338928e-01</leafValues></_>
    <_>
      <internalNodes>
        0 -1 90499 -1179649 -1889556536 -8915564 1039276266 -805446163
        1743777745 1066223061 2001731053</internalNodes>
      <leafValues>
        -5.8114582300186157e-01 2.4750570952892303e-01</leafValues></_>
    <_>
      <internalNodes>
        0 -1 80430 -118500641 -257949805 -1627603447 -49944032
        -1333808117 1954487565 -840054257 -67114417</internalNodes>
      <leafValues>
        -3.3868518471717834e-01 4.2546737194061279e-01</leafValues></_>
    <_>
      <internalNodes>
        0 -1 90120 1506554522 -538165714 729752551 -639713308 891950039
        -913451270 125665262 1439560698</internalNodes>
      <leafValues>
        -4.9605202674865723e-01 2.8042143583297729e-01</leafValues></_>
    <_>
      <internalNodes>
        0 -1 85262 -1171641314 -71569514 -143728967 -683183345
        -1368603418 -81876238 -67179784 -95988312</internalNodes>
      <leafValues>
        -3.1844002008438110e-01 4.1561463475227356e-01</leafValues></_>
    <_>
      <internalNodes>
        0 -1 86702 -1094812292 1978678110 -139167749 -172291 -1650787585
        -303233 -727415362 -72455217</internalNodes>
      <leafValues>
        -3.0356708168983459e-01 4.6741247177124023e-01</leafValues></_>
    <_>
      <internalNodes>
        0 -1 90568 -4784386 -1489060929 2126495511 1044293183 1594326901
        -1547740297 1983328791 320296751</internalNodes>
      <leafValues>
        -7.4833357334136963e-01 2.0699407160282135e-01</leafValues></_>
    <_>
      <internalNodes>
        0 -1 89284 943280282 -255132469 -792532408 -792826385
        -1195410430 884120716 -107093622 -186008935</internalNodes>
      <leafValues>
        -3.7682634592056274e-01 3.9107799530029297e-01</leafValues></_>
    <_>
      <internalNodes>
        0 -1 72808 1575411912 453326860 -548758576 1393787115 -448899956
        1036233383 72028636 2072672077</internalNodes>
      <leafValues>
        -5.7705914974212646e-01 2.5517246127128601e-01</leafValues></_>
    <_>
      <internalNodes>
        0 -1 88082 -15207617 -1160970635 -1080156193 -1218838788
        -1370770727 -1389297665 -1360339457 -1142554625</internalNodes>
      <leafValues>
        -2.9401099681854248e-01 5.2698522806167603e-01</leafValues></_></weakClassifiers></stage9>
</opencv_storage>
